65 100
e -0.1806479 0.37257206 0.1572427 -0.0019188502 -0.43536997 0.07878172 -0.31303164 -0.39839685 0.117630996 0.15309684 0.30065534 -0.4474446 -0.053691033 -0.3567782 0.34930477 -0.10642082 -0.07852164 -0.22404414 -0.01357602 0.13166752 -0.18933243 0.10007798 0.054982685 -0.22412515 -0.029688383 0.13124068 0.23550518 0.17220198 0.040609322 -0.22212593 -0.09392362 -0.14386164 -0.1257445 0.08938131 0.29853967 0.5264184 -0.18220192 0.45590794 -0.64602774 0.07024459 0.4737178 0.23203115 0.596568 -0.4749958 0.3339495 0.06962476 -0.20084795 0.109715015 0.17313433 -0.2468866 0.1292726 0.22952749 -0.718025 0.34089056 -0.067371316 -0.576415 0.023641314 -0.021094956 0.16534954 -0.24405165 -0.37287518 -0.50902796 0.46826395 0.27356258 -0.19049823 0.041747823 -0.5078292 -0.06089142 -0.2012864 -0.0032209859 -0.3692279 -0.30828148 -0.22321822 -0.28064203 0.25493956 -0.16280651 0.26018667 0.26330358 -0.05671061 0.40807867 -0.06281636 -0.3510508 -0.028099742 0.38528535 0.121477135 -0.3214349 -0.3167999 0.12879695 0.02070173 0.12562118 0.4613205 -0.38292652 -0.0119626 -0.040210214 0.35052422 -0.25608703 0.35343626 0.08112006 -0.10801242 -0.06047779
  0.245834 0.091108836 -0.29683167 0.08485982 -0.2927512 0.23679096 -0.019765003 0.076127686 0.07484092 0.05611782 0.014504566 -0.24337007 -0.2798803 0.008022178 0.3876569 0.009052501 0.2957621 -0.032972436 -0.16615416 -0.12662125 0.112887084 -0.25382888 -0.03574835 -0.35567015 -0.011296989 -0.12539046 0.046227414 -0.06889641 0.31404227 -0.3392835 0.1945555 -0.11525016 0.21458016 0.15782185 -0.09309974 0.35598448 -0.21278334 0.07365139 -0.20399661 0.46323818 -0.097859055 0.30925944 0.66732806 0.18840699 0.41800153 0.18204843 -0.5430772 -0.31027162 -0.012658105 0.11613214 -0.09723368 0.24221265 0.06019863 0.2690441 -0.21814992 0.4320147 0.0061845463 -0.2576767 0.37665778 -0.6217546 -0.08075894 0.20934163 -0.08805547 -0.46072266 -0.01864476 -0.21109511 0.060355455 -0.07475117 0.049852774 -0.17113292 -0.523467 -0.11395458 -0.20154367 -0.01022376 0.10668559 0.12505423 0.15941073 0.039443545 0.039342184 0.35125762 -0.22786126 -0.5304066 0.059499666 0.016614355 -0.6418311 -0.35599068 -0.00011177354 0.04796468 0.4463906 -0.027153501 0.35701 0.15433156 0.033353277 0.085305125 -0.12802169 -0.38498086 -0.40220195 -0.28294948 0.113491625 -0.6161051
r -0.2323187 0.35314214 0.4757034 -0.061328143 -0.07006311 0.37194997 0.14143516 -0.47135875 -0.4516962 -0.011258688 0.20379919 -0.37894022 0.17581609 -0.37047076 0.17753087 -0.065971985 0.66701615 0.10885306 -0.17264906 -0.011046315 -0.18590103 -0.2359976 0.28605118 -0.5358403 -0.491551 0.13996153 -0.00828906 0.09731455 0.057573844 -0.07438779 0.09561886 -0.13200365 -0.3333302 -0.37739763 0.23232582 -0.034000464 -0.45533237 -0.10127534 -0.025287367 -0.16209428 0.26164693 -0.10102413 0.2164335 0.121240295 0.33602703 -0.24423373 -0.34272194 0.062533036 -0.12596403 -0.2715091 0.11372657 0.38465166 -0.35263625 0.48713276 -0.019582247 -0.038992636 0.07521659 -0.43958727 0.29890957 -0.28394642 0.0148044275 0.06820466 -0.012909544 0.16877906 -0.20205422 -0.008453317 0.036298625 0.3128334 0.000692815 -0.1985183 0.32554597 -0.002940802 -0.15465283 -0.19582264 -0.15065475 0.193059 0.028866068 -0.043713868 0.09613565 0.47210985 -0.16921479 -0.09874359 -0.17158766 -0.18156216 0.25301194 -0.23233241 -0.35479236 0.10343237 -0.036471426 0.4537711 0.7753399 -0.24687868 0.6077165 0.29817197 0.01386891 0.3151162 -0.119403794 -0.3458071 -0.032158334 -0.04375247
a -0.5202575 0.012073941 0.3207196 -0.27846667 -0.1561833 0.005353811 -0.26169196 -0.27581695 -0.29160792 -0.28869477 0.2961438 -0.3186991 -0.37141117 0.27525303 -0.39578903 0.1225615 -0.5896265 0.031186366 0.4564419 0.20618692 -0.33011568 0.21434635 0.02342398 -0.17321704 -0.05680716 0.17618293 0.30072978 -0.10081761 -0.40527284 -0.12266066 0.03927362 -0.11352873 -0.073758714 -0.0015704385 0.26582682 0.29263285 -0.34172723 0.49008667 -0.22919145 0.22871062 0.16323762 0.027654877 0.05527322 -0.5662959 0.5448393 0.29019699 -0.29410362 0.31048352 -0.009286547 -0.117926344 0.28147247 -0.019174315 -0.4357377 0.12529683 0.12423459 -0.25091964 -0.3084183 0.17403308 -0.09559589 -0.22733755 -0.549981 -0.20630942 0.4261765 0.21433942 0.1247258 -0.15238304 -0.24242733 0.03572653 -0.19799006 0.28182617 0.3878043 0.06878972 -0.33664206 -0.23600206 0.420881 0.008528251 -0.087850794 0.10423885 -0.40353897 0.101296246 -0.03049239 -0.39536598 0.085982874 0.048147403 0.07121365 0.08788407 -0.16275617 0.23786254 -0.21970455 0.12601909 0.42079252 -0.07264149 0.011301567 0.31678593 0.036578696 -0.2349652 0.38019523 0.35746026 -0.25059685 -0.5725528
o -0.14276172 0.0046752836 0.6576726 -0.74364537 -0.08737375 -0.08292975 -0.20210926 0.22138058 0.3333942 0.43523374 0.079932205 0.31809664 -0.3015876 -0.2338467 -0.3231748 0.12588741 -0.065098934 0.06783676 -0.05075076 -0.53124803 -0.23095798 -0.64665824 -0.13936758 -0.46163043 0.3317225 -0.11367157 0.08771704 0.33118328 0.108785704 -0.08410981 0.15772367 -0.34634715 -0.15697116 -0.35555276 0.69456714 -0.1454045 -0.1291226 -0.2973642 0.12606391 -0.16657694 0.2684732 0.07958816 0.17828791 0.03550725 -0.101063155 0.20298341 -0.50831115 0.19494559 0.016166639 -0.3029069 0.15514648 0.32356042 -0.027828086 -0.040997397 0.35523966 0.20262855 5.1552805e-05 0.012969189 0.15935747 -0.16674283 0.39909306 -0.065370515 -0.25713006 0.27789184 -0.14115779 0.26321518 -0.29093486 0.08026328 -0.07293805 0.1324814 -0.06276611 0.18589179 -0.010651872 0.23366703 0.12637143 0.29831877 -0.21853259 -0.72096163 0.22150072 0.4321026 -0.063958734 0.12550937 -0.46235797 -0.04160169 -0.0983203 -0.32264706 0.08237619 -0.44660628 0.107159495 0.28929266 0.54125243 0.15734452 -0.05869302 0.18734919 0.36893883 -0.13389646 0.12301335 0.15739775 0.042062618 -0.26038337
s 0.2962948 0.119325764 -0.16669066 0.2730333 0.14563303 0.09764413 -0.07444903 0.1667984 0.15302768 -0.077038296 0.11158997 -0.45093665 -0.09730238 -0.32799628 -0.17547894 0.025423838 -0.24544476 -0.11832388 -0.18873721 0.40063602 -0.5501809 -0.037120573 -0.04171034 0.02671428 -0.168511 -0.39208966 0.24160507 -0.19623198 0.57370013 0.3276196 0.24664558 0.095437594 0.037980925 -0.06425565 0.08086897 -0.0032001145 -0.14008594 0.08039745 -0.030520821 0.094774686 0.26138026 -0.15326396 0.15108557 -0.5417807 0.2826649 -0.25336254 -0.43720025 -0.33629087 0.41457397 -0.18928753 -0.2177113 -0.23922668 -0.55571 0.47731093 -0.11366864 -0.23224175 0.27130225 -0.10323022 -0.03463431 0.06676391 -0.32739848 0.1202099 0.021884039 -0.29303536 -0.037501693 -0.167377 -0.11896158 0.3357346 -0.2792673 0.24917121 0.07831353 -0.06986879 -0.15855221 -0.074574664 0.06073577 -0.012304441 0.018534075 0.11374346 -0.29858625 -0.069361456 -0.35726658 0.220641 0.3671984 -0.01665865 0.17343096 -0.2592801 -0.2867471 0.034120426 -0.10175686 0.40924093 0.039428983 -0.13427337 0.09740448 -0.0075735915 -0.11598036 0.30234247 0.18240371 -0.3032506 0.17173393 -0.10876898
l -0.11854319 -0.3357818 0.43673643 -0.16247225 -0.2882864 0.021484468 -0.18063956 -0.51212436 0.22177567 0.27622113 0.23776527 -0.26323533 0.16842498 -0.118339375 0.10749626 0.06402669 -0.6892956 0.37171975 -0.24200752 -0.4664945 0.62252724 -0.023201684 -0.25103235 -0.64453274 0.32348233 0.15178505 0.43869734 0.2080618 -0.11017409 -0.33450124 0.39115188 -0.28509447 0.31891805 -0.09142923 -0.23286182 0.20144558 -0.18780315 -0.52170485 -0.2335056 0.2798513 0.5951361 0.18309712 0.07401953 0.037067268 0.103221014 -0.0058835894 0.04686935 -0.5981609 0.09281324 0.17412917 0.5774405 0.18680243 -0.017090552 0.78269124 0.114733145 0.10159901 0.10111705 -0.088469505 0.29496607 0.13173251 -0.22677223 -0.09042626 0.6541332 0.21285805 0.57169366 -0.0011275291 -0.09565433 -0.25738612 -0.38689688 0.3792259 -0.6502608 0.46336934 -0.21265964 -0.42120355 0.15396652 -0.20365836 -0.051409658 -0.7459044 -0.11872588 0.7153276 0.27334553 -0.63264877 0.13317855 0.46893373 -0.44067302 0.054405272 0.16620813 0.31520003 0.03235125 0.07977421 0.12608795 0.30668306 -0.24100508 0.45687994 0.0036369695 0.14134406 0.15083122 0.309328 0.20547105 -0.37804997
n -0.22866753 -0.09750709 0.056874316 0.57937443 0.28914312 0.17974027 -0.29321387 -0.21533458 0.18356803 0.29774487 0.047799237 -0.049922474 0.37742317 0.1818025 -0.13235746 0.110030256 0.13247904 0.4966804 -0.16333552 -0.058738377 0.26968464 -0.15951717 -0.16883375 -0.29044056 0.14068732 0.15896493 -0.20943695 -0.16220291 -0.44019195 -0.19032593 -0.12199409 0.022800943 0.37513238 -0.5542317 -0.14511247 -0.13424638 -0.48164326 -0.1569951 -0.040605742 -0.21439001 0.1284111 0.24165511 -0.12237277 0.19135778 -0.14432186 -0.1260609 0.11940773 -0.16351597 -0.31369132 -0.06758301 0.22078343 0.106329806 -0.0036832308 0.112023324 -0.13467881 0.41356865 -0.1578096 -0.10337 0.18435964 0.093554154 -0.40979284 -0.13162915 0.022613483 -0.049148966 0.365087 -0.20326841 0.23870677 -0.03145286 0.254307 0.2599132 0.29822606 0.019869957 -0.41095972 -0.39760637 -0.09211729 0.14987184 0.084802784 -0.35592788 -0.14464104 0.030099774 -0.116036385 -0.47177723 -0.25888124 -0.1744726 -0.1992955 -0.31438753 0.04646127 0.10475609 0.107343964 0.076857165 0.2572892 0.21777606 0.15255928 0.1000441 -0.57543886 0.11911185 0.13136189 -0.054708976 0.005686534 -0.41074648
i -0.2740704 0.2011334 0.36101162 -0.51993513 -0.2758193 0.115224734 0.38647708 0.32565263 -0.030242173 -0.054117095 0.37107763 0.10305979 -0.42067736 0.20238076 0.044213995 0.6312858 -0.9779657 0.5727622 0.052941192 -0.6133355 -0.007668805 0.09440314 -0.090487376 -0.7886011 0.43901122 0.1472921 -0.074820146 0.13621704 -0.5388185 0.15986256 -0.051361226 -0.23328048 -0.24349383 -0.44816712 0.048554156 -0.08542356 -0.2640968 -0.0954544 0.3243815 -0.12928095 0.34701145 0.28597143 -0.05807127 -0.46933118 0.32431975 0.3028369 -0.11427282 -0.0038102341 0.3436359 -0.81659615 -0.12324693 0.24024086 -0.085700825 0.03711935 0.5874557 0.42036954 0.01612399 0.25966913 0.6796665 -0.25453514 -0.5508609 -0.3524089 0.3053284 -0.22079049 -0.35938522 -0.13411124 -0.3337461 -0.13129094 -0.43708706 0.59456795 -0.43189183 0.16072623 -0.1617957 -0.053820003 0.37788114 0.30286333 -0.04775812 -0.76425546 -0.030246522 0.0041203406 0.0816756 -0.4967615 -0.18507086 0.039605785 -0.31591076 0.17423895 0.024622042 0.123259395 0.3890168 -0.06056948 0.6548179 0.36526352 0.30969256 0.5624976 -0.17372467 -0.4532411 -0.24657188 0.24290624 0.15513939 -0.20398644
t 0.08275635 -0.2573572 -0.2619059 0.028038105 -0.087524325 0.23440072 -0.27721888 0.15906833 -0.094608836 -0.08564044 -0.22682503 0.2565295 -0.012223742 0.19774175 -0.34109056 0.26952824 0.0044754897 0.7133483 -0.33843926 0.011466228 0.0075627347 0.08864044 -0.23882881 -0.5771417 -0.11519407 -0.1576461 0.3718158 -0.053464305 -0.036535483 0.22760814 0.067721784 -0.34817624 -0.21196412 -0.15153216 -0.08049106 -0.24496314 -0.15008134 -0.10519446 0.24286622 -0.13935664 -0.015417093 0.17705786 0.065100014 -0.30042675 -0.040571276 0.12923174 -0.03189733 -0.09293593 0.05799891 -0.03426304 0.4189931 0.36905482 -0.33708644 0.11858973 0.29003564 0.1790135 0.4308767 0.06553419 0.26880282 0.04450384 -0.046619903 0.38963526 -0.057884704 -0.30138877 -0.28832975 -0.054795697 0.44585854 -0.506126 -0.06631394 0.14196494 0.08095717 0.43182406 -0.35562703 -0.066728316 -0.26533064 -0.1629416 -0.56705916 0.12842855 0.12490151 -0.2324187 -0.1072055 0.2572142 0.015841087 -0.14633818 0.3231249 0.32220533 -0.43153894 -0.016578598 -0.42763048 0.34479368 0.20037144 0.4052729 0.093515255 0.24614023 0.23219125 0.09063294 -0.20031069 0.38439968 -0.21725833 0.1600626
p 0.09865642 0.014879085 -0.014941274 0.15523325 -0.21708065 0.31361243 0.12741832 -0.66155666 0.24922644 -0.38412908 -0.19821751 -0.6087588 0.26437408 -0.42705327 0.52968407 -0.41071758 0.3994811 0.36849377 -0.27406293 -0.7717679 0.0058380603 0.021437913 -0.1792027 -0.43718234 -0.4919898 -0.19727099 0.6663411 0.24776259 0.35382235 0.213805 0.7447043 0.05448784 0.065444335 0.22755204 0.3872722 0.62921965 -0.6041536 -0.6470106 -0.594141 0.31831965 -0.32439342 -0.4274097 0.15513082 0.24882212 0.32418236 0.46201184 0.10550925 -0.80804336 0.2187756 0.31646025 -0.23923297 -0.14675389 0.37749854 0.8241689 0.2724501 0.909438 0.8161387 0.16331989 0.45495006 -1.1356568 0.06834955 0.18196549 -0.16873175 0.2532351 -0.10506517 0.209028 0.5700692 -0.03218947 -0.12992176 -0.24634172 -0.48259026 -0.07114308 -0.029891621 0.22737518 -0.24264254 -0.1841426 0.5862001 -0.017766008 -0.78905946 0.92172784 0.037833374 -0.14683336 0.1303031 0.58800554 0.46423477 0.0706491 0.41356242 -0.057540372 0.1935556 0.23125745 -0.056342494 -0.07313396 -0.5388554 0.47827852 0.5037186 0.38231465 -0.40228108 0.46255904 -0.0890195 -0.18738092
c 0.43711165 0.03287451 -0.19841942 0.6143285 0.0074926843 0.36933452 -0.06691086 0.33821937 0.10759722 0.38192612 0.13424361 -0.31751052 -0.61752236 -0.53816634 0.07542337 0.28486326 -0.27517754 0.09121731 -0.35540575 -0.09879762 -0.13751262 0.23218979 0.13838077 -0.20644312 0.2940447 -0.20163763 0.071530625 0.5121807 0.15627594 0.724447 -0.16426858 0.14026862 0.24344733 0.35539174 0.31955898 0.123939835 0.07635621 0.5363732 -0.5177268 -0.18191329 0.19901267 0.42403668 0.012730848 -0.4922333 -0.21895605 -0.31254473 -0.12712732 0.073653676 0.6499271 -0.2929631 -0.8603519 0.19258167 0.14486833 -0.016597794 0.020951672 -0.46606883 0.05234592 0.24113534 0.039749496 0.49370104 -0.46175793 -0.26136258 -0.006462044 -0.6107261 0.10476529 -0.20629215 -0.15574376 0.44849116 0.17439602 0.031005379 -0.46279964 -0.041176304 0.06683689 -0.25906834 0.2307806 -0.065919995 0.20401073 0.037269477 -0.35026535 0.39363205 -0.17753448 0.019770084 0.10415669 0.07922329 0.20265023 -0.55342656 -0.20403484 -0.28885603 -0.119194195 0.49396724 0.65147823 -0.08748677 0.18550704 0.3635777 -0.23050466 -0.16342936 0.29315704 -0.031578347 0.23368494 -0.39756048
u -0.72029096 -0.5058736 -0.021752339 -0.94177866 0.3277071 -0.46103957 -0.645323 0.021835608 0.9124304 0.47167185 -0.3928679 -0.16418935 -0.5871339 -0.07449636 -0.48297918 -0.18047938 0.12164837 0.24500023 0.13087937 -0.108561024 -0.2676234 0.08570486 -0.14658287 -0.56971854 0.12285692 -0.054096974 -0.30836093 -0.13083607 0.18459862 0.34297413 -0.25900042 0.07893207 -0.64009285 -0.9801495 0.37089175 -0.079157315 0.23061159 0.0010279181 0.3207615 -0.0056245467 -0.22565626 -0.38632828 0.12915683 -0.48275772 0.08503159 0.18604676 -0.18484943 0.19429293 -0.33680668 0.12498289 0.8073076 0.03698178 -0.6936879 -0.22472379 -0.20479874 0.23738122 0.049610276 -0.08630669 0.26672766 -0.41155243 -0.07905984 0.016520564 -0.90138286 -0.26840642 -0.34820506 0.33064038 -0.09245437 0.032656 -0.020597646 0.06110096 -0.031199204 -0.35932726 -0.20199989 0.86099905 -0.12212542 0.2117417 -0.09805599 0.4742636 0.15443082 -0.28010038 0.6619587 -0.031111896 -0.36703482 0.06957223 0.5176363 -0.45947927 0.23217697 -0.5763025 -0.11054823 -0.3576307 0.34155422 -0.0626102 0.30400464 0.31363422 -0.2868021 -0.07058016 -0.1580664 0.3292534 -0.114375 -0.004445067
d 0.42331195 -0.01848903 -0.06213283 -0.024034379 -0.30782244 0.34992197 0.08567032 -0.11462882 -0.13879085 0.4261915 0.19354577 -0.22807236 -0.0992378 0.22263356 -0.031234227 0.37747175 0.4898814 0.04886078 -0.06818248 0.45369896 -0.041601148 -0.1555079 -0.5673563 -0.18653335 0.096827604 -0.25728515 -0.2009485 -0.38530415 0.1446169 -0.19704592 -0.05897945 0.02143969 0.42216575 -0.4528144 -0.273039 -0.038943063 -0.83843726 0.025969576 -0.556402 -0.08448307 -0.15910679 -0.1776311 0.043086376 0.28851098 0.016633073 -0.05917591 -0.09700406 0.08992735 -0.6693516 0.0032461453 0.002317834 -0.13791132 0.07906051 -0.25413135 0.028005425 -0.4108889 -0.060847204 0.2686156 0.19355983 0.2059233 -0.4896844 -0.20873536 -0.17582217 -0.30941904 -0.23915304 -0.32946965 0.050120816 0.05969776 0.59524137 0.24883771 0.5119332 -0.19801624 -0.58346003 0.18888967 -0.15155792 0.021982461 0.04252712 -0.25381038 -0.14598705 0.30264798 -0.20472518 -0.30948827 -0.08928959 -0.054703053 0.008709445 -0.62043726 -0.09572673 -0.15970065 0.46182504 0.13315172 0.14450282 -0.026586166 -0.42388657 -0.2270275 0.16264945 -0.13713823 0.69530076 0.28807095 -0.06660842 -0.2418987
g 0.40437004 -0.22668633 -0.030458769 0.07597423 -0.28629798 0.36579996 0.13722089 -0.033136252 -0.097407274 0.2655237 0.26143909 0.3389609 0.2747482 0.22350171 0.14900135 0.66504765 0.25547168 0.7840311 -0.19993745 -0.34866422 0.15219301 -0.42975107 -0.5754471 -0.24861541 0.3977217 -0.06677034 0.2598579 0.039450932 -0.5186748 -0.11297016 0.028667025 -0.3443311 0.20454068 -0.2763637 -0.058969755 -0.02347347 -0.72356194 -0.18482094 -0.08269878 -0.48560238 0.062172998 0.6811354 -0.12602624 0.40151817 -0.3425666 0.2447057 0.3003131 -0.06596944 -0.06620562 -0.4492777 -0.14366403 0.30292144 0.6211768 -0.14740084 0.77948534 0.48764527 0.013072063 0.20824412 0.40595993 -0.039605122 -0.13702136 -0.5777847 0.10094931 -0.109946094 0.16961291 -0.15958686 0.2593447 -0.2955435 0.11331854 0.14058237 -0.18946928 0.2836656 -0.27280834 -0.30373868 0.048224106 0.17543404 -0.17827646 -0.7979497 0.08934343 0.5049678 -0.09376546 -0.4125193 -0.61511356 -0.15488455 -0.22431713 -0.16147758 -0.048441645 -0.18840222 0.08388565 0.22820789 0.27217874 0.57857287 -0.16011512 0.26698256 0.07555128 -0.34226596 0.020686043 0.19903794 -0.14974706 -0.1680001
b 0.33009097 -0.24545866 -0.06986552 0.24248521 0.18202256 0.03299768 0.04633527 0.18727711 0.43269825 0.2154993 -0.041765314 -0.35204944 0.15681861 -0.25906503 -0.45893833 0.18321632 0.16833517 0.4127025 -0.010793849 0.28597832 -0.5090303 -0.3821087 -0.056751 -0.021813102 -0.20658825 -0.54900813 0.28873426 -0.08802613 0.78079695 0.19417238 0.4430649 -0.056025155 -0.6157313 -0.5707727 0.28221363 -0.09249628 -0.14129813 -0.64227647 0.00023863767 -0.21132392 -0.016641404 0.24875009 0.2557086 0.13151851 -0.20638083 0.256647 -0.36684987 -0.1432231 0.0937708 -0.18685839 -0.32939455 -0.5230373 0.36736992 0.3034557 0.43059433 0.8046764 0.46742025 0.1360661 0.22741185 -0.46878073 -0.22509523 -0.092058174 -0.11194884 0.11899594 0.41323873 -0.107386 0.59519863 0.12476882 -0.4457926 0.37315693 0.29066402 0.3759259 0.0604548 0.104534805 0.27124897 0.023665408 -0.26633528 -0.4953338 -0.40353328 0.5550698 0.44369712 -0.060508784 -0.37662318 0.00990458 -0.0055857035 -0.37198454 -0.0662363 -0.6572517 -0.1732101 0.29451033 0.10328688 0.72989714 0.109344274 0.8072218 0.0044070296 -0.40159705 -0.036596835 0.21094346 0.22564754 0.16221821
h -0.17339474 1.1793522 0.58828807 1.8102425 -0.8822347 -0.06511758 -0.0968224 -0.36466923 -0.32401818 -0.057682507 0.054972585 0.18507066 -0.47530437 -0.28345972 -0.44426858 -0.14447264 -0.088194676 -0.4476957 0.6104032 0.6317795 -0.6124209 -0.023817498 0.075438 0.37548715 0.09807602 0.026113953 -0.23275082 0.1943391 0.6984387 -0.22642626 -0.42041996 -0.39550143 -0.6756495 -0.14023095 -0.10217619 -0.52547586 0.076726966 0.10587876 -0.5955873 0.538984 0.20876855 -0.26998812 0.46603543 0.16417474 0.085175164 -0.19688666 -0.696652 0.5209447 0.050157595 0.045043014 -0.21184705 -0.13384548 -0.20293897 0.22113226 -0.46493918 -1.1950483 0.27108985 -0.032320585 -0.09496888 -0.039874658 -0.06777442 0.11454727 0.6232465 0.65907687 -0.40033403 0.31370735 0.15160632 0.27773303 0.32390776 0.039732523 0.5340975 0.07433665 -0.0120888 0.097257994 0.17535236 -0.0814097 0.20301022 -0.0055547715 -0.10536178 0.45319065 0.030895261 -0.19973592 0.41152787 -0.24071045 -0.3059506 -0.6309003 -0.4217064 0.024781307 0.52839166 0.078586735 0.4617657 -0.3620425 0.40426117 -0.102475144 0.37846273 -0.11690738 0.44296366 0.22535472 0.024178877 0.22967313
m 0.015758688 0.5250373 -0.22211692 1.6742194 0.20159248 0.39864245 0.22653472 0.09918344 -0.14523943 0.14794807 0.046327926 -0.17961946 0.1918151 0.42090052 0.56746554 -0.14103408 -0.03491055 0.6750653 0.37050006 0.40030286 -0.0891047 -0.0825397 0.20457795 -0.21994247 -0.05908079 0.21708456 0.14270689 -0.2816163 -0.23245384 0.21534316 -0.32294136 -0.3276065 -0.19112724 0.08739088 0.2638158 0.68630373 -0.056558203 -0.04448197 -0.33781546 -0.21717978 -0.5411359 0.6523178 0.3467609 0.50523686 -0.22794771 -0.017788205 0.30657104 0.30485404 0.18299915 0.030769031 0.22470112 -0.2811941 -0.28731593 0.1720172 -0.055849973 -0.034724385 -0.31135914 0.33322787 -0.05471128 0.113865905 -0.56742394 -0.3452027 0.20177652 -0.12870659 0.45681345 -0.12009549 -0.22383192 0.0034307102 -0.5704275 0.5291183 -0.03362706 -0.091541745 -0.30329457 -0.59865546 0.23468544 0.28171274 0.26699445 0.32711697 -0.43407035 0.037458606 0.035985637 0.1683879 -0.65999275 -0.005497877 0.34843048 -0.22449069 -0.52471495 0.24630903 -0.59691906 0.4656687 0.5182261 0.0017216093 0.5393644 0.5700743 -0.38114786 0.13743502 0.31835723 -0.77200437 -0.018576512 -0.46106383
w 0.4913065 -0.34870395 0.15882239 -0.4132503 0.42462385 0.31390655 -0.60631204 0.3373281 0.13848095 -0.30283654 -0.22448856 0.12693384 0.70183337 -0.13187271 0.18073407 -0.16730426 0.39475852 0.20229334 -0.26562834 -0.5446592 -0.17179659 -0.7879976 0.09582124 0.097095065 -0.08835363 -0.5324999 0.2734995 -0.10940543 0.06769225 -0.039348964 0.3921274 0.29485178 0.5169461 -0.04699926 0.3563213 -0.03962572 -0.5257238 -0.1564377 0.12461973 -0.17961077 -0.20558384 0.10984667 -0.24913596 0.13316847 0.18909883 0.19179274 -0.49895853 -0.6312307 0.31642455 -0.26399598 -0.4352758 0.042707425 0.2918454 -0.31016704 0.495911 1.179033 0.02284761 -0.33681938 0.27128753 -0.91753286 0.19724038 -0.27251312 -0.6356262 -0.41220415 0.2367521 0.48577783 0.55329365 0.35065606 0.008529877 -0.4093054 -0.33502257 0.10024434 0.081968755 -0.3366301 -0.4793471 0.09982817 -0.071892075 -0.16497305 -0.19075438 0.5150142 -0.4312913 0.011833743 -0.24813111 -0.27918205 0.4840608 -0.12565136 -0.17673329 -0.4792047 -0.3277981 1.0569849 0.6123074 0.1190583 -0.1696241 0.25545663 -0.3831796 -0.1839251 -0.6056182 -0.1609205 -0.3036898 0.55515385
k 0.043077912 -0.19921863 0.17090672 -0.6680868 0.06359512 0.082634725 -0.4020302 0.08281844 0.31936193 0.11179515 -0.4114896 0.11481208 0.51500535 -0.37349722 -0.26743528 -0.36981305 0.50346607 -0.3141927 -0.37828603 -0.28475723 0.11610025 -0.086722896 0.57786757 -0.2928805 -0.22259408 -0.18281294 -0.043185037 0.3768193 0.48534036 -0.4325398 -0.13180155 -0.19282849 -0.40021148 0.031430494 0.40853757 -0.33058682 0.18216778 -0.24498966 -0.13200992 -0.2213292 0.17384005 0.28445938 0.50608504 0.04576653 -0.21062578 0.44820538 -0.48392484 0.108430535 -0.11337654 0.20097828 -0.10559509 0.34400666 -0.5658545 -0.1480292 -0.0054568388 0.35054305 0.43224436 -0.2262235 -0.07203061 -0.18420142 0.43904573 0.37608498 -0.18017837 0.42641458 -0.34131914 0.19746694 0.40109596 -0.5623488 0.00431733 -0.4871422 -0.23089981 0.046121463 0.081489176 -0.40596172 -0.7597462 -0.53137076 -0.19102974 0.3533523 0.4367192 0.27946112 0.016047418 0.18878515 -0.088520855 0.6737093 0.24435644 0.360101 -0.17816532 -0.24883004 -0.064009175 0.13771755 -0.20347008 0.18901876 -0.31696093 -0.04473697 0.4659242 -0.38359973 -0.21576181 0.30369326 -0.3300866 -0.7195881
v 0.036676835 -0.54964393 0.2065068 0.38875774 0.19004418 0.82753015 -0.6598705 -0.0072352285 0.2272949 -0.21677987 -0.2049998 -0.0011505964 1.2585254 0.30682468 0.05330469 -0.33489713 -0.24265036 0.9323035 -0.12755848 -0.40276018 0.19852573 -0.07878321 0.18346556 -0.23333082 0.19414407 -0.50469416 -0.26057112 -0.026452033 -0.5411463 -0.15757659 0.19641909 0.33224326 0.8036868 0.49464488 -0.0054193414 -0.46910232 -0.7782064 -1.1438634 -0.35280567 -0.40770862 -0.3870634 0.32673195 -0.026477635 0.7399229 -0.17791015 0.8037174 -0.85136783 -0.76474833 0.54749745 -0.02796304 -0.43417278 -0.3957784 -0.23535445 -0.59315044 0.011946576 1.6990495 0.44622862 -0.035692133 0.5959727 -1.0738223 0.15579905 0.055255253 -0.06875807 -0.40986437 0.14784177 0.48378688 0.84050554 -0.4808707 0.4426936 0.43353668 0.4359042 0.6367987 -0.48161894 -0.4383383 -0.7696039 -0.31098834 -0.53205204 -0.10312797 0.43584314 -0.50470936 -0.7386153 -0.7688411 0.16889843 -0.74054486 -0.49514621 0.79596996 0.255144 -0.008970809 0.113424554 -0.13923122 -0.24495271 0.38142803 -0.3405653 0.85175145 -0.9268872 -0.6170497 -0.8847449 0.20615728 -0.4917184 -2.515674
y -0.005480106 -0.14979212 -0.05700095 -0.1064289 -0.49274445 0.06697391 0.23001571 -0.18972072 -0.11252983 -0.09691583 -0.004604496 -0.015611052 -0.07808105 -0.14791214 0.3772569 0.11443441 -0.06995866 0.13961872 0.022068366 -0.6481422 -0.1389063 0.23563495 -0.29903588 -0.5116089 0.08342168 0.16398215 0.18618667 0.25034505 -0.17097382 0.1473527 0.07765652 -0.14025213 -0.19519278 0.017726513 0.2851579 -0.10049772 -0.2769009 -0.12657784 0.05982091 -0.2935167 0.05003592 -0.32555208 -0.039674595 -0.29569936 0.12764579 0.18726116 0.22463037 0.08270118 -0.07004289 -0.23315395 0.109186016 0.22427273 -0.23617135 -0.07795589 0.49614173 -0.1931498 0.36323124 0.23916358 0.103077725 -0.042817548 0.37717542 -0.1918253 -0.18961066 -0.037612535 -0.5166687 0.12066974 -0.34842122 -0.50170076 -0.048788782 0.037458938 -0.35444835 -0.08003153 -0.09763988 0.11099614 -0.006842127 -0.09823442 0.1334433 -0.037356563 -0.087179564 0.010685703 -0.1063176 0.24069932 -0.27390105 0.16940702 0.3488958 0.39030513 -0.023651982 -0.09658652 0.1677414 -0.16590998 0.07262915 -0.073730424 -0.35669953 0.2725169 0.44551334 -0.3384106 0.050328624 0.37522346 -0.17125522 0.118858956
f 0.62102723 -0.7937026 -0.7860197 -0.37912205 0.36769953 0.41476718 0.03796563 0.5881324 0.023997305 0.24998814 -0.5236874 -0.38313678 0.3830385 0.3956153 -0.049132597 -0.020644926 0.7347317 0.259087 -0.43862334 0.6011098 -0.04651493 0.0758711 -0.20156108 0.20394464 -0.5749805 -0.3852768 0.20153588 -0.0146388495 0.08007065 0.113262825 0.82716036 0.33983037 0.29831848 0.3910252 -0.09446244 0.42965615 -0.11880659 -0.59956354 0.04955274 -0.709783 -0.47359514 0.46864638 0.2315178 0.592345 -0.4715379 0.04407599 0.3801576 0.008607482 -0.79188734 0.19891188 -0.11375449 0.047502838 0.70915467 -0.1131061 -0.1528301 0.7230064 0.38562128 0.44818544 0.15550254 0.023067795 0.45332816 0.3649943 -0.6076145 -0.18887988 0.4342565 -0.63461614 0.36292568 -0.5859096 0.3809532 0.053665627 0.47329453 0.38910764 -0.21049038 -0.40142158 0.30064583 -0.15773848 -0.3023038 0.13431211 -0.3998059 0.45150718 -0.13311659 0.11838834 -0.70764685 0.19559939 -0.026191743 0.28185645 -0.38383743 -0.43204707 -0.511618 -0.064495236 0.070069656 0.7990253 -0.3664999 0.42158532 0.16871595 -0.42658272 -0.08102873 0.20684747 0.38075095 -0.56002
j -0.015688743 0.48221076 0.5425062 0.68779635 -0.578189 0.37007672 0.9746964 0.18911906 -0.3566014 0.25858214 0.102560185 0.43010163 -0.47059888 0.26450676 0.58906496 0.17277353 1.680511 0.19066748 -0.48583198 -0.7367298 -0.28679606 -1.2496613 -0.43788457 -0.36587432 -0.2830041 0.25416464 0.1406474 0.17463616 -0.36396092 -0.38108277 0.30804065 -0.70888174 1.5012993 0.45783982 0.70352966 0.25441107 -1.4792209 -0.3543474 0.14725946 0.30288905 -0.9694894 -0.6263033 0.0723008 0.965423 -0.035866413 0.35371435 -0.43409067 -0.3004542 -0.17199612 0.41844454 0.49098405 0.866008 0.5684434 0.3800454 0.36406443 0.24657707 0.051223356 0.052369755 -0.23047939 -0.6292391 0.5672639 0.9157232 -0.1987724 0.5718146 -0.76622987 -0.16148141 0.2436771 0.5030637 0.72488344 -0.13997065 0.8898319 -0.20932448 -0.7876753 0.64643466 -0.63571453 1.3915645 0.23691434 -1.5624764 0.26210147 0.5771775 -1.8317097 0.33474052 -0.6432785 -0.8716968 -1.0074729 -0.85388994 0.7364712 0.5345726 1.416091 0.4969042 -0.035357628 -0.038554005 -0.19005235 -1.0287732 0.5604106 1.7255056 0.06951798 -0.9746126 -0.5380075 -2.0515726
x 0.70646185 -0.7619357 0.6897781 -0.61865187 -0.49564087 -0.19170932 -0.17409049 0.29012927 0.06014223 0.30074546 0.4668643 0.6409189 -0.042947482 0.0029771249 0.16293015 0.15012506 -0.8506434 -0.4270592 0.50228745 -0.52586234 -0.21674056 -1.3457301 -0.92233616 0.27786878 1.2143492 -0.3699073 0.0750398 -0.23291771 0.3125013 -0.5323206 0.4945765 -0.30567184 0.7060873 0.19922036 0.12206588 -0.57989365 -0.07377823 -0.64304227 0.6550385 0.026196653 0.57174206 -0.11724694 -0.12537603 0.50928754 0.006028384 -0.2883617 -1.0403343 -0.27053013 0.23778176 -0.36792907 0.503202 -0.05252311 -0.07639335 -0.23243484 0.4381107 -0.44812518 -0.5645921 -0.4868158 -0.17084336 0.35592988 1.3955891 -0.5395864 -0.09611125 -0.53362757 0.6169334 0.6776288 -1.1981993 0.009403809 -0.26459137 0.51621103 -0.66679025 0.688703 -0.048085894 0.037619047 0.5142505 0.3296487 -0.6522313 -1.2631632 0.88680834 0.15645073 -0.63877004 -0.13076141 -0.29329777 -1.1368878 -1.3110491 -0.23988116 0.19967583 -0.47515222 0.20666596 0.17749564 0.27029634 0.18836898 -0.47939605 0.33750817 -0.34806582 -0.6940002 0.2265795 -0.78842556 0.21641153 -0.28757778
z -1.1670753 1.4507508 -0.39235458 2.5542376 0.48889175 -0.89936507 -0.470906 1.1123296 1.5281314 0.9715484 0.08230682 -0.29792 0.15387617 -0.37986964 -0.292264 0.20855 -0.4154994 0.18903324 -0.91777194 0.11663073 -0.599262 0.6597045 1.276779 1.0495471 -0.016738659 -0.01272524 -0.2607875 0.9525899 -0.53241575 -0.09912516 0.18368818 0.45337054 0.40360844 0.7811106 -0.21185507 -0.21490903 1.1479441 0.4173685 0.4987743 0.70851755 0.8106364 -0.16841266 0.24966326 -2.0992405 -0.22420263 0.4512133 -0.72097987 -0.9275115 1.8648756 0.23650469 0.15102358 -0.16602515 -0.55396444 -0.63249403 -0.70015985 0.7481157 0.14480726 -0.11936856 -0.82672954 -0.6865481 -1.015752 0.2069245 0.89481276 0.6520958 -0.37356803 -0.2679297 -0.24913009 0.38098863 -0.011645218 0.24870028 0.30854073 -0.7733535 0.48397025 0.7592778 -0.2986873 0.9569949 0.3135127 -0.8492499 0.7092189 -0.98187715 -0.22247583 0.07268146 -0.35223654 0.48591834 -0.27519968 -0.2906843 0.34385985 0.5186818 0.8655261 -0.8250247 -1.2868954 0.013780341 0.6290308 -0.3288318 -0.12970269 -0.088370666 -0.65792656 -0.4246498 0.1478446 -1.4461963
C 0.083355166 0.4907913 -0.13740526 0.59929806 0.8293004 -0.04099479 0.5501861 0.6942312 -0.33519647 0.028387163 -0.24613106 -0.5668931 0.9162071 -0.12585755 0.8932119 -0.31273547 -0.33537498 -0.8802103 0.08193161 -0.454348 0.025612228 0.8457394 1.3519244 0.20110986 -0.14136294 0.25906366 -0.8079722 0.11108202 -0.2594676 0.23945484 -0.5113087 0.98178136 0.026819492 -0.05919793 0.065440975 -0.4613503 0.57011086 0.2555451 0.17923953 -0.7652128 -0.10881914 -0.9374986 -0.9975584 -0.8280666 0.06503147 -0.483549 0.72127074 0.19311546 -0.006551088 -0.14738595 -0.6986928 -0.70285857 -0.6961279 -1.5235819 0.12542814 -0.49724293 -0.56963694 0.251725 -0.96785736 0.9793832 -0.50060475 -0.7216497 -0.7172659 -0.45303375 -0.46125355 -0.0029940556 -1.1387491 0.27229053 -0.26551807 -0.16646624 -0.53064567 -1.3102329 0.77775246 -0.45529634 -1.0353239 -0.08525437 1.1779225 0.52345407 -0.60394186 -0.37481993 0.24564266 1.3006794 -0.6917973 1.4984232 2.3377874 0.67045087 -0.5172054 0.012168133 -0.11575306 0.4205602 -0.11624602 -0.991497 -0.37981653 0.22096193 -0.36391044 -0.6865667 0.5326158 -0.5795853 0.07136584 0.62333906
P 0.06521143 -0.096456 -0.40581957 1.3894231 -0.42686814 -0.6626424 0.6323785 0.230221 0.0965322 0.31137645 0.19309273 -0.4617119 0.047389925 -0.51234233 0.4510862 0.34519207 0.13962294 -0.8642829 -0.428309 -0.9099344 -0.06018524 0.3774286 0.5698701 0.086439766 0.06906151 -0.16038267 0.23070812 0.28800347 0.7061541 -0.2346397 0.01136292 0.10501902 0.48963392 0.47341952 -0.053854395 -1.0080734 0.4000771 0.16294895 0.3551128 0.8313119 0.11177847 -1.8772192 -0.67502815 -1.404659 0.34807166 0.25272763 -0.46987098 -0.6749363 0.665608 0.97464573 0.42588997 -0.7249253 -0.7039654 -0.99535805 0.78438497 -0.8754071 -0.029811306 -0.0983883 -1.6405553 0.6077115 -0.25764173 0.17281662 0.038518045 -0.38146546 -0.8037864 0.070971265 -0.49900252 0.07577996 -0.20636587 0.011196706 -0.40758148 -0.77861553 0.31034857 1.0590081 -1.3912402 0.20259601 0.32450753 -0.77794677 0.42800465 -0.53773373 -0.20860478 1.0983924 -0.10101916 0.7519777 0.9163408 0.089065924 0.54487836 0.19011384 1.0644761 0.021333115 -1.6914179 -0.31906784 -1.0736387 -0.19844669 0.49732515 -0.30133316 0.64908695 -0.18795341 -0.6487346 -0.15407044
q 0.3029207 -0.068585746 -0.8658221 0.90947163 0.37048385 -0.33750862 -0.08413992 0.57731616 0.22168145 0.2785333 -0.34680364 0.55961657 0.0032263112 0.100912124 -0.65376943 0.48701182 1.1060576 0.43887535 -0.66997975 0.6739222 -0.14659227 -0.28531566 0.074295014 0.8628978 -0.4739822 -0.15858375 0.6295718 0.10113588 0.22208081 0.05554512 0.069933064 -0.48436436 -0.5928404 0.10336967 -0.25605333 0.11921568 0.68980396 0.61542505 0.6615225 -0.027885381 0.07713173 1.0053957 0.2206832 -0.45286754 -0.8246458 -0.012309885 0.42620757 0.057162557 0.2938369 0.21064721 0.48117554 0.81948966 0.5028091 0.319254 0.3096646 0.15488224 0.1899906 -0.12426746 -0.33936083 0.20917147 -0.11969122 0.37315142 0.26328844 0.27480265 0.27160323 -0.549504 0.91633797 -0.2734906 -0.23520781 -0.6509414 -0.16192311 0.32303187 0.20039222 -0.3437053 0.01463281 0.1799325 -0.51805854 0.005916396 0.2962126 0.6119153 0.23621164 0.39510554 -0.71262723 0.12808594 0.072098926 -0.4210695 -0.54577994 -0.19578977 -0.8358169 0.67131704 -0.00015961396 0.9523537 0.6872953 -0.12191312 0.62400776 0.339723 -0.4025493 -0.2199918 -0.11525596 0.9473751
S 0.06394729 0.6917254 -0.092418894 0.3786955 0.19717063 -0.4979363 0.7329121 0.009947273 -0.66624343 -0.8472908 -0.03622481 1.059637 -0.10606622 0.32808068 -0.529978 0.18820697 -0.5242934 -0.97029203 0.25897616 -0.24835281 -0.02106009 0.5414419 -0.32795626 1.3803853 0.35754722 0.30726632 -0.486815 -0.124904625 -0.53706896 0.14719948 -0.42206916 0.22431624 -0.096045025 0.17091477 -0.81853914 -0.88567597 0.62582505 0.80579334 1.0054185 0.03874277 0.56855464 -0.882682 -1.357436 -0.7506083 -0.26993236 -0.73346084 0.973017 0.30285332 -0.056435045 -0.22923522 -0.21116385 0.32573882 -0.15807325 -0.38951555 -0.2336776 -1.5169145 -0.28926474 0.033854518 -0.8677201 1.5215257 0.5695701 0.18253392 -0.10872394 0.010875715 -0.7943591 -0.2733076 -0.6984528 -0.20092347 0.4758659 -0.6709891 -0.44297037 -0.5707496 0.46608314 -0.40922672 -0.29381195 -0.12340926 0.7646706 0.4795808 0.03141788 -0.4360452 -0.3784184 0.71848 0.3589457 0.5571916 0.75317436 0.67113143 -0.07369814 0.55806005 0.07549564 -0.106401205 -0.56807417 -0.84895617 -0.17226683 -0.86567754 0.37587905 0.5432203 0.19414711 -0.30515298 0.14450298 0.4666665
I 0.38823354 -0.027579386 -0.38370043 0.7092115 0.3343969 -0.19105142 0.3791986 -0.38577402 0.066636965 -0.20258236 0.59270364 0.41220662 0.6415457 -0.23522134 0.15803313 -0.006722779 0.35952747 -0.1928475 0.29463592 -0.08439093 -0.44951585 -0.74826115 -0.3982309 1.4085666 0.29191977 -0.34375098 0.24856968 -0.21470553 0.12254474 0.0039041655 0.37311432 0.016083395 -0.35159054 0.47248185 0.007080101 -0.19939639 0.46463647 -0.14686596 0.7320878 -0.067368865 0.61918765 -0.009581194 -0.30581835 0.33981234 -0.40096587 -0.22485988 -0.22174123 -0.1507872 0.6284436 -0.27713847 -0.18196467 -0.52314126 -0.0051121092 -0.011907208 0.03275978 0.030045016 -0.29895988 -0.57535565 -0.5421775 0.04830499 1.2158957 -0.5753584 -0.2245749 -0.2878377 0.6397264 0.14062768 -0.5863294 0.034561493 -0.16792725 -0.23452444 -0.40137714 0.002622679 0.36642098 -0.14434989 0.396878 0.25716165 0.07627919 0.10069794 0.81578714 -0.2059217 -0.24747472 -0.040792935 -0.5085124 -0.67110825 -0.17618193 -0.03792224 0.21884537 -0.2423167 -0.4086332 -0.17581075 -0.6436659 -0.20373374 0.22494522 0.60473216 -0.29826635 -0.36245298 -0.3175678 -1.2786056 0.17636822 -0.5938641
W 0.2471275 0.108589016 -0.23135918 2.3829846 -0.033769447 -0.461271 -0.60147655 1.0301056 0.18843116 -0.14055598 -1.0865316 0.6458713 0.28689027 0.90891236 0.033741906 -0.34856316 -0.37199068 -0.12972178 0.38340104 -0.044925727 0.2595553 0.050971225 0.49925175 0.8138608 0.33678097 -0.050128073 0.048244353 -0.26365224 0.07203 -0.44560185 -0.55544746 -0.05567514 0.7348509 0.5151614 -0.4234879 -0.20062767 0.50372314 0.2846982 -0.11570214 0.6788829 -1.2923964 -0.12776332 -0.3867695 -0.17121969 -0.33772665 0.4751992 0.23701708 -0.37506163 0.38131544 1.189426 0.6268479 -0.2034258 0.20309503 -1.101702 0.36734268 -0.11619981 -0.3318508 0.4363109 -0.94042975 0.012668933 -0.7563283 0.11546622 0.23060183 -0.015656764 0.011341748 0.5544509 0.64504516 -0.17234343 -0.26737353 -0.1907895 -0.75574917 -0.20026636 0.1896168 -0.2333652 -1.0777744 -0.0076680477 0.21828876 -0.035788592 -0.6026092 0.29488918 0.07332868 0.72140026 -0.24586594 0.57578045 0.58711815 -0.0010061688 -0.27593833 0.17767051 -0.056979552 0.95478183 -0.15114647 0.26021513 -0.60142595 -0.42888674 -0.0075402022 -0.058214556 0.089470245 0.11065074 -0.83287066 0.9713322
® -0.26293102 1.3386515 0.14633271 0.53987634 0.185193 -0.80254555 1.0313734 -0.3057863 -0.6730159 -0.8381656 0.23059954 1.3306489 -0.2376292 0.23131704 -1.0877839 0.09748841 -0.41318023 -1.6418697 0.51498497 0.36970493 -0.48018795 0.6134849 -0.4846692 2.5074105 0.38251525 0.42564923 -0.859872 0.0153769385 -0.66347104 0.048506208 -0.5283245 0.2868575 -0.45505598 0.28587577 -0.97715396 -1.0228331 0.91646606 1.0064627 1.1417583 -0.018042354 1.1300365 -1.0059634 -1.3922529 -0.65723073 -0.6420267 -1.0425192 1.0545781 0.814198 -0.19725102 -0.45311922 -0.426629 0.34699786 -0.23163274 -0.19961897 -0.8866322 -2.3372753 -0.30245048 -0.020148013 -1.1504685 1.8651906 1.0660837 0.19992778 0.1509916 0.8148267 -0.96317106 -0.44972867 -1.0950333 -0.068958685 0.9393717 -0.8193487 0.16041422 -0.7688599 0.62073815 -0.44395694 0.18214382 -0.014230079 1.0175401 0.62628967 0.39081556 -0.4815749 -0.53010243 0.5401131 0.4229668 0.45382923 0.2996655 0.49549043 0.027709056 0.734156 0.27920574 -0.74917054 -0.95319426 -1.2874408 0.15925653 -1.3213763 0.6420218 0.8570179 0.4236043 -0.5930814 0.45337093 -0.32950014
M -0.2338944 0.9444249 0.2313997 0.539749 0.27890983 -0.23730826 0.7377212 -0.15646023 -0.52973735 -0.9397947 -0.07581591 0.8467301 0.073897175 0.4327286 -0.7715937 -0.11585483 -0.6970876 -0.7598197 0.75555164 0.23181888 -0.37177217 0.7312673 -0.121607415 1.3678532 0.26299348 0.25604194 -0.9425791 -0.21967992 -0.5329144 0.29975662 -0.7531324 0.35317948 -0.54540807 -0.045194674 -0.60265476 -0.9353725 0.3608581 0.3259719 0.59068555 -0.30039415 0.24588466 -0.7794232 -1.1141605 -0.21177669 -0.37761986 -0.40902883 0.6733212 0.6718315 -0.1726101 -0.4272174 -0.6679729 -0.24957818 -0.4598523 -0.48944524 -0.592858 -1.1834236 -0.032088228 0.29957688 -0.5417248 1.0622987 0.39492598 0.114378184 -0.12003548 0.34374127 -0.88722473 -0.13715072 -0.45882028 -0.20543057 0.56521744 -0.20854309 0.3705529 -0.52946943 0.26428264 -0.4130721 -0.21361569 -0.23670155 0.76604676 0.86520094 -0.05108701 -0.7520866 -0.25557122 0.32050622 0.4216981 0.38685495 0.6236154 0.7473364 -0.063855454 0.48454913 0.16930273 -0.5467501 -0.58877826 -0.9028226 0.07701694 -0.4716148 -0.02035677 0.32095972 0.20174724 -0.10826574 0.11213549 -0.7517672
" -0.08904116 -0.2812 0.08537112 -0.72624993 0.6120328 -0.5557655 0.35660443 0.15216932 -0.15873106 -0.15215346 -0.3540309 0.7857339 0.11903925 0.8141802 -0.9162653 -0.13782407 -0.3476221 -0.6079718 0.60392153 0.42444232 0.04640177 0.063243605 -0.5591516 1.2091126 0.30357087 0.11297164 -0.59133494 -0.49773642 -0.32352707 -0.10940806 -0.053758357 0.22002766 -0.2816865 -0.3235794 -0.6201213 -0.53190583 0.65501606 -0.2803166 1.013605 -0.41945502 0.0403822 -0.4487353 -0.92323476 0.434812 -0.6906273 -0.51560134 0.8811329 0.5997264 -1.0043852 0.12613408 0.5765069 -0.074840754 0.08725259 -0.41373748 -0.46313328 -0.74293065 -0.4737066 0.17750406 -0.5741686 1.2701534 0.9551484 0.22495776 -0.58656424 0.23853262 0.07197777 -0.19110145 -0.6547394 -0.4346751 0.31864208 -0.054451313 0.26087892 -0.030668132 0.19239846 -0.23766495 0.15870228 -0.0059703565 0.12757841 0.2783167 0.13412395 -0.17929198 0.21646687 0.4417935 -0.42492712 0.29940677 0.2504073 0.50759333 0.04545472 -0.029388148 -0.44964102 -0.4777424 -0.4078574 -0.14783841 -0.19048344 -0.198916 0.05067549 0.24064249 0.35146445 -0.2705364 0.42386395 -0.18932551
B -0.18186311 0.45632973 -0.27784255 0.57458353 0.6331915 -0.5939174 0.41366696 0.17411734 -0.23720983 -0.49766317 -0.2383051 0.80636865 0.06204227 0.6497717 -0.7012284 -0.03297686 -0.16760655 -0.61248076 0.4200491 0.3846867 -0.19452883 0.42660424 -0.19634442 1.9503502 0.08979415 0.26072064 -0.32838443 -0.12866908 -0.7636033 0.14876588 -0.13600327 0.3752695 -0.11536259 0.35859293 -0.6363188 -0.17105518 0.79020405 0.63029116 0.818451 -0.124679044 0.09776818 -0.3034212 -1.0769763 -0.29816845 -0.6869772 -0.43344817 1.172238 0.4463439 -0.17567953 0.06516139 0.008151438 0.09180236 0.39144737 -0.42061344 -0.43048617 -0.83327395 -0.43328196 0.295199 -0.87164974 0.97329456 0.44249305 0.019848693 -0.11570098 0.44391927 -0.032856636 -0.36248323 -0.40331686 -0.09446659 0.43469226 -0.5506329 0.030439027 -0.42766216 0.48126546 -0.4143245 0.20993805 0.12742743 0.6378532 0.5340857 -0.2026739 -0.07392495 0.0021358686 0.42134404 -0.30101433 0.46489218 0.56162876 0.38646302 -0.006604834 0.30840176 -0.44365984 -0.25345916 -0.5047956 -0.42566407 0.08123022 -0.48448658 0.21471639 0.47460565 0.09337081 -0.34112173 0.22211078 0.055569932
G 0.12461073 0.54890174 -0.16988315 0.5600646 0.4825464 -0.40248698 0.8566734 -0.110296436 -0.24976587 -0.73427063 0.008159149 0.6300583 -0.07024001 0.31751364 -0.3905664 -0.0779782 -0.4348209 -0.7069705 0.42775065 -0.0852722 -0.21314974 0.33126155 -0.5254106 1.5651852 0.24312694 0.117707774 -0.3401654 -0.23005974 -0.38737553 0.41765636 0.009766921 0.41447744 0.06472518 0.29832774 -0.54487026 -0.28506923 0.42443055 0.27445284 0.72826993 0.04239186 0.19552583 -0.8443194 -1.2373931 -0.14975691 -0.41108868 -0.6121615 0.99119353 0.08647637 -0.01950159 -0.08079545 -0.40445974 -0.26911104 0.28036204 -0.01793184 -0.4308236 -0.8859049 -0.18943536 0.25926358 -0.72221196 1.0379107 0.5879412 0.07697566 -0.2858507 0.09952962 -0.17843369 -0.29652902 -0.60424906 0.11862979 0.36381292 -0.3195235 -0.19787739 -0.53885096 0.3982749 -0.2249991 0.16207929 0.077313304 0.9683415 0.3960423 -0.41681036 -0.2287486 -0.24833937 0.43841812 0.1992287 0.41530934 0.49795395 0.36768377 0.32430604 0.37808993 0.0054435483 -0.3011113 -0.7413137 -0.7424512 -0.19462189 -0.46162164 0.031534456 0.7583195 0.2051956 -0.5061426 0.42733142 -0.23013525
A -0.39012393 0.69378555 0.042575117 0.9020251 0.17596425 -0.6927434 0.46132496 -0.06478375 -0.11585 -0.34253663 0.03910046 0.5815747 -0.13178265 0.19049579 -0.5495214 -0.0053154356 -0.51289433 -0.90547067 0.33463955 -0.09854581 -0.24619357 0.49124122 -0.10747023 1.2846302 0.36775267 0.25412056 -0.50131965 -0.042464953 -0.35357752 0.006349341 -0.34476033 0.24367052 -0.017592432 0.13758923 -0.5402809 -0.7726133 0.63186 0.4906671 0.751859 0.30568066 0.4747824 -1.1197501 -1.0180744 -0.77768457 -0.21875373 -0.44985777 0.45337203 0.16558498 0.1143733 0.13985388 0.18810396 -0.13059616 -0.48561627 -0.45708472 -0.42001498 -1.3231623 -0.3015107 0.015729109 -1.0513091 1.0867642 0.32559255 0.13291289 -0.0045974404 0.25185147 -0.6136828 -0.0861239 -0.78420407 0.01541916 0.37830904 -0.24598503 -0.057945088 -0.6837403 0.31762904 0.07976462 -0.30188605 0.15575849 0.71786 0.2013101 0.15055041 -0.5521187 -0.23394677 0.51215196 0.14377831 0.46885774 0.53459734 0.27943483 0.20452029 0.49889448 0.33794925 -0.41652706 -0.8472489 -0.83765405 -0.13812694 -0.60905933 0.15769108 0.45834097 0.37547475 -0.38372016 0.056452796 -0.40099734
R -0.2890035 0.6055991 -0.11966387 0.74770844 0.8217023 -0.49129337 0.48629746 0.20900905 -0.19812755 -0.51594394 -0.049326878 0.60798764 0.2633618 0.39878905 -0.48941526 -0.08536972 -0.4736108 -0.7213507 0.3453716 0.008628685 -0.20544711 0.47455272 0.14991966 1.514246 0.24613833 0.2160808 -0.66832685 -0.20516248 -0.68327564 0.21607685 -0.3880343 0.53283936 -0.0040659336 0.16419062 -0.540227 -0.6386835 0.71590924 0.5159125 0.96751314 -0.115062416 0.32184228 -0.72143817 -1.2490746 -0.6108422 -0.3676318 -0.560051 0.70171475 0.21410951 0.15612864 -0.11317552 -0.16577022 -0.20867161 -0.37162468 -0.63783425 -0.4970539 -0.80851847 -0.5317378 -0.0058174804 -0.98050374 1.106665 0.2471687 -0.025335636 -0.26413792 -0.00438617 -0.30294672 -0.2155204 -0.73553884 0.10920524 0.2947933 -0.31167176 -0.041439768 -0.72465616 0.433718 -0.39630327 -0.2899959 0.19917738 0.77224976 0.5360397 0.04203557 -0.70397264 -0.26502207 0.5493459 -0.083301045 0.41809705 0.798125 0.48878282 0.042939134 0.4770931 -0.1303176 -0.23735508 -0.64174026 -0.7887065 0.15863457 -0.38843352 -0.37307662 0.41668272 0.099937394 -0.77321553 0.16117328 -0.5363678
F -0.0133016575 0.43619478 -0.090673745 0.16258463 0.43810552 -0.5635078 0.5365315 0.22132884 -0.24419652 -0.44455525 -0.23925443 0.519246 0.06459851 0.359066 -0.36152315 -0.062398728 -0.30006084 -1.0392952 0.35252595 -0.07060911 -0.13185042 0.49912795 -0.07902226 1.3750468 0.20555644 0.1551875 -0.6035836 -0.16533417 -0.36246222 0.07010635 -0.2572534 0.5621636 0.043551818 0.028332293 -0.5513032 -0.5558881 0.5501471 0.46838143 0.6924019 -0.08573924 0.10608225 -0.9887828 -1.204304 -0.5091965 -0.27989143 -0.48469773 0.89558685 0.2607327 -0.33220017 0.034470934 -0.18309584 -0.14552379 0.015078447 -0.76325065 -0.26232406 -1.0157512 -0.37473178 0.23720804 -0.8905459 1.0686591 0.32089183 -0.044805083 -0.45028597 0.108702675 -0.54563683 -0.17319946 -0.6947478 0.022066941 0.43877432 -0.48964116 -0.20361619 -0.8117764 0.50596994 -0.1125586 -0.33838898 0.011995497 0.8818823 0.39146516 -0.2750538 -0.19627973 -0.05528253 0.6739373 -0.089753814 0.8094107 0.97301525 0.4000088 0.05903202 0.2071462 0.119951084 -0.18913795 -0.55919355 -0.7669689 -0.40356365 -0.6241511 0.19863722 0.23027186 0.34511247 -0.20970343 0.15752174 0.30660143
D -0.90855867 0.20316093 0.20975523 0.7095201 0.6373231 -0.37750405 -0.19269411 -0.12116022 0.42069864 0.026153708 0.042335827 0.49084297 -0.8439216 0.3998964 0.43331617 -0.23618579 -1.2204759 0.4457408 0.70159566 -1.045957 0.2732189 0.27422306 -0.21821254 -0.09800184 1.0884335 0.8772623 -0.26067442 -0.01766126 -1.4324139 0.8389682 -0.9736688 -0.036000416 0.31615585 -0.06071425 0.39963716 0.61661613 0.4420686 1.0295732 0.3281866 0.14179221 -0.26395637 -0.06582628 -0.9503592 -0.6825947 -0.15294364 -0.38493204 0.9873131 0.23619631 0.6801383 -0.060137443 0.7580367 0.35891888 -0.65748185 -0.18778865 -0.19870359 -0.789539 -1.1405578 0.19415945 -0.37808532 0.7322422 -0.468143 -0.83936167 -0.3307565 -0.64362437 0.2621184 0.422122 -1.3455536 0.49916273 -0.37662828 0.09537311 -1.439987 -0.8534694 -0.021486042 -0.17917591 0.19317582 0.6427724 1.0484762 0.6029952 -0.3899737 -0.35388324 0.20393044 0.052227344 -0.38705516 0.18845253 0.85494107 -0.3645645 0.44784594 0.4134714 -0.51257914 0.22531524 0.75380117 -1.0316582 0.56801003 0.23609474 -1.0910482 0.8720464 0.23158914 -0.8447116 -0.13792656 -0.46836734
T -0.09998935 0.59078485 -0.29356906 0.6915225 0.5445131 -0.60752875 0.5831217 0.11719664 -0.19638047 -0.6702788 -0.09030584 0.6453099 0.113164105 0.23381956 -0.33235374 0.0030429515 -0.4166644 -0.8569984 0.14771457 -0.2770899 -0.12995087 0.5226865 -0.051886734 1.5005376 0.20550235 0.23486808 -0.3376024 -0.09822021 -0.50696933 0.21125713 -0.2544085 0.4060697 -0.015181969 0.28345692 -0.6105927 -0.52616054 0.7466712 0.72166646 0.99349123 0.09255387 0.44244194 -0.8356384 -1.2367312 -0.91956246 -0.26461643 -0.5519908 0.91150904 -0.004249199 0.24118628 -0.049482435 -0.10759344 0.067819625 -0.26110217 -0.36707634 -0.26700053 -0.99729013 -0.30671066 0.0015641849 -0.9800696 1.0955503 0.32019854 0.032355115 -0.18031171 0.005249872 -0.49423543 -0.2474444 -0.7012318 -0.036128048 0.19854634 -0.592988 -0.59238076 -0.7890596 0.5164982 -0.35827228 -0.32070908 0.07707854 0.9436756 0.5161614 -0.08827795 -0.3869187 -0.2625292 0.6646221 0.032896016 0.75016665 0.9173809 0.5009218 0.052372362 0.5203193 -0.040524248 -0.08614067 -0.69874436 -0.79163796 -0.09017845 -0.575514 0.082332395 0.5165187 0.04493868 -0.591425 0.11607558 0.10945077
O -0.2495446 0.8065692 0.04645196 0.7612743 0.55445373 -0.6093907 0.6827432 -0.1474822 -0.29197904 -0.6882619 0.030964462 0.81294924 0.23307481 0.40982845 -0.5597917 -0.11440322 -0.52630776 -0.95706487 0.4980372 -0.03811763 -0.21336807 0.44015878 -0.25666383 1.8460821 0.3700416 0.27820235 -0.71219677 -0.26269907 -0.6789093 0.08173448 -0.3002245 0.49003947 -0.010758474 0.106822126 -0.7810427 -0.72805977 0.6083337 0.4332435 0.98926085 0.013022626 0.5150067 -1.0265653 -1.4070206 -0.45827436 -0.39220712 -0.6897862 0.88854134 0.16561612 -0.028889485 -0.14847809 -0.11140584 -0.14713337 -0.24646169 -0.40732583 -0.58955616 -1.1785364 -0.42879823 0.005378793 -0.946638 1.2059242 0.55387145 -0.021148406 -0.17926936 0.25052574 -0.44973612 -0.18460342 -0.85730934 0.042767916 0.4921564 -0.42702577 -0.12228675 -0.75884885 0.44283557 -0.36321977 -0.1788346 0.13698092 1.0170474 0.42855212 0.00960283 -0.46942905 -0.32831573 0.4064552 0.07994664 0.48067343 0.64090025 0.47905618 0.1926258 0.58843416 0.122377984 -0.40344408 -0.77717775 -1.0085834 -0.026387643 -0.6023285 -0.0771996 0.6271605 0.17569867 -0.68538374 0.27447143 -0.43125793
: -0.20236738 0.5500349 -0.0022830674 0.33784088 0.23771115 -0.3503732 0.43520227 -0.2431791 -0.27815756 -0.5630809 0.049026687 0.6670801 0.052787423 0.22213998 -0.3670588 0.018648922 -0.15758877 -0.51757187 0.18626459 -0.095458 -0.06503988 0.28738043 -0.27218693 1.0942421 0.16983445 0.26159623 -0.32576522 -0.11162163 -0.54982245 0.07030635 -0.27985767 0.16245912 -0.06680741 0.063680194 -0.52052885 -0.40855858 0.2935895 0.4952944 0.6364103 0.04753602 0.39006412 -0.53488535 -0.87161434 -0.36716083 -0.23862147 -0.42599848 0.69002396 0.12647222 -0.0008645547 -0.15540318 -0.04347952 0.20726274 -0.10756109 -0.0715389 -0.29698843 -0.7998346 -0.184419 -0.048533008 -0.4833014 0.72043335 0.34788325 0.0514318 -0.010886086 0.235404 -0.43816185 -0.14569439 -0.3523701 -0.037740864 0.38758624 -0.45300072 -0.12357996 -0.4466258 0.22827908 -0.25479963 -0.12994026 0.048364725 0.59436625 0.3540965 0.08114753 -0.29734743 -0.26749584 0.21296014 0.17490357 0.2418385 0.35869163 0.30894732 0.11914692 0.46723458 0.061909392 -0.21907896 -0.4594915 -0.6381069 0.06221551 -0.6055844 0.11448133 0.6134423 0.008425712 -0.32277602 0.054498427 -0.02772196
J 0.3920033 0.6673995 0.12291853 1.2064475 -0.033817306 -0.34783763 0.59890944 0.09716888 -0.30918878 -0.5247974 -0.00014289127 0.58625126 -0.16566798 -0.090821765 -0.40928403 -0.022683643 -0.70975685 -0.8727585 0.5140378 -0.027060742 -0.29862687 0.19578366 -0.035479166 1.0599413 0.4354553 -0.062752195 -0.3326061 -0.044387214 0.47418895 0.17564557 -0.35331908 0.038010802 -0.312148 0.17943186 -0.35337707 -0.8243386 0.61008775 0.22148916 0.31438652 0.2558475 0.32146376 -0.66735345 -0.711706 -0.27139723 -0.25589713 -0.4961568 0.11620659 0.17982858 0.34004444 -0.029170716 -0.58509207 -0.41415277 -0.09253041 -0.18434569 -0.13504674 -1.221529 -0.049312595 0.089281745 -0.7816619 1.0551673 0.30590105 0.041347392 0.13407889 0.051201157 -0.25792557 0.055164203 -0.41320956 0.1406269 -0.010183112 -0.1489564 -0.3782411 -0.24145305 0.50598425 -0.25144264 -0.13496442 -0.22986661 0.5628892 0.14369592 -0.2021532 -0.07894434 -0.05171223 0.5795443 0.45026413 0.3885334 0.35354015 0.15617585 -0.081656 0.13344389 0.18941103 0.13122699 -0.43849894 -0.52866465 -0.16246311 -0.22116093 0.14741357 0.08333195 0.3988645 -0.28800693 0.21844685 0.24267668
L -0.14592509 0.6220852 -0.07626561 0.858128 0.45865113 -0.57073915 0.5597277 -0.06495555 -0.3590012 -0.6790925 -0.08814386 0.8515048 -0.0097224265 0.5595041 -0.6866098 -0.0375755 -0.5818578 -0.8323841 0.5150916 0.08457532 -0.17725505 0.4378817 -0.38011014 1.7179438 0.37765145 0.2698274 -0.48066002 -0.29033253 -0.60286766 0.10381053 -0.29693574 0.30324367 -0.043660548 0.14642242 -0.7748093 -0.58357817 0.6305457 0.57171637 0.935392 0.080105506 0.40122393 -0.7772047 -1.2803655 -0.4732661 -0.41955066 -0.6706383 0.9282511 0.28086546 -0.12094464 -0.0054471535 0.07467112 0.01422079 -0.19873063 -0.28403035 -0.52540755 -1.3126193 -0.42998254 0.10860076 -0.9541064 1.3279742 0.46527782 0.07589837 -0.14441223 0.12869461 -0.3135163 -0.29087368 -0.7493884 -0.11050471 0.41324073 -0.39818865 -0.26503757 -0.5825605 0.30784434 -0.5340565 -0.035864927 0.059229102 0.8782089 0.5335953 -0.17082618 -0.23776695 -0.26314133 0.4194861 0.027416967 0.5411832 0.6461084 0.4025036 -0.01795492 0.54361886 -0.1225609 -0.1696885 -0.49209753 -0.77929634 -0.032659184 -0.48481193 0.012537199 0.5761962 0.29770848 -0.5565093 0.22392534 -0.29893804
H -0.14778735 0.50495267 -0.1679325 0.43049616 0.3945584 -0.44552517 0.5200032 0.0051009874 -0.16789158 -0.51795435 0.07507801 0.5870439 -0.19420333 0.30240756 -0.5458967 0.111527845 -0.558457 -0.5072834 0.2814526 0.035546333 -0.21198152 0.36924168 -0.32449353 1.1913097 0.2721008 0.17914544 -0.30019745 -0.16121385 -0.45249063 0.26358977 -0.13914011 0.21909414 -0.16895363 0.10828435 -0.5333317 -0.35515866 0.5510962 0.49658015 0.82028365 0.082744695 0.46369898 -0.4653679 -0.86772907 -0.5478818 -0.25051528 -0.5112607 0.6522123 0.16710375 0.1082376 -0.20551021 -0.093186274 0.039206713 -0.13069566 -0.027350642 -0.39564157 -0.82500756 -0.2577197 0.046677455 -0.5762458 0.91951835 0.3154805 0.08434613 -0.067497544 0.01724687 -0.23073532 -0.3284895 -0.6204602 -0.02894812 0.19916306 -0.22959398 -0.23270372 -0.40966022 0.27471474 -0.26150423 0.20606954 0.11428725 0.6047726 0.3715072 -0.06499426 -0.3689435 -0.1694539 0.25416663 0.1267209 0.31294987 0.30389428 0.30216613 0.074775 0.4068038 -0.07797822 -0.30196553 -0.42454907 -0.51987743 0.15124209 -0.3182425 -0.035863 0.44040602 0.060395386 -0.46334696 0.32435524 -0.24515168
E -0.2624937 0.6755167 0.017878568 0.88632405 0.3580774 -0.50319654 0.4611317 -0.13122813 -0.2880333 -0.6626297 -0.05642141 0.73035765 -0.007323374 0.5238639 -0.6924537 -0.021541946 -0.66670966 -0.7295183 0.5494366 0.036530808 -0.26790333 0.4600477 -0.34954172 1.5397807 0.40305007 0.24609122 -0.4923949 -0.26769075 -0.6041322 0.06745492 -0.2941807 0.27123305 -0.14376825 0.050184377 -0.7358377 -0.60681224 0.5110582 0.52487177 0.8681366 0.1094919 0.47983623 -0.7658382 -1.1445864 -0.5963955 -0.29990074 -0.5499283 0.7037153 0.23055288 -0.034631077 -0.10798923 0.13048756 0.04940263 -0.41286474 -0.2583363 -0.50635195 -1.2230945 -0.3561487 0.083708875 -0.7881299 1.0876878 0.34402013 0.010101271 -0.086839326 0.120662026 -0.40813735 -0.2303032 -0.7536086 -0.16020508 0.37209484 -0.32136098 -0.28655112 -0.56489396 0.20625412 -0.52654284 -0.052426644 0.06510357 0.85910666 0.5033119 -0.13576417 -0.18216874 -0.25699148 0.2161974 -0.001499181 0.5443669 0.61730814 0.36693466 -0.057475194 0.5385462 -0.04711978 -0.17248876 -0.31539264 -0.7757577 0.044687532 -0.2728628 -0.04060523 0.4118723 0.21188186 -0.48377454 0.17577058 -0.5798526
N -0.080855764 0.39507678 -0.0675855 0.47925296 0.2625232 -0.45417273 0.2919718 0.023728957 -0.122693144 -0.44948953 -0.096603304 0.55519366 -0.070877664 0.3376897 -0.45603845 0.024321843 -0.49922696 -0.5095773 0.37443465 0.0035433793 -0.18436705 0.2946222 -0.3077951 1.0595683 0.32358643 0.11363221 -0.33972365 -0.2446085 -0.3013327 0.11676357 -0.21060604 0.22277693 -0.16517913 -0.08070708 -0.5523612 -0.45479557 0.44299054 0.39077786 0.69485235 0.07981459 0.29186618 -0.56648874 -0.83244556 -0.49177718 -0.19125824 -0.41382453 0.5616564 0.11497383 -0.030493492 -0.10123966 0.08779747 -0.01274711 -0.20830716 -0.24091391 -0.26116106 -0.8166878 -0.2326888 0.048064973 -0.5074064 0.7502336 0.23554268 -0.049990904 -0.17574424 -0.038945895 -0.30497417 -0.096401915 -0.511672 -0.08341292 0.17913821 -0.24506716 -0.3363599 -0.42236447 0.22969681 -0.22230776 -0.026453886 0.042321473 0.5689696 0.3498119 -0.119461514 -0.18582076 -0.04822203 0.25445023 0.016900688 0.37123588 0.5069776 0.21409056 -0.046083476 0.2550269 -0.050131153 -0.107110724 -0.22439629 -0.50625575 0.009326959 -0.2499789 -0.01984057 0.232364 0.09961458 -0.2757766 0.1599102 0.13656344
K -0.020202922 0.29353026 -0.0070505114 0.4053307 0.22410151 -0.3424223 0.2416208 0.038308665 -0.05693758 -0.22960806 -0.067332394 0.3857325 -0.09257747 0.20436129 -0.41121122 -0.028809892 -0.34884113 -0.51915324 0.32484475 0.072724596 -0.19644211 0.1743531 -0.22756037 0.88329107 0.27875906 0.046887476 -0.3128471 -0.14761381 -0.11374946 0.08059012 -0.13884676 0.18760616 -0.12800029 -0.04492877 -0.36455178 -0.3757822 0.38708198 0.2286726 0.47343284 0.03568745 0.23940322 -0.45698917 -0.6056883 -0.26955977 -0.23631482 -0.37859175 0.35527197 0.17581503 -0.09020608 -0.029849786 0.024761923 -0.072169214 -0.14515156 -0.1983048 -0.29552752 -0.755162 -0.20652151 0.06036193 -0.48144993 0.7062787 0.26936874 -0.023091814 -0.18235019 0.0045849024 -0.16110243 -0.096410856 -0.48026928 -0.018233575 0.19934745 -0.1586404 -0.19743183 -0.32580957 0.1834212 -0.17875242 0.022955235 0.029499114 0.46363875 0.24019495 -0.091993466 -0.03165883 -0.038908493 0.20801787 -0.053348444 0.31935692 0.34902507 0.06468511 -0.014312929 0.10146746 -0.02487517 -0.09118712 -0.17264578 -0.3994963 -0.02234604 -0.14141463 -0.022041183 0.1361177 0.22117944 -0.26839882 0.20072733 -0.14879759
V -0.030341722 0.21932463 -0.07479744 0.4291232 0.42613316 -0.27708492 0.31812945 0.12859821 -0.20016631 -0.2361635 -0.03520804 0.45325926 0.25782162 0.24467006 -0.24868746 0.007394303 -0.21096154 -0.3990666 0.17090942 -0.023675838 -0.026669228 0.17606464 0.02605648 0.87856627 0.20064437 0.12120473 -0.36845967 -0.1238568 -0.36801183 0.056444492 -0.21342409 0.25281408 0.03172154 0.082213074 -0.388568 -0.4876242 0.4188985 0.19957913 0.61158407 -0.15307 0.20071073 -0.37884152 -0.78163326 -0.21560884 -0.31697774 -0.38454598 0.4684593 0.119141534 0.009105757 -0.039034866 -0.052450724 -0.08013991 -0.10212756 -0.43798637 -0.18723486 -0.49803057 -0.33053467 -0.0444836 -0.60362667 0.79394996 0.2928433 -0.03467486 -0.16343097 -0.04193954 -0.09106134 -0.10992298 -0.41048816 -0.02155763 0.18302435 -0.19874184 -0.056730065 -0.30141455 0.28034335 -0.2707424 -0.2232298 0.077281 0.35338622 0.18141666 0.12559827 -0.3513392 -0.13340865 0.37553698 -0.13071947 0.20297395 0.42360756 0.32066116 -0.00095017505 0.21100332 -0.1085365 -0.08959626 -0.411685 -0.36472562 0.009684228 -0.19638489 -0.1724863 0.17752065 0.084417425 -0.4601039 0.100045554 -0.14940089
Y -0.056526355 0.33003086 -0.08377968 0.36960867 0.21453562 -0.29715845 0.27099365 -0.038623434 -0.17908147 -0.41131872 -0.11633708 0.5193556 -0.0412946 0.25456586 -0.39479485 0.0142860245 -0.28838122 -0.38965648 0.20910239 -0.05709525 -0.08452574 0.25687134 -0.25042692 0.8120558 0.19021638 0.14085194 -0.228289 -0.120062985 -0.2805549 0.09086303 -0.16355136 0.11328904 -0.17004962 -0.0067992005 -0.4463732 -0.36933717 0.36743098 0.3295989 0.59054375 0.020818684 0.28714535 -0.3816452 -0.6527723 -0.35359314 -0.2109904 -0.36480838 0.52327615 0.12794143 -0.069716 -0.07510007 0.06553716 0.17466563 -0.15279378 -0.07867097 -0.2526565 -0.68694985 -0.12007087 0.011983112 -0.4016397 0.6873611 0.29575172 0.091134645 -0.12946266 0.028585752 -0.27841952 -0.15463142 -0.35069147 -0.16221301 0.20625038 -0.30452198 -0.3073368 -0.28879282 0.16801526 -0.32974353 -0.049268458 -0.017654283 0.4738775 0.34822798 -0.08027264 -0.06336221 -0.110082 0.2259414 0.014494434 0.35911405 0.40408072 0.24826725 -0.07803306 0.26003626 -0.099103235 -0.051825516 -0.14826302 -0.3818084 0.035799574 -0.22283652 0.07254193 0.30134526 0.03883482 -0.23232453 0.13285455 -0.006752691
% -0.0702055 0.32876208 0.013809953 0.31751603 0.12507936 -0.26605198 0.315271 -0.16939296 -0.20209025 -0.3346782 -0.035320334 0.33627665 -0.10926035 0.22230624 -0.38459155 -0.014422328 -0.24569051 -0.46699342 0.35141623 0.08722971 -0.17611377 0.25024235 -0.30720535 0.8114112 0.17468403 0.11855748 -0.28087756 -0.15204132 -0.19239454 0.08996351 -0.1310835 0.15700282 -0.20007259 -0.072891094 -0.3818427 -0.29734233 0.23774448 0.24882436 0.3968671 0.011988781 0.2267873 -0.4909288 -0.6118686 -0.20781524 -0.16981491 -0.3724743 0.4731143 0.23551914 -0.22171989 -0.06654767 0.034844253 0.00019314855 -0.09409841 -0.0744078 -0.28458253 -0.78575087 -0.14530432 0.0886499 -0.36872536 0.64424145 0.2687524 -0.008374449 -0.14793737 0.09785475 -0.23343883 -0.1406374 -0.41683894 -0.04866819 0.26497194 -0.20331424 -0.095744856 -0.3149732 0.122298814 -0.19740134 0.06745013 -0.0050736866 0.50751066 0.3145559 -0.17451054 0.04058046 -0.025685582 0.13447164 0.00055927684 0.32340568 0.38220868 0.12043392 -0.029606739 0.16751172 -0.027463354 -0.12040555 -0.10483948 -0.44250226 -0.01652505 -0.1467177 0.08905102 0.21601863 0.21890913 -0.15665367 0.17844427 -0.088394836
U -0.13751428 0.4297595 0.006222762 0.46359414 0.10227453 -0.3606579 0.26821217 -0.03391031 -0.0944107 -0.2643912 -0.049004626 0.40902194 -0.1355504 0.25486627 -0.4773524 0.052664842 -0.29135668 -0.485186 0.25286856 0.06737854 -0.20194937 0.24950446 -0.2796708 0.8655186 0.2386986 0.08898784 -0.33416715 -0.12601139 -0.21466534 -0.0061972383 -0.13311884 0.14132626 -0.13462356 -0.09822638 -0.49866533 -0.43299204 0.29803836 0.29629782 0.52465916 0.12067928 0.33475444 -0.5409992 -0.5979374 -0.4221022 -0.15786014 -0.3335374 0.34235796 0.13210261 -0.11945054 -0.04832154 0.13533965 0.08891056 -0.2209056 -0.14609581 -0.32725248 -0.7903385 -0.11888751 0.041996133 -0.40339366 0.6200684 0.19895625 0.06792204 -0.10222194 0.08220587 -0.38987255 -0.17868318 -0.4380557 -0.095096245 0.31393215 -0.20158409 -0.14536712 -0.36973798 0.099618785 -0.13937737 -0.03973049 0.07445708 0.4913312 0.19255799 -0.036652494 -0.010649158 -0.1131158 0.109706216 -0.01322865 0.3592093 0.30564317 0.07701304 -0.03413181 0.23250428 0.13924058 -0.16334109 -0.16103762 -0.4169842 0.012758188 -0.22744529 0.11634541 0.19494778 0.14073351 -0.17788163 0.15377825 -0.22321562
™ -0.04461605 0.24548884 -0.0017821745 0.20659289 0.07159259 -0.20715125 0.15045537 -0.06321753 -0.09382259 -0.24497 -0.027582189 0.22919968 0.012381168 0.025402015 -0.19613402 -0.041414864 -0.13386108 -0.3849486 0.08624893 -0.03643194 -0.076062396 0.15552813 -0.043969646 0.50499934 0.0780052 0.06310695 -0.14776318 -0.024560263 -0.06269194 -0.013256865 -0.083933026 0.0909329 -0.090110116 0.040498447 -0.24431288 -0.27619472 0.24063735 0.19827083 0.3052529 0.084907815 0.24462336 -0.34041008 -0.3472652 -0.27360186 -0.05049968 -0.21943964 0.17691831 0.026501564 0.02328404 -0.013232156 0.007326418 0.058295965 -0.16783689 -0.052804798 -0.16009018 -0.46256658 -0.048969127 -0.07198517 -0.29032487 0.35715115 0.18727069 0.06427901 -0.021818832 0.07325643 -0.22604677 -0.04174993 -0.22640279 -0.039905034 0.11941298 -0.22289048 -0.17321248 -0.21327846 0.15268509 -0.12242139 -0.10193545 -0.028788706 0.28058797 0.17792228 0.0350064 -0.05312388 -0.09845969 0.1447939 0.09020066 0.21845481 0.2206563 0.1393205 -0.02029864 0.17219481 0.05189981 -0.048724223 -0.17501263 -0.30112392 -0.013143795 -0.20099276 0.0880796 0.153623 0.025215114 -0.15426017 0.048506152 0.01053669
* -0.019325621 0.109001935 -0.047526587 0.23523338 0.08580621 -0.1507735 0.082608975 0.038332496 -0.019398956 -0.14159293 -0.07883229 0.20421945 -0.025497697 0.14971863 -0.19133046 -0.0023440444 -0.1745646 -0.1724883 0.1090478 -0.032853317 -0.054298602 0.10952844 -0.11122249 0.37389067 0.1292795 0.019751696 -0.09774307 -0.07515703 -0.09402273 0.017835697 -0.055566065 0.05494466 -0.04617628 0.00084849633 -0.20551857 -0.15817465 0.17562425 0.12076149 0.2530507 0.041757938 0.092613086 -0.1900443 -0.28259462 -0.18156286 -0.096354775 -0.114584774 0.18847898 0.016144728 -0.013746477 0.016567156 0.082518436 0.03982113 -0.08999851 -0.08580964 -0.087135166 -0.27951124 -0.06388834 0.038358297 -0.20410971 0.28031918 0.09151816 0.017616397 -0.074052975 -0.02538138 -0.110244125 -0.050198127 -0.1718378 -0.08820562 0.06382413 -0.095063254 -0.18418445 -0.143414 0.059169088 -0.12742285 -0.048681352 0.008761375 0.21500097 0.11639524 -0.058478106 0.015296655 -0.020772748 0.09232428 -0.043369405 0.21247889 0.19649912 0.08134196 -0.028270425 0.08725649 -0.0293113 0.00057769014 -0.06594463 -0.14027664 -0.040146876 -0.043709207 0.021799503 0.055608947 0.03648974 -0.09170864 0.037936736 -0.07700044
& 0.016969455 0.15040994 -0.03562829 0.27622572 0.052401517 -0.18203218 0.082125604 -0.004638647 -0.028823404 -0.15811242 -0.05187907 0.2066087 -0.073743895 0.14829206 -0.33064768 0.04549489 -0.20305106 -0.27090466 0.14072153 0.030213408 -0.16594689 0.09588305 -0.22520413 0.49295163 0.16403918 -0.034916893 -0.119172685 -0.112705134 -0.02899612 -0.017108088 -0.004273545 0.057674754 -0.1219852 -0.0801668 -0.28232005 -0.2536845 0.15943074 0.16279982 0.33528784 0.0726492 0.25889373 -0.26626328 -0.31054613 -0.3077523 -0.06792222 -0.20017438 0.11900928 0.033014 -0.06336738 -0.053598095 0.13205814 0.09266095 -0.22875787 -0.039993316 -0.15034707 -0.4711703 -0.055709764 -0.0107966475 -0.21278834 0.36108667 0.13237756 0.014463796 -0.108138464 -0.06944511 -0.17746863 -0.119021595 -0.28546163 -0.13095629 0.117356606 -0.12521674 -0.24776644 -0.1733656 0.00291978 -0.21109398 -0.0033860703 -0.0053675147 0.27720997 0.1513747 -0.062460005 0.15622321 -0.066625126 0.015799738 -0.079392046 0.2728591 0.23589058 0.0052522114 -0.12978847 0.06819696 -0.023808107 0.049979635 0.06335655 -0.18857111 -0.011831644 0.03916281 0.058153387 -0.009640406 0.08225946 -0.12853366 0.096736535 -0.1994265
Q 0.0036101814 0.11629181 -0.053626165 0.25211143 0.09804861 -0.09653694 0.09357748 0.02154103 -0.040117797 -0.13073353 -0.049006965 0.13215092 -0.0033835762 0.115568735 -0.18670925 0.02529764 -0.10907915 -0.12625122 0.07893743 -0.0050309147 -0.0973239 0.08206518 -0.10997689 0.3300087 0.07452016 -0.00018388592 -0.07892524 -0.07434307 -0.074624896 0.035255242 -0.011702544 0.062286545 -0.059584875 -0.034295022 -0.18279217 -0.15077123 0.09524878 0.10435941 0.23821233 0.016722476 0.11649552 -0.16733725 -0.2574425 -0.18945228 -0.06735828 -0.13109563 0.13383548 0.002452563 -0.016768519 -0.024655508 0.053505816 0.051435713 -0.10191359 -0.044769235 -0.07661539 -0.23598242 -0.040610343 0.014717104 -0.15793557 0.2336477 0.057069425 0.01649581 -0.09205883 -0.048323266 -0.09558934 -0.08949717 -0.15248403 -0.065315954 0.06841676 -0.084840775 -0.14287817 -0.13376255 0.018104317 -0.15523751 -0.03320352 0.028148055 0.2119595 0.09964751 -0.081987344 0.07773999 -0.056927983 0.045795634 -0.082328215 0.18316957 0.20593679 0.035902396 -0.07316869 0.06547842 -0.038410265 0.05650298 0.024801191 -0.11739768 0.014560322 0.0392611 -0.005138276 0.042730015 0.02263462 -0.112224735 0.060541533 -0.13219772
Z -0.014404072 0.003768767 0.002917706 0.072751634 0.007032274 -0.031815365 -0.011141132 0.0076551326 0.028361347 -0.0049873125 -0.018919015 0.033861913 -0.031089483 0.043838616 -0.06674647 0.0109341275 -0.059938777 -0.0148570975 0.034994535 -0.021711454 -0.042859986 -0.0047351844 -0.060215622 0.058133878 0.05769554 -0.013794684 -0.010942796 -0.029288746 -0.016684726 -0.0017560514 0.0038392062 -0.0033704475 -0.01634477 -0.04106826 -0.038066685 -0.047626138 0.010347996 0.016384782 0.07775088 0.016327886 0.038127348 -0.05919505 -0.051668856 -0.08227047 -0.008405437 -0.0165509 -0.010353666 -0.009740824 -0.0024318139 -0.000899582 0.083675265 0.029915208 -0.08343137 -0.019759571 -0.016057922 -0.07775544 -0.02572018 -0.0006768461 -0.033957563 0.047868844 0.019064646 -0.018564107 -0.051144276 -0.046900645 -0.036882754 -0.0061103683 -0.08484791 -0.031961042 0.007691335 -0.0053267363 -0.08490399 -0.04039929 -0.032072514 -0.03915242 -0.0033887909 0.02667192 0.053776924 0.01248022 -0.012493638 0.06230128 -0.018045887 -0.01370691 -0.06644877 0.062370464 0.06156659 -0.02210642 -0.025770368 -0.0077806944 -0.0047149383 0.037999116 0.061789166 -0.024569029 -0.00014192253 0.07358311 -0.008909967 -0.023674414 0.018313827 -0.032412406 0.0038742912 -0.11406289
; 0.018371845 0.034765847 -0.018823026 0.14278166 0.00017642051 -0.051190257 -0.0067745456 0.016882816 0.028676353 -0.029089257 -0.03118552 0.042312212 -0.041371807 0.06597264 -0.1217762 0.026321035 -0.076540045 -0.05373744 0.04349308 0.019491294 -0.08305899 0.012815908 -0.10107039 0.14464967 0.06334444 -0.041216567 -0.011675625 -0.049458485 0.021231718 -0.018500188 0.037168674 0.009265496 -0.050101392 -0.047939602 -0.099588774 -0.077400014 0.026190827 0.028849082 0.108929455 0.04149145 0.08179297 -0.07596746 -0.07059439 -0.12577142 -0.013628885 -0.03577964 -0.01471661 -0.021145064 -0.015689783 -0.011571804 0.08262225 0.034136973 -0.08940762 -0.0029723377 -0.039863594 -0.12296205 -0.0014475657 0.0038008 -0.03722205 0.0619906 0.014127462 -0.0032372542 -0.04462951 -0.049116414 -0.050204117 -0.042206436 -0.07318644 -0.06543625 0.024214616 -0.016302336 -0.11564908 -0.041737217 -0.03243449 -0.07396205 0.012423173 0.0064814296 0.08324377 0.026312752 -0.03882319 0.113525845 -0.016576644 -0.044406597 -0.061736066 0.100217454 0.06832271 -0.03787135 -0.06948211 0.0010287592 -0.010488221 0.04763318 0.0811143 -0.015167045 -7.7121134e-05 0.09461544 0.0054490264 -0.05319169 0.007952846 -0.028244404 0.033903178 -0.11381859
! -0.0024287095 0.03028474 -0.013862539 0.08498996 0.031541828 -0.0588734 0.0019926978 5.9987113e-05 0.008382064 -0.046904948 -0.03504933 0.055063307 -0.006037373 0.056925125 -0.11258013 0.0013284996 -0.056441803 -0.08059115 0.053934503 0.0060571874 -0.05115258 0.03186055 -0.06594943 0.15690617 0.049157057 -0.011654831 -0.03908876 -0.039113104 -0.012498048 -0.014741631 0.010748522 0.02710112 -0.04609529 -0.035235364 -0.08537163 -0.081651255 0.04649336 0.038964305 0.10626552 0.011774279 0.06990831 -0.084085986 -0.09668681 -0.10212512 -0.01733309 -0.05110998 0.03182197 -0.0010574142 -0.034133535 -0.00067677046 0.06361879 0.033819307 -0.07924499 -0.028967379 -0.039561428 -0.12934467 -0.012446754 0.0037202125 -0.06423576 0.09773428 0.03994326 -0.0056264717 -0.059084307 -0.027509646 -0.049480397 -0.034054376 -0.08550919 -0.054830737 0.03563762 -0.03652482 -0.09217776 -0.05987837 -0.002971464 -0.07636351 -0.0069786934 -0.006703204 0.08496964 0.060719103 -0.028680129 0.07769627 -0.005747803 -0.002368282 -0.051821064 0.11266266 0.10070592 -0.0008045384 -0.04467101 0.009340907 -0.021525897 0.028054314 0.038162123 -0.04910905 -0.015790526 0.05103372 0.015544595 -0.023598239 0.022262363 -0.022739083 0.01994768 -0.08124996
’ 0.0031789658 0.042542897 -0.028344354 0.09989749 0.02776299 -0.039965365 0.011955007 0.0034648932 -0.008985318 -0.049141455 -0.027876178 0.05287106 -0.011835043 0.05309689 -0.09999256 0.01870337 -0.030212356 -0.050813936 0.026653023 0.016207667 -0.05023666 0.025257181 -0.06313619 0.13085924 0.028053619 -0.02073343 -0.013058148 -0.039660808 -0.010552966 -0.0069808513 0.012178784 0.004651755 -0.042298272 -0.037194733 -0.086101666 -0.06147093 0.033884462 0.04168557 0.10170485 0.010405992 0.074530415 -0.058596935 -0.07795336 -0.103618465 -0.018539917 -0.05011542 0.03233935 0.004453969 -0.019792875 -0.014644018 0.057146948 0.055394895 -0.069569916 0.0038675833 -0.030901 -0.10637647 -0.007739783 -9.880737e-05 -0.04299832 0.08355212 0.01983162 0.005530083 -0.04048067 -0.03342066 -0.052668903 -0.048134737 -0.060977202 -0.053052213 0.027243393 -0.039121352 -0.08058859 -0.042844646 -0.018050319 -0.08945212 -0.0070785084 0.0002489253 0.06796148 0.05435231 -0.023005193 0.080293775 -0.019801922 -0.009406584 -0.052477535 0.09749882 0.0848661 -0.006138111 -0.06877502 0.017457346 -0.023843074 0.049903654 0.053550255 -0.027374541 0.0170712 0.04428008 0.011707563 -0.008301897 0.0038382572 -0.03982893 0.021851571 -0.07225165
© -0.0024421068 0.024476064 -0.0034203825 0.04796822 -0.0017530683 -0.007839732 0.0045349854 0.014311342 -0.0007377728 -0.010270212 -0.009275189 0.018819846 -0.017429369 0.020049056 -0.05185542 0.013708738 -0.017011678 -0.028241573 0.008003644 0.0014422317 -0.026568078 0.01411901 -0.02100161 0.052348927 0.019357176 -0.005884701 -0.02218965 -0.0076401294 0.0043390393 -0.007901381 -0.006274746 0.005044031 -0.02109075 -0.02605297 -0.030064905 -0.038745485 0.0036815286 0.022880174 0.032585617 0.007443236 0.034044143 -0.027313245 -0.027724313 -0.042624738 -0.0113752475 -0.010117242 -0.0002122319 0.003070458 -0.011981627 -0.016856011 0.0062643555 0.019359063 -0.034165315 -0.0038586273 -0.019758597 -0.041849203 0.00453315 0.0048076864 -0.019641193 0.026057815 -0.000752486 0.009436172 -0.0204645 -0.012711318 -0.044376574 -0.025246901 -0.024074499 -0.024207696 0.018243302 -0.011614514 -0.025590446 -0.02063673 -0.014084218 -0.0349337 -0.011094353 0.0007459508 0.04192425 0.0057961363 -0.015267858 0.037897915 -0.015593758 -0.012310901 -0.021040954 0.043124113 0.025579073 -0.013412601 -0.023689054 0.010021015 0.010775108 0.013432516 0.024529254 -0.011849629 0.003218832 0.0112788705 0.013191527 -0.009020332 0.009202914 -0.0051521827 0.0037839347 -0.055823904
Ú -0.0046797497 0.015818732 -0.004819961 0.074474774 0.0041231466 -0.015671203 -0.0085024815 0.01179325 0.02682057 -0.0067430865 -0.021639103 0.01810283 -0.012962605 0.03238387 -0.07199924 0.017715432 -0.021552153 -0.016284319 0.0028810157 -0.005603969 -0.04963749 0.009815542 -0.05131958 0.059889767 0.029101009 -0.031994566 -0.013512322 -0.017503023 0.002688499 -0.011388212 0.026870701 0.0018768845 -0.026917651 -0.02690121 -0.04427344 -0.041180808 0.00601685 -0.00016069131 0.0657717 0.015666706 0.047732554 -0.044951983 -0.028491458 -0.07299867 -0.008318326 -0.0038980604 -0.014227144 -0.015351974 -0.011455028 -0.0071079205 0.043639522 0.03557612 -0.055849113 -0.0033516772 -0.017172713 -0.038004447 0.013180287 0.00635966 -0.012638249 0.011522793 0.0065350034 0.0038905558 -0.035069562 -0.026014589 -0.0484698 -0.02666 -0.042522196 -0.043242704 0.021383854 -0.014630962 -0.057725817 -0.0305203 -0.02321155 -0.035371777 -0.008908666 0.008471113 0.052788112 0.0046398486 -0.02300563 0.06963933 -0.018621309 -0.026457148 -0.052880444 0.06337639 0.042860724 -0.018316913 -0.03291404 -0.00030310897 0.009882925 0.025332868 0.05702295 -0.0029002698 -0.00054121984 0.057010815 0.016879924 -0.03402477 -0.006362248 -0.011647567 0.011918549 -0.09724811
X -0.005596077 0.01686042 0.010089643 0.033984203 -0.0032835107 -0.011350588 0.009323567 -0.00723499 0.0027914082 -0.016787745 -0.008025551 0.022490798 -0.008113859 0.015920937 -0.034630276 0.0030330517 -0.026292244 -0.022657959 0.012090319 -0.009218817 -0.021102462 0.00011698271 -0.02308226 0.035418242 0.021990897 -0.0037459983 -0.0147150345 -0.00943262 -0.0018980447 -0.0063938177 -0.0033810213 0.005582017 -0.013980796 -0.017948823 -0.02627917 -0.025157113 0.0026963882 0.002474905 0.028922258 0.002197415 0.024276556 -0.033973135 -0.036232267 -0.01975937 -0.001159123 -0.013754277 0.001515459 -0.0011851387 -0.006835802 -0.008587646 0.019562092 0.00822406 -0.02415961 -0.006488731 -0.012088544 -0.03969589 -0.0056381156 0.0045675845 -0.01852773 0.029001236 0.0081906365 0.0029316717 -0.012577404 -0.004886785 -0.02225879 -0.007437111 -0.02452944 -0.020659203 0.016356545 -0.0042273486 -0.024098935 -0.019692294 -0.008130898 -0.015669543 -0.012221249 0.0052594263 0.031418096 0.0068995934 -0.008691173 0.022451684 -0.010537625 -0.0006773515 -0.015826821 0.025442569 0.025706094 0.0014170437 -0.017359037 0.008809259 0.006678051 0.012184551 0.015994025 -0.016549744 -0.009933975 0.016451664 0.0012287957 -0.0011589935 0.013272135 -0.0035645938 0.0045729787 -0.029344926
