71 100
e 0.29184973 0.14905249 -0.1528985 -0.34766933 -0.6664676 -0.0761691 0.31133497 -0.23970227 -0.43834606 -0.33029628 0.1332832 -0.38244903 -0.15349156 -0.8749944 0.67261106 -0.07705891 0.10915598 -0.47672838 -0.39373598 0.22216 0.040513504 0.25103924 -0.22399756 0.22716583 -0.45906875 -0.078643605 -0.0067981924 -0.20047997 0.6848857 -0.39704508 -0.098031536 0.11346894 0.0559867 -0.16214284 -0.3511289 -0.063827425 -0.30632845 0.17066164 -0.34366417 0.39293003 0.0506913 -0.22280137 0.15246218 -0.30502948 0.39882827 0.2502878 -0.15085839 -0.27170223 -0.16954482 -0.017600646 -0.43150884 -0.2711238 0.12375929 0.026619218 0.26734987 -0.039001934 0.11350216 -0.1316992 0.18281156 -0.29828456 -0.26001865 0.24840562 -0.13966729 0.2329749 -0.34713614 0.013406661 0.3234577 -0.26823157 0.13946912 -0.09736857 -0.039885335 -0.19185543 0.12639545 0.39350125 -0.13643302 -0.05327144 -0.14008418 -0.2635011 0.075977355 -0.0955681 0.1980664 -0.25785905 0.61454415 0.25844392 -0.2122044 0.15416852 0.017223358 -0.41427302 0.64751405 -0.16034152 -0.34595296 -0.16676283 -0.28099707 -0.30537376 0.4053124 -0.5246281 0.122351564 0.2507659 0.46564662 -0.046048395
  0.17079839 -0.36757183 0.46749765 -0.45813474 -0.14168464 0.18182847 -0.23257893 0.124464676 0.07268004 -0.32241002 -0.28561616 -0.115535736 -0.35369062 -0.19620986 0.1621707 0.14213228 0.45660076 0.3431896 -0.09551522 0.20098431 0.018097194 -0.10957198 -0.11520212 0.28500092 0.019707117 -0.2631545 0.45980793 -0.22784019 1.0311824 -0.23128873 0.1521556 0.0483582 -0.27541423 -0.5831837 -0.37560135 -0.023055702 -0.63807577 0.31163043 -0.4639668 0.8106434 -0.044437572 -0.030932404 0.4320517 -0.35204375 0.18317036 -0.0136571005 -0.22284424 -0.26978207 -0.19373678 0.27762547 -0.34677678 0.060072437 0.36086327 0.2639461 0.012118405 0.044945523 0.13241088 0.24883275 0.3034979 -0.53064173 -0.22599174 0.07200425 -0.029189108 0.386814 -0.06567063 -0.07305418 0.5069159 0.17916654 -0.1348114 -0.13032621 -0.067885146 -0.2328898 0.41147748 0.2741082 0.15647736 -0.051317196 -0.028372502 -0.20899896 -0.08560635 0.26892036 0.46851578 0.529294 0.16771938 -0.10477316 -0.20226815 -0.17273891 0.1170692 -0.2022822 0.37033102 -0.17027834 -0.18633589 -0.04276983 -0.12716566 -0.4319084 0.007962373 -0.3455638 -0.13014874 0.26661485 0.15456478 0.74204636
a 0.017901102 0.24681944 -0.33225426 -0.5646297 -0.37522814 0.08044182 0.2710864 -0.4681328 -0.08677372 -0.16425125 0.15161602 -0.5009726 -0.08986156 -0.45284355 0.15171829 0.2404522 -0.014432432 0.048254326 -0.23266807 0.226463 0.14419775 0.25972578 -0.38974643 0.0008780459 -0.23708306 -0.2698015 -0.18008214 -0.47139648 0.17816775 -0.11809395 -0.032290112 0.17632073 -0.12844689 -0.1386877 -0.14501368 -0.0025712939 -0.27492017 0.0016929305 0.03691525 0.100937285 -0.17844754 -0.04163649 -0.0872321 -0.035719763 0.2650295 0.34588698 -0.25526252 -0.23125525 -0.051153764 -0.14051156 0.085756324 0.070790395 -0.047640428 -0.20588794 0.2478063 -0.006398823 0.13716485 0.037052006 0.34064513 -0.14793134 -0.46208706 0.13884476 -0.18966328 -0.2907133 -0.63502824 -0.23054172 0.1903265 -0.20184936 0.35463405 -0.08671159 0.1561456 -0.25575152 -0.025808565 0.25831825 0.14509875 0.43307272 0.13081224 -0.04659233 -0.068809286 0.106129006 0.1095115 -0.78863597 0.31338343 0.028091349 -0.41618693 -0.2772528 0.07268577 -0.10466501 0.4821866 -0.0067881336 0.005045246 0.014208414 0.11367221 -0.36543855 0.18732464 0.051193275 -0.019690864 0.05615896 -0.21675813 0.45730367
s 0.5191786 0.3395303 -0.051644944 -0.5614056 -0.34800372 0.15624991 -0.119563475 -0.16479154 0.096510924 -0.055200994 0.06786849 -0.10209196 -0.04894917 -0.5122825 0.14821434 0.24806878 0.10346896 -0.054006357 -0.2582414 -0.2223465 -0.12559079 -0.3432539 -0.17050193 -0.31282946 -0.062289383 -0.12013594 -0.15843038 -0.039440885 0.5526995 -0.06918807 -0.16164042 -0.03830966 0.017221821 -0.2442719 0.40001398 -0.4350694 0.01068652 0.22098659 -0.0002082119 0.03673006 -0.20414098 -0.02371111 0.20878573 0.18623129 0.2763175 0.17160608 -0.4815014 -0.007952413 0.10142469 -0.3503316 -0.46538574 0.07703007 -0.18072757 0.12257437 0.08877814 0.04398349 0.2617482 -0.45516822 0.24968305 -0.28579164 0.17865099 0.43720427 0.076754615 0.0036139172 -0.37542894 0.38094166 0.4775365 0.06555348 0.3363278 -0.4083116 -0.08120828 -0.117782414 -0.15006615 0.23904967 -0.035020914 -0.27412394 -0.03419684 0.3535571 0.09643448 -0.17307267 -0.017367069 -0.087659076 0.7716069 -0.050440017 -0.34084287 -0.11631924 -0.43590677 -0.09603811 0.3880517 0.029006764 0.17378779 -0.28813007 -0.23059061 -0.3180434 0.37319332 -0.39900643 -0.118471555 0.11024215 0.4313235 0.21861063
r -0.15264264 0.3688374 -0.13163492 -0.030278813 -0.16070855 -0.030948715 -0.41345552 -0.5361687 0.18390873 0.010234593 0.117889725 -0.4451951 -0.19885853 -0.5353041 0.01989318 0.019302638 0.05231617 -0.25652453 -0.33706778 0.23414117 0.209515 -0.021519639 0.1119564 -0.102185436 -0.518772 0.10243029 -0.02661865 -0.10910397 0.72788614 -0.23825713 0.112587065 0.0691917 -0.42873248 -0.24981529 -0.08444182 0.13815354 0.037009418 0.27568856 0.22600147 0.25412333 0.23574883 0.13747627 0.49247298 -0.13843109 0.2618707 -0.00828269 -0.40285304 0.02074003 -0.059145164 -0.09128942 0.3321826 0.1656996 -0.41756442 0.3806258 -0.060459975 0.26681003 0.17581917 -0.20847005 0.5811174 -0.5017663 0.0015887674 0.1507756 -0.11073151 0.17344727 0.13543034 0.32964224 0.33323467 -0.05256766 -0.12336824 -0.10674951 -0.29632464 0.098309934 -0.2546864 0.24668458 0.23303564 -0.4452214 -0.57822764 0.27891755 0.478039 -0.25355256 0.51831096 -0.21626091 0.60933745 -0.14494044 -0.69554424 0.41194075 0.23654096 -0.22643849 -0.08618713 -0.364302 0.082927845 -0.25742492 -0.057606813 0.24056223 0.3306966 -0.20756319 -0.3517791 0.09108299 0.13544023 -0.25114113
o 0.15870515 -0.26184735 -0.020855928 -0.25701153 -0.32069615 0.2607869 0.1346296 -0.11698587 -0.3012079 0.1282221 0.037674047 -0.55057913 -0.29617652 -0.15516314 -0.023744792 -0.12134736 0.15380737 -0.14272119 -0.40382084 0.08360501 0.5438539 -0.07181328 0.11454314 -0.49951208 -0.17209099 -0.2460611 -0.016481526 -0.36954653 0.57580596 -0.44110322 0.46149653 0.025091635 0.2060838 -0.2912471 -0.32823992 0.31516147 -0.61670226 -0.16599673 -0.2054865 0.46153966 -0.009932639 0.1948179 0.39726713 0.15136226 0.13612929 0.112782136 -0.27471274 -0.047398683 -0.45761395 0.250299 0.28140223 -0.03450551 0.08962801 0.13663349 0.015742995 -0.42479625 -0.18928659 0.23184818 0.068912104 0.5706623 -0.10540333 -0.116987385 -0.42187864 -0.1518372 0.20086569 -0.32374492 -0.00988312 -0.101742946 -0.014441216 0.15635325 -0.015430754 0.17830613 -0.031915937 0.01425439 0.17683066 0.052783553 -0.10377905 -0.77974373 -0.0471298 0.4954356 0.075704694 -0.2915838 0.10161129 -0.35108197 -0.6422101 -0.048894063 0.5866888 -0.41587928 0.48573977 0.058012806 -0.34664077 0.060133126 -0.19509448 -0.27217656 0.030583682 0.0760578 0.23274149 -0.14566746 -0.0034714502 -0.09725548
i 0.3643093 0.25287482 -0.19452697 -1.2275947 -0.5053719 0.08547673 -0.13764301 0.18818219 0.4024055 0.15716988 -0.14355615 -0.15667024 0.2065699 -0.060107816 0.36247623 0.21242653 -0.11782306 -0.011235843 -0.29619586 -0.09570589 0.13904813 0.2840738 0.008061883 -0.26736602 0.10198268 -0.49927133 0.0899352 0.1541267 0.39781505 -0.22508985 0.118582435 0.020766195 -0.31902516 -0.22431207 -0.06437179 0.24570353 0.40765598 0.25599962 -0.16581781 0.49508002 0.15012737 0.17816524 0.23389709 -0.5586372 0.2888822 0.2615166 -0.09130946 -0.31039798 -0.14898013 0.12550892 0.2864553 0.3969121 -0.46412838 -0.31932855 -0.2919864 -0.7654182 0.43305165 0.31531623 -0.024868906 0.21486445 -0.5910152 -0.14497697 -0.14157191 -0.4601888 -0.3848498 -0.21835195 0.16413891 -0.28029972 -0.4110804 0.2210571 -0.12923528 -0.082257956 0.22479944 0.39407554 -0.07539195 0.13405986 0.20248958 -0.40506244 -0.16634876 -0.2083955 0.3561761 -0.049895693 0.16024677 0.16322212 -0.28510743 0.038406014 0.1257455 0.04024053 0.7332415 -0.11393017 -0.5781696 0.110983916 -0.19776428 -0.5962401 0.20408058 -0.1466233 -0.0044898246 -0.2584458 0.27253145 0.11270989
n -0.33318028 0.29914233 -0.20189759 0.10562015 -0.20439383 -0.09924131 -0.24279004 -0.25399953 0.20251621 0.14341664 -0.19064893 -0.15255576 0.0049568005 0.30301523 -0.14769219 0.115141675 0.009775557 0.066505775 -0.22253147 -0.21153192 0.6126727 0.2595555 0.3803039 -0.63674676 -0.25396863 0.43916312 0.00835559 0.042486038 -0.3474582 -0.27436528 -0.20311736 -0.13587746 0.3787325 0.10039188 -0.2870762 -0.036864992 0.1865381 0.58223295 0.31347507 0.6550705 -0.15600686 0.053752027 0.14324582 -0.2825209 0.16283178 0.1895213 -0.05658969 -0.19195546 0.07177588 0.7322749 0.71205896 0.40338984 -0.044916455 -0.05406739 -0.050273255 0.016495762 -0.06172744 -0.14912307 -0.22094361 -0.20487353 -0.3654581 0.35734323 0.25499612 0.11394884 0.04170585 0.0018026802 0.34997448 -0.29886553 0.07478664 -0.30805025 -0.1715811 -0.16102631 -0.14307667 0.025274469 0.09002733 0.10186445 -0.009365891 0.23995885 -0.0129248 -0.07583057 0.23597169 -0.12137677 -0.12279351 0.42400947 -0.36501813 -0.19077511 -0.16713016 0.2201074 0.10117596 0.03271701 -0.07520198 0.009368076 0.13186827 -0.258027 0.431795 0.2921968 0.00994717 -0.15679912 -0.3848091 0.055553507
t 0.1515488 -0.38299978 -0.18415101 -0.36628807 -0.46248066 0.27267584 0.044668086 -0.09191532 0.06108449 0.35196066 0.14621122 0.0728958 0.22013918 -0.23024896 0.22335285 0.22475564 0.30015987 0.13473509 -0.37365562 0.11089379 0.3284277 -0.061381247 0.024799302 -0.47198835 -0.15943934 -0.1763515 0.08445336 0.0691365 0.35071138 -0.28409022 0.14538412 -0.013440468 -0.15599719 0.02500015 -0.17641395 -0.41292697 -0.12181035 -0.28756756 -0.11479934 0.0063976897 0.18179613 0.16160692 0.45125446 0.13514833 -0.12916027 0.06295762 -0.50180864 -0.3426306 -0.14295353 0.110143095 0.25280592 0.29972607 -0.2112961 0.00738333 -0.009213846 -0.03657692 0.5163442 -0.24626465 0.03369443 0.13073413 0.11825881 0.39744955 0.21661694 -0.30977297 -0.22734874 -0.18152173 0.2567969 -0.21732096 0.21287733 -0.20049882 -0.1504442 0.0027476212 -0.3017533 -0.0384984 -0.28267762 -0.08391972 -0.1841026 0.036431752 0.13504094 0.30646497 -0.34552717 -0.19363464 -0.09232009 -0.015743447 -0.023094246 -0.044355206 -0.25220713 0.13420713 -0.13297535 0.2500221 -0.06746976 0.2653892 0.1430895 -0.15805413 -0.0825204 0.12146551 0.03448455 -0.42034644 -0.46826303 -0.19810192
l 0.2986116 0.0730252 -0.22638889 -0.109439135 -0.47943363 0.032050338 0.13136902 -0.45961234 0.007425344 -0.052787874 0.01750585 -0.47317752 0.28720325 -0.34560734 0.99525654 -0.13652854 0.1553598 0.4152459 -0.47780234 -0.204658 0.45475578 -0.0006491889 -0.24988686 -0.32246178 -0.1612467 0.019036582 0.5146643 -0.54640657 0.6785927 -0.33778843 0.3525189 -0.005253489 0.019953957 -0.12241274 -0.678023 -0.21771543 -0.026432412 -0.1078111 -0.11958508 0.852717 -0.16431484 -0.15546449 0.17948368 -0.07883986 0.093756326 0.0014050424 0.010978294 -0.6715016 0.10779921 0.69057024 0.44287276 -0.33758092 -0.14773457 0.55160224 -0.029847292 -0.1584298 -0.03224308 -0.33545873 -0.1370452 0.041656118 -0.2530719 0.12056541 0.23105699 -0.27582413 0.40182453 0.07517289 -0.037398107 -0.5621982 -0.47853547 0.15375088 -0.06958242 -0.11025602 0.08230452 0.3911368 -0.2983541 -0.16788441 0.32186693 -0.007928301 -0.32588318 -0.010126343 0.19889519 -0.3822593 0.59800583 0.20956218 -0.27779853 -0.47512934 -0.18331793 0.26294625 0.040287953 0.32663056 -0.24923839 -0.09390652 0.076847255 -0.2686413 0.23394962 0.23828512 0.21648332 -0.28443936 0.040568206 0.81985813
c 0.30756626 0.011308964 0.24989235 -0.88046026 -0.33627957 -0.068087496 0.09631644 0.072006896 -0.07866311 0.2599745 -0.2718406 -0.09477226 -0.1364029 -0.6098312 0.1890885 0.29635656 0.24846385 -0.21686557 -0.34301808 -0.115292214 0.033763945 0.045183595 0.93985724 -0.14923333 -0.38558495 0.12215609 -0.21382628 0.52269614 0.6449555 0.40884736 -0.36947086 0.15678062 -0.11220775 0.14551386 -0.030657468 -0.2034283 0.0044376026 0.47070608 -0.0019958257 -0.32848546 0.11156255 -0.047969535 -0.023435863 -0.37321085 -0.23257624 -0.19012372 -0.24545792 0.1399162 0.35598502 -0.37498945 -0.3073325 0.56958574 0.21733548 0.0762257 0.5015102 -0.38428175 0.39104787 0.08488476 -0.09801214 0.32843527 -0.28321373 -0.082820095 -0.28948197 -0.0021337147 -0.7580013 -0.35897046 0.35345176 0.24249083 0.31616294 -0.693047 -0.17674956 -0.14502895 0.1889135 0.026388852 -0.17093068 -0.14464517 0.06403929 0.017335944 0.07561236 0.4363643 -0.3432987 0.5533062 0.3881147 0.138829 -0.29811797 0.030740196 -0.11115911 -0.104634345 0.36884716 0.38173312 -0.062126007 -0.28380913 -0.16138951 -0.4068559 0.6116918 0.4971982 0.03364415 0.3890899 0.18303093 0.009920731
p 0.02763165 -0.45031416 0.30851087 -1.6391184 -0.056369867 0.64835405 -0.013302448 -0.7734078 -0.089385495 -0.18923816 0.07130515 -0.7974074 0.23080422 -0.5990299 0.78426206 -0.23639034 0.58951914 0.5065798 -0.69770336 -0.21073541 0.66395 0.35346615 0.21832922 -0.8784582 -0.93611985 0.2437919 0.2642802 -0.0019086377 0.49353698 0.042904153 0.27971032 -0.0833748 -0.038474437 -0.20060304 0.39462227 0.52810186 -0.87326705 -0.3472371 -0.5219165 0.48044515 -0.10628218 -0.16355804 0.20962957 0.291059 0.43348587 0.097100385 0.070752226 -0.41066363 -0.02902906 0.3302076 -0.308825 -0.302606 0.3775101 0.66354775 0.027805937 0.579366 0.3412324 -0.04979195 0.55173934 -0.22950175 0.16115236 0.2025103 -0.027981509 0.6065136 -0.025918247 0.20694117 0.5202832 -0.22187036 -0.09506189 -0.5897701 -0.17050418 -0.29901582 0.25193563 -0.23348504 0.08416228 -0.48998764 0.40322638 0.4351942 -0.14440787 0.3788705 0.5059379 -0.061829846 0.5202628 0.19324838 0.49436733 0.0594221 0.22420596 -0.13250852 -0.0018580301 -0.24782443 -0.08573984 -0.38361022 -0.004862746 0.24194817 0.09169174 -0.07241847 -0.07731872 0.26206347 0.16184933 -0.7968126
d 0.0058707674 -0.7055748 0.30232432 -0.4162385 -0.5320346 0.48320755 0.04283675 -0.61465394 -0.5145826 -0.23246554 0.07462327 -0.27637327 -0.19904277 -0.056040272 0.3409722 0.35053903 0.045506433 0.0061788363 -0.046632994 -0.18958546 0.9112442 0.27534604 -0.25748584 -0.3724792 0.21784312 0.44883126 -0.14723729 -0.30883244 0.104704164 -0.54702705 -0.42901224 0.28649768 0.41895768 -0.2017074 -0.33507907 -0.11023901 -0.8253238 0.25811642 -0.7652902 0.08500277 -0.062144466 -0.013908808 0.31864527 0.51885813 0.5840379 -0.1029928 -0.12857506 -0.15685678 -0.50411314 -0.009699084 -0.28582188 0.33376142 0.108705215 0.008469238 0.14539851 -0.17631727 -0.22718023 -0.12411207 0.6478992 -0.37753016 -0.3576173 -0.13656862 0.28298426 -0.035119038 -0.39460936 0.009517657 0.016520351 0.19347781 0.20292723 -0.52746767 -0.37324947 -0.37049887 -0.02752491 0.16565698 0.0609623 -0.2767914 -0.27181095 0.13465668 -0.06568754 0.18916585 0.024849785 -0.31463397 0.42838612 0.117618024 0.053370833 0.09819153 0.0072104097 0.47930944 -0.04830882 0.15399152 0.59666836 -0.28619668 -0.1719626 0.027153872 -0.1826901 -0.39368403 0.2268502 0.21451557 -0.6000944 0.45170707
u -0.76550907 0.3121835 0.25105974 0.09381681 -0.31545174 -0.1445763 -0.4467964 -0.07265305 0.20869395 0.44088897 0.16426815 0.2770456 -0.68360865 -0.12127762 -0.6222215 -0.20299004 -0.24819492 -0.38200963 0.30352676 0.5402497 -0.07547692 0.21413839 -0.059672795 -0.8302827 -0.2158939 -0.24967626 -0.36300626 0.3046254 0.19780834 0.01563392 -0.06993658 -0.20514956 -0.31438595 -0.5550979 -0.17403792 -0.48872116 -0.08160882 -0.25310865 -0.23399244 0.6050065 0.20295031 -0.27208525 0.37396225 -0.09630684 0.2552958 0.43250585 -0.6098211 0.20746271 -0.4485638 0.38549364 0.23703055 -0.21389487 0.045861937 0.11164597 -0.4597603 -0.011408199 0.58477247 0.0527448 0.30661216 -0.16782676 -0.41572595 0.6940925 0.15671882 -0.023888694 -0.14790544 0.10721784 0.6533547 0.12717515 0.51331156 0.6541715 0.36181685 0.22774443 -0.71194905 -0.05425584 -0.037239213 0.038459707 0.39350453 0.13424493 -0.22305417 0.27138484 0.06241185 -0.61876464 0.2263856 0.27362126 0.011224169 -0.5275035 0.22345397 -0.35061845 0.6596848 -0.41687647 0.12537304 0.11276396 0.30475315 -0.3473873 -0.29171476 0.29544523 0.47667116 0.24205887 0.09788729 -0.3066061
g 0.41435695 -0.22594456 -0.024165252 -0.90345746 -0.5932311 0.19823368 -0.35386956 -0.31087336 0.06472016 0.13368073 -0.07263319 -0.3641518 0.29280648 0.26960036 0.65040046 0.15946051 0.31160223 0.39504334 -0.12514375 -0.66249275 0.5579523 -0.22394568 0.15978017 -0.8701017 0.34072638 -0.032461125 0.7726939 0.40707642 -0.40571257 -0.21400872 0.39085975 0.10553265 0.41625726 0.009572128 -0.50297225 0.061983053 -0.23720454 0.13931793 -0.09502795 0.09965595 0.54055065 -0.29216534 -0.33506453 -0.2884461 0.3334792 -0.15758952 0.08696606 -0.6237994 -0.32877436 0.20180868 0.41177127 0.72852844 0.005621814 0.022462001 0.046426255 -0.4212163 0.03083946 -0.2367835 0.2304978 -0.23995674 -0.33241913 -0.5733343 0.07652248 -0.5587442 -0.09785378 -0.20744742 -0.22020209 -0.33399805 -0.15835704 0.014030083 -0.2739037 0.27158952 -0.07274923 0.6291933 -0.46895218 -0.057646096 -0.056204453 -0.6617217 -0.030041305 0.029575514 -0.19869101 -0.2936789 -0.0007005614 -0.051439557 -0.21082942 0.024900662 0.32775003 0.5791533 0.5307727 0.124863274 -0.26332605 0.12015111 -0.65633065 -0.097664334 0.032423418 0.03790712 0.011611974 0.0021681117 -0.15168531 0.86145824
h 0.16158867 0.57228434 0.33211103 0.68200576 -0.85265976 0.058106057 0.32739818 -1.0332998 -0.6312633 -0.49425605 0.25112018 0.20576796 -0.27345073 -0.43826154 -0.30769783 0.18257906 0.3487739 -0.7131805 0.46274698 0.11723681 0.07444612 -0.36877853 -0.48037907 0.3900105 -0.183061 0.10659312 -0.16748478 -0.19879746 0.8800966 -0.5989731 -1.0201164 -0.6605217 -0.2393559 -0.1534508 0.12434493 -0.01744195 -0.481421 0.259912 -0.6271712 0.07876374 -0.27734363 0.41291064 0.5168785 0.67454064 -0.16134414 0.6919217 -0.1977205 0.27151626 -0.14134908 -0.33735862 -0.1814459 -0.046734042 0.036430866 0.18539707 0.89957273 -0.19925007 -0.348006 -0.05177391 0.61539966 -0.38277808 -0.1548042 -0.056341242 0.15863407 0.32344288 -0.5271581 0.11026962 0.3835014 -0.37947813 0.48442167 -0.12054639 0.21642631 0.04165844 -0.39928365 -0.16384587 -0.69335514 0.04364604 0.18751965 -0.079322465 0.5667076 0.29842293 -0.19110171 -0.5127897 0.28394344 -0.28470755 -0.5998186 -0.27634263 -0.04973914 -0.10785726 0.56655145 0.23214722 -0.0008829953 -0.6772359 -0.2369494 -0.24760617 0.7373478 -0.19299556 0.3812502 -0.08977499 -0.3461701 -0.23746368
b 0.23392244 -0.30281222 0.33691746 -0.6604852 -0.45210344 0.35138762 0.16351216 -0.44563466 0.16563277 -0.24201894 0.44046742 -0.5422973 -0.24389628 -0.11465079 0.25649115 0.11795041 -0.42830253 0.4285903 0.2792793 -0.66567594 -0.03201325 -0.5230299 -0.2903284 -1.5464245 0.098519064 -0.053876292 0.4726808 0.0825848 -0.038012736 0.3815604 0.31104797 -0.37312403 0.08074201 -0.5479774 0.6487157 -0.02278359 -0.20474757 0.083415665 0.1285526 0.07652889 -0.35219088 0.024232984 0.022521496 0.43509302 0.555964 0.56567276 -0.22977595 -0.074500576 0.12253977 -0.3984232 -0.082777314 -0.02364331 -0.18559751 0.44393784 0.31556955 -0.35010988 0.069939286 -0.18208618 0.11870793 -0.19727808 -0.07989937 -0.12722878 -0.11825732 -0.18192734 0.037118297 0.29950076 0.1151009 0.1350317 -0.1822353 0.04969041 -0.54852694 0.3541958 -0.2718396 0.011013291 0.8452769 -0.13865659 -0.015482753 -0.07023771 -0.70381325 0.2356674 0.15683204 -0.47658092 0.31516528 -0.016525075 -0.18593083 -0.2835934 0.18035382 -0.20181727 0.017882729 0.4043384 0.8011989 0.277842 -0.3299454 0.63350075 0.054648694 -0.10262597 -0.14204133 0.30309758 -0.103650995 0.18807676
m 0.06870305 0.30887172 -0.5104179 -0.07086782 0.036241032 -0.036185313 -0.056091703 -0.24588272 -0.01976456 -0.1811348 0.022776399 -0.58198804 0.0102293575 -0.4822085 0.59634936 0.38104844 0.7017117 0.55691725 -0.10281384 -0.091680944 0.27633062 -0.33770958 0.7343139 -0.45316267 -0.34514138 -0.06322657 0.040105388 -0.056922223 0.22149913 0.24357583 -0.9121353 -0.039893918 0.2175002 -0.19102648 -0.28133172 0.25789228 -0.21079496 1.3250879 0.8902225 0.22974685 -0.2375853 0.17971966 -0.5959051 -0.87606245 -0.0063758944 0.3322945 -0.37512842 -0.15492484 0.099227525 -0.05958286 0.39789376 0.44721663 0.099644184 -0.4063012 0.8135998 -0.04175738 -0.45442873 -0.11208366 -0.32097554 -0.008213214 -0.3473527 -0.23066287 -1.2050033 -0.30134484 -0.31211835 -0.6388518 0.53773004 -0.21727249 0.36856645 -0.7559763 -0.01276528 -0.22006625 -0.08826634 0.35560775 0.25346822 0.5933818 0.035288405 0.4835579 0.27977067 0.16265595 0.0842419 -0.11106474 -0.39672711 0.019453363 -0.42689967 -0.4669237 -0.16435196 -0.4852279 0.3713112 0.2639539 -0.4003571 -0.48365337 -0.029501138 -0.39831805 0.024487974 0.33239332 -0.28948915 -0.20865183 0.07542257 0.14565264
k 0.1766171 -0.08219943 -0.44683194 1.2732755 0.14646618 0.34369555 0.15964204 0.3043111 -0.04437978 0.20960838 0.17481865 -0.8198701 -0.063596115 -0.22011869 -0.1894547 -0.39763993 0.65164375 -0.082256414 -0.4964883 0.43974137 -0.24207096 -0.13760597 0.515896 -0.13768439 -0.387209 -0.4185021 0.2703838 0.111703224 0.50650555 -0.35031453 0.73380136 -0.14081329 0.06076219 0.053046923 0.17473961 0.91116154 -0.1544599 -0.23506159 -0.507196 -0.104814455 -0.013324825 0.566492 0.86360234 0.107898675 0.06450327 -0.0141574275 -0.1958583 -0.10473547 -0.0706229 0.1051072 -0.39339188 -0.21530373 0.074107006 0.32709676 -0.1632961 0.4939773 -0.057933956 0.044447012 0.21636127 -0.15146436 -0.011033231 -0.17048602 -0.028209059 0.21529143 0.6421423 -0.4460557 0.04104898 0.37522176 0.016918808 -0.43757486 -0.48400703 -0.029526573 -0.24338922 -0.46168935 0.28038815 -0.5449913 -0.13718392 -0.28411436 -0.22760925 1.0705162 0.12164258 -0.47295925 -0.46163785 0.35849568 0.3943539 -0.39671892 0.026776798 -0.51303136 -0.060674004 0.28458047 0.03725037 0.4360715 -0.16758128 0.30662605 -0.20011711 -0.4665621 0.23340964 0.08074025 0.24011138 0.10516097
w 0.6332918 -0.64041966 0.28977472 -0.9266746 -0.029227234 0.6070687 -0.84803194 0.4378776 0.024757894 -0.058871437 -0.13856281 -0.3701329 0.34288916 0.19543244 -0.27185988 -0.18551756 0.017235637 -0.339419 -0.31032187 -0.59700286 0.42691183 -0.58989984 0.7371635 -1.160597 -0.08975944 -0.19191119 0.38636267 0.41108924 -0.15697975 -0.18828607 0.4713374 0.28292626 0.64348716 -0.5847965 0.23797426 -0.5268792 -0.4973818 0.210749 -0.0149450395 0.13344763 0.1901282 -0.10876294 -0.28693563 -0.18545671 0.57132345 -0.106456704 -0.52632266 -0.1509124 -0.16545211 0.15768354 -0.54721195 0.39275894 0.28767097 -0.49400142 0.16340102 0.42883316 0.10859262 -0.34336358 -0.14108257 -0.24439728 0.12431641 -0.13448308 -0.2316504 -0.19219716 0.34830263 0.5604859 0.6857722 0.39689538 -0.019444192 -0.44457185 -0.5617444 0.24690726 0.27485538 -0.27444068 -0.020657284 -0.40070757 -0.38197935 -0.27143583 -0.32069728 0.10871797 -0.010553854 0.37456495 0.0685259 -0.39124027 0.09397829 0.16052397 0.12583517 -0.4568009 0.07426043 0.5217064 0.22782381 0.51163226 -0.48966765 0.045741685 -0.33405775 -0.5516906 -0.20949258 -0.035164066 0.06137957 -0.34330624
f 0.23103946 -0.5339622 -0.47942567 -0.24122117 0.34683758 0.13974202 0.011118509 0.5078371 0.20848994 0.508919 -0.7460627 -0.4446083 -0.09335308 0.65751684 -0.0050756456 0.2971757 0.905051 1.3631424 -0.27748495 -0.06381003 -0.27383876 -0.42517206 -0.1530538 -0.5811227 0.13009082 -0.18119814 0.648276 -0.19164492 -0.008722555 0.5598074 0.7608844 -0.14618875 0.014074155 -0.30322042 -0.09739843 0.26752368 -0.23981337 -0.3402235 0.49926323 -0.5984329 -0.19255508 0.3413561 0.08408674 0.19682352 -0.24001965 -0.06468099 0.3999475 0.21035631 -0.3710384 -0.024350995 0.10692551 0.3011246 0.4414414 0.445996 0.39264137 0.9659607 -0.13274302 -0.084114745 0.23110838 -0.23440985 0.1556223 0.009683021 -0.7843931 -0.13334852 0.15219665 -0.8250906 -0.08888758 -0.59019226 0.09921252 -0.07381753 0.2279695 0.3783662 -0.3111699 0.08995257 0.5619878 0.07644187 -0.37811506 0.13437146 -0.04849862 0.9136738 0.008369911 0.04258936 -0.90205705 0.47969246 0.014100876 -0.4619271 -0.47190246 -0.26629174 -0.57882124 0.28749147 0.9314138 0.9071075 -0.15512305 0.9040057 0.42064053 -0.1812691 -0.3851772 0.9938719 -0.03313241 0.17792323
v 0.66347164 -0.2627334 -0.37912652 -0.2595345 0.31174526 0.82795846 -0.6094612 0.34057838 0.4019611 -0.8539936 -1.0769786 -0.6472282 0.5100072 1.0651405 -1.3614739 -0.09657979 -0.3594342 -0.07580699 -0.36278537 -0.994835 -0.05698595 0.87595725 0.573726 -0.38848704 -0.32136062 -0.5767668 0.48051777 0.69254184 -0.15681276 0.7022146 0.13059293 -0.24860108 0.4264123 0.49984366 -0.12840578 0.6843347 0.19470225 0.54139614 -0.1828103 0.21722822 -0.20451282 0.59554356 -0.38992512 -0.5352302 0.7202995 0.59786373 0.57071465 -0.4860999 1.0294178 0.55121785 -1.1229182 0.032822464 0.20703402 0.2843817 0.16644414 1.7058064 0.5734364 0.5987093 0.4141641 -0.6417117 -1.0299078 -0.03518802 -0.26320124 -0.88628894 0.21661814 -0.19709396 1.3156785 -0.44162568 -0.73492086 0.068303764 -0.36796767 0.8696595 -0.19670019 -0.36836663 -0.878945 -1.1535813 0.025976669 0.3872063 -0.37107372 -0.6222414 0.04055443 0.16964506 0.732181 0.021963095 0.23094118 0.6905426 0.66377604 0.30371267 0.26565665 0.108267516 -0.48927024 0.594509 -0.8379048 0.70126826 -0.21613911 0.06000191 -0.65414774 0.8417056 -0.8598271 -0.29469
y 0.05024861 -0.15887794 0.34053677 -0.36366832 -0.10562383 -0.33194706 0.3010407 0.3230554 0.19836077 0.46638843 -0.12427864 -0.3617807 0.037005987 -0.29182047 0.6177478 -0.2530085 0.2348888 0.13814354 -0.2351307 0.19039744 -0.38173878 0.23851426 0.099731915 -0.12847595 -0.31543413 -0.15326169 0.08024732 -0.12162104 0.18530233 -0.2766964 0.70575917 -0.034718726 -0.23683898 0.18146433 0.0004885962 -0.015808463 -0.055025343 -0.5603657 0.14369264 0.17436881 -0.27645212 -0.47744924 0.20123528 -0.31521973 -0.028102113 0.19476156 -0.16876897 -0.28319138 0.07926224 0.40403682 0.47151953 -0.3354951 -0.067321025 -0.16847424 -0.025204536 -0.049464945 0.3222829 0.27486753 -0.31594604 0.03670241 0.30611032 0.43703803 0.19457641 0.30374736 -0.33412227 -0.0022411277 -0.2971621 -0.29830062 0.1889795 -0.029381568 -0.2830522 -0.43929437 0.10775911 -0.09900216 -0.021543909 0.17161705 0.2902272 -0.21604839 -0.11389607 0.65322614 0.08965603 0.023367165 -0.45076588 0.60867125 0.08617278 -0.018374622 -0.114773996 -0.39006367 0.5022317 -0.42686102 -0.39035678 0.17094798 -0.10464883 -0.09081866 0.553318 -0.32474983 0.28101715 -0.176786 0.12178801 -0.122251295
z 0.36161453 2.2350523 -0.83304214 0.9131602 0.6124085 0.53735125 1.1583675 0.41963518 -0.25759083 -0.49580646 0.28020886 -0.35752168 -0.5044481 -0.12707019 0.06471772 0.77446723 1.1774462 0.4990149 -1.4756812 -0.3614151 -0.07099004 -0.14936498 0.76125044 -0.018389236 -0.45926675 -0.30005702 -0.5511641 0.007022861 0.313257 0.42484084 -0.2150213 -0.31837907 0.627593 0.37149134 0.7004121 0.8061557 0.43309516 1.0072695 -0.43293452 0.9514625 -0.3269312 0.49284014 0.3255018 0.16657886 0.59636515 -0.0823951 0.2295058 0.007966998 1.4635533 -0.71379787 -1.859287 -0.084756054 0.4061426 1.2820147 -0.7988874 0.4170269 -0.30123404 -0.18568291 0.48518175 -0.13940299 -0.9663389 0.898396 1.1129647 0.22434042 -0.61024284 -0.8012664 0.71089774 1.5067844 0.55589974 -0.56222767 0.16710041 -0.6961643 0.09677726 -0.40389875 0.033168215 0.22716512 1.6618258 0.16887745 0.015338396 -0.035230994 -0.36142075 0.17456596 0.71776474 0.18355122 0.1902353 -0.64761674 -0.06482196 0.73918915 1.364737 -0.40013042 -0.49177805 -0.86497456 0.29780307 -0.83468294 0.10863776 0.3243158 -0.059245273 -0.7362095 1.2526568 -0.5944178
j 0.3237578 -0.050605815 0.4384727 0.4217259 0.98528016 0.20284607 -0.9307123 0.10406865 0.13888186 0.6944579 -1.5967997 -0.8580725 -0.5346883 0.6441406 -0.32611936 0.07011222 0.6014237 0.11185473 -0.75270325 -0.6862605 0.98545414 -0.4383475 0.62088454 0.22713579 0.093547285 0.14231256 -0.38307974 -0.79597884 0.69658303 -0.9070319 1.2115474 0.44800895 1.0302167 0.79931384 -0.6543209 0.8858019 -1.4999377 -0.32023758 0.33695 0.51088196 -0.3542259 -0.11975572 0.51833266 0.6326049 0.07122832 -0.63620156 -0.46620858 -0.48993495 0.16206571 0.88793504 1.5877563 0.85583526 0.45382634 0.9420826 -0.14481255 0.918595 -0.58360106 0.47888812 1.3979087 -0.508424 0.30011898 0.27650204 0.031191867 0.327909 0.027345577 0.29529345 -0.04813555 0.5150408 0.2376287 -0.24314849 -0.20907095 0.1090748 -0.07577155 0.7417032 -0.8339487 0.36308962 -0.5215485 -1.2872579 1.2606062 0.9113992 -0.24933009 1.079015 0.07106226 -1.6351664 -1.7921897 0.9190606 1.3327789 0.11937989 1.041257 -0.8535881 -0.55120206 -1.1739691 -0.61578023 -0.4067694 0.375416 0.43977386 -0.4712263 -0.99529815 -0.22764505 -0.7268057
x 1.0098298 -0.61449224 1.3931565 0.5021913 -0.10283058 0.39334127 0.1956707 0.44585744 -0.45172632 -0.2728484 -0.09951281 0.31163877 -0.5521742 0.9650462 -0.08323096 -0.066466175 -0.5225361 0.18037805 0.6491504 -1.3715388 0.08119426 -0.8352259 -0.6122787 -0.75665563 1.4193026 -0.061112512 -0.21630928 -0.76974165 0.23532057 -0.5016025 0.27129203 -0.5535293 0.8087613 -0.114368565 -0.20830534 -1.1165401 -0.96090704 -0.060934905 0.1629679 0.6238725 -0.7545846 -0.41148052 -0.2402484 0.5774827 0.07201746 0.24508974 -0.49690536 0.45524377 -0.23147964 0.35038945 0.3318042 -0.3753655 -0.024285812 0.19280256 0.04930321 -1.227031 -0.90370715 0.5768472 -0.6878253 1.1631728 1.1616204 0.0736767 0.05494579 -0.6701866 0.29537755 0.34762615 -0.6019397 -0.33948407 0.123394854 0.72610813 -0.40081272 0.83708584 -0.65780425 -0.3534926 -0.33500522 -0.58322847 0.26950645 -1.0418466 -0.09082615 0.31908694 -1.0722244 0.101258606 0.23676828 -1.1138285 -1.3506299 0.17371836 0.9030131 -0.088698596 1.346466 -0.32876417 -0.7041476 1.8464034e-06 -1.4401417 -0.21515293 0.009208896 -0.5027782 0.58071935 -0.47593242 -1.025988 1.3820484
C 0.38360038 0.6458772 -0.20728938 0.06975159 0.50054204 -0.51826185 -0.25878555 0.67173094 -0.13648362 0.6706407 -0.46086508 0.15622525 0.47844726 -0.32315448 0.81249076 -0.0230586 -0.016702821 -0.47874683 0.12939589 -0.15312855 -0.28211403 0.12894575 0.80662894 -0.15726021 0.13874261 0.16270526 -1.3499879 0.18093339 -0.10394031 0.061038986 -1.4965558 0.36505756 -0.06261895 -0.22073531 0.52913326 -0.29335362 1.1951524 0.70615566 0.4022831 -1.095392 -0.14865515 -0.22979304 -0.70349383 -0.52927876 0.48792323 -0.3827463 0.21849976 0.6630274 0.024626236 -0.7631299 -0.6540791 -0.026998036 -0.7272738 -1.4200591 0.23653291 0.47076672 -0.48076075 -0.3720459 0.08101983 0.11794922 -0.21084747 -0.07883631 -0.6436539 -0.9223547 -0.8571753 0.29539135 -0.5018462 0.31381506 0.5967256 -0.5911432 -0.76215136 -1.0769871 -0.012462231 -0.68528813 -0.60173124 -0.088556506 0.6035741 2.146984 0.32652488 -0.1708502 0.11699101 0.22859332 -0.22975479 1.5687045 1.4065557 0.4461691 -1.5114263 -0.3655801 -0.060444947 -0.13429947 0.8808464 -1.0079302 -0.07015072 0.39699373 -0.16950697 -1.4897587 0.42489436 -0.28725666 1.3780032 -1.8301827
q 0.2845355 0.75850445 -0.8449053 0.64093935 -0.62765795 0.34109694 0.96931136 0.07756052 -0.25719514 -0.5125465 1.2762071 0.16442533 0.21960205 -0.08969594 0.64405286 1.2470092 0.6295498 0.29138562 -0.77270514 -0.50508076 0.23152487 -1.372929 0.61224633 -0.767708 0.03274721 -0.09427328 1.1004568 0.8947046 -0.8816031 0.34657463 0.45302212 0.015198173 0.28667232 -0.039232966 0.195137 -0.43545213 0.67770016 0.92988116 0.291197 -0.09061909 1.0748816 0.3220414 -0.3153656 -0.31539392 0.25782803 -0.39325362 -0.10621634 -0.59535784 0.8888208 -1.4872724 -0.684154 1.4519383 0.010265946 0.51943123 0.24514952 -0.21591654 0.12578286 -1.1703665 0.017699853 -0.84366405 -0.77877986 -0.13077864 1.203118 -0.41485828 -0.43963692 -0.6707248 0.08740701 1.2578421 -0.012773303 -0.36210406 -0.76378524 0.17319386 0.04891168 0.06474109 0.50083095 0.82389843 -0.2724102 -0.9172894 -0.014243525 -0.015964445 -0.94018346 -0.07932865 -0.79057115 -0.14300875 0.29742685 -0.36660275 -0.2150395 0.9511556 -0.5548121 1.2143378 0.87652946 1.0356144 0.48492953 0.5089007 -0.06512316 0.49077472 -0.64277756 -1.0820396 0.05481608 -0.43053535
P 0.38342658 -0.14093469 0.19976173 1.0143019 0.52878267 0.15895262 1.1083492 0.82696813 -0.48960236 0.26378047 -0.18238477 -0.06471889 -0.26682004 0.17714259 1.0838377 0.6790349 0.16385671 0.42449766 -0.19465199 -0.3754052 -0.039267514 0.3168918 -0.18888381 -0.10750855 0.71683043 -0.1848885 -1.3029609 -0.882784 0.13516788 -0.47297695 -0.51466775 0.21510346 0.35095692 0.48714972 0.11055584 -0.23426233 -0.09661926 -0.013990407 -0.20399785 -0.26665145 -0.88393193 -0.17246509 0.1930131 0.5125336 0.78449696 0.050847996 -0.22303663 -0.04074631 0.53309643 -0.64944786 -0.5723113 -0.3868235 -0.5791029 -0.25397283 -0.17091615 0.36516812 -0.45953608 0.34945136 0.6225326 -0.09802828 -0.18125689 0.97740656 0.7655965 -0.91969466 -1.4772532 -0.27379495 -0.75077343 0.8097466 0.74069726 -0.015031316 -0.90782464 -1.0573934 -0.43431094 -0.45118308 -0.53587776 0.32490954 0.6499512 0.80783147 0.37836164 0.31925863 -0.8460588 0.2309436 -0.32616803 0.586436 0.88477594 0.780284 -0.43980992 0.58777577 0.6199726 -0.8528855 0.32270056 -0.8439115 -0.10256994 0.35341322 -0.69182855 -1.1961563 0.40416345 -1.3082215 -0.294583 -1.3450359
S -0.005948164 0.47044882 0.02900117 0.77237606 0.44087535 -0.64004004 0.2815129 -0.14516728 -0.40267903 0.15221922 0.07029396 1.1220932 0.1840887 -0.3227357 0.022302859 0.07106238 -0.22128488 -0.7193678 0.2717084 0.32817683 -0.120302595 0.07991541 -0.6228369 1.9573181 0.46369663 0.36537218 -1.0267372 -0.4920939 -0.091993734 -0.51570475 -0.71453875 0.33657932 -0.19458924 0.6358005 -0.062381595 -0.46328706 0.4126399 -0.30364624 0.349609 -0.58586 0.47267908 -0.46959466 -0.40398818 0.19246456 -0.6861794 -0.9497642 0.16046357 0.19844282 -0.12983803 -0.40272397 0.459646 0.09468278 -0.6445349 -0.36928946 -0.51336646 -1.0689852 -0.3512188 -0.34346786 -0.2840123 1.1524051 1.1066283 0.1765741 0.24878111 0.19184394 -0.5726154 0.2347185 -1.1575247 -0.014374028 0.56044084 -0.49974307 -0.07885072 -0.92699516 0.31304407 -0.50030583 -0.6511005 0.41767037 0.49130392 0.69815433 0.79602414 -0.058170386 -0.49116224 0.46855262 -0.17544407 0.053517465 0.6304922 0.5188985 -0.8160838 0.37528843 -0.380131 -0.2752528 -0.16624776 -1.3320591 0.4294121 -0.4022311 -0.06835089 -0.18319379 0.3408977 -1.0792459 0.6801583 -1.3383807
I 0.009392097 0.33202758 -0.028240874 0.6668533 0.8856349 0.43572223 0.22010006 -0.015631385 -0.27218407 -1.2215495 0.5310648 0.25767565 -0.1990111 0.73132527 -0.84426475 0.17227636 0.07313245 0.5797468 0.23898792 -0.4896381 -0.24388693 -0.2216685 -0.49102667 0.48063582 0.42692715 0.012743238 0.054000214 -0.346428 -0.96579957 0.6273006 -0.16761142 -0.25391534 0.44947666 0.10313854 0.02979973 -0.32952896 -0.5111434 0.6356271 0.9655577 0.35226685 0.088943146 -0.31395838 -1.3282237 -0.3153092 0.028259223 -0.10021767 0.14000703 0.37058663 0.22471246 -0.18200293 -0.54346544 -0.28579566 0.22568738 0.280885 -0.3960492 -0.20946473 -0.61470217 0.075043134 -0.68074197 0.64227974 1.0528258 0.07424026 -0.37569308 -0.030178087 0.30553535 -0.31668925 0.026701756 -0.32054892 0.31704575 -0.18374659 0.20377736 0.42173794 -0.28904822 -0.6011268 0.4895183 -0.29386243 0.52317125 0.33663923 0.11300901 -0.54142463 -0.51358247 -0.30663085 0.07193091 -0.7471964 -0.0665602 0.0064165792 0.6182164 0.24443658 0.22950126 -0.6247703 -0.73030674 -0.005972856 -0.36848634 0.24822037 -0.59874886 0.09712823 -0.4826224 0.04661498 -0.5616913 0.6263974
W 0.49884108 -0.28018194 0.34098384 0.58686244 0.091381595 -0.025157783 -0.2940257 0.029751964 -0.40958214 -0.16104203 -0.25581846 -0.06238572 0.7123059 -0.17949164 0.64139056 -0.15007062 0.03636515 -0.65288097 0.39043292 -0.57329994 0.3691458 -0.8856216 0.8288217 -0.30040753 0.03721131 -0.27661327 0.41328534 0.32485497 -0.14790042 -0.34843963 -0.31183818 0.34627694 0.5670003 -0.16812289 -0.069393426 -0.23961319 -0.28267893 0.07529843 -0.403416 -0.11347883 0.13082118 -0.37360913 -0.86853665 -0.15034376 0.29151505 -0.20379587 -0.05566178 -0.9982715 0.562907 -0.08101011 -0.14936318 0.3609089 0.35626948 -0.6270503 1.003612 0.50673026 -0.36437476 -0.43373254 0.3160341 -0.6414934 -0.9696423 -0.6145511 0.26896387 -0.6238852 -0.3220494 0.55763155 0.035622224 1.0833099 -0.015441943 -0.23991728 -0.8147398 -0.5429728 0.7559357 -0.38855973 -1.4302859 1.1085802 0.72209734 -0.25384432 -0.37440568 0.81766367 -0.46255058 0.6926298 -0.8024123 -0.2010218 1.3987663 -0.17832567 -0.2999966 -0.0127623 -0.11036876 1.4362026 0.6134521 -0.64751077 0.2508523 0.029702159 -0.9003244 0.067974724 0.3518691 -1.643113 0.42373696 -1.8640774
® -0.25808683 1.1086069 0.24309365 1.2597554 0.47923762 -1.1255305 0.38211903 -0.5885805 -0.65771574 -0.16514322 0.08407871 1.6163824 -0.16697894 -0.2218193 -0.74916065 0.08139521 -0.6233789 -1.3731989 0.8949206 0.5604275 -0.5026326 0.15931417 -1.2560589 3.279961 0.78569615 0.48929122 -1.2594991 -0.5758635 -0.4221382 -0.4437775 -1.0216364 0.305299 -0.38670936 0.8652222 -0.17940894 -0.36893627 0.408744 -0.35177213 0.47509181 -0.9315674 0.8039308 -0.72343516 -0.90522295 0.27164257 -1.0879018 -1.115143 0.53797454 0.5970355 -0.29897943 -0.76796067 0.6693474 0.21171127 -0.59002554 -0.3479599 -0.45156252 -1.8052481 -0.62956506 -0.13580191 -0.18080056 1.4617155 1.2746238 -0.22985168 0.16746387 0.5485928 -0.8938796 0.2314878 -1.6599872 -0.17726646 0.8401643 -0.27186546 0.43099838 -0.84488916 0.41521856 -0.43495163 -0.81820226 0.7894475 0.6992681 0.2958041 1.1341021 -0.13821363 -0.6582752 0.3037537 -0.07651086 -0.28346467 0.23812807 0.5290392 -0.53786135 0.5146127 -0.053934515 -0.4892526 -0.2953711 -1.8092115 0.3571431 -0.6471701 0.35772657 0.1659686 0.4772577 -0.84432286 0.7974068 -1.1272614
" -0.10230941 -0.16245133 0.1428333 0.5632939 0.24959753 -0.47528479 -0.12305398 -0.4244476 -0.20357993 0.033485692 -0.25224742 0.64088684 0.32156226 -0.0012831647 -0.40824723 -0.25860587 -0.46289346 -0.5407939 0.8325988 0.31573 -0.22043246 -0.016674314 -0.7323638 1.2742444 0.30633852 0.17012167 -0.26544794 -0.39349052 0.035843052 -0.16573252 -0.5759153 0.020428995 -0.47912198 0.025991289 0.044146817 -0.109249815 0.19999734 -0.52796745 0.13241671 -0.7629527 0.122924246 -0.03207611 -0.40259796 0.34533527 -0.72502875 -0.3659307 0.4398042 0.26477322 -0.38375643 -0.07839445 0.65872383 -0.07492586 -0.37446174 -0.3908604 0.2911841 -0.50685096 -0.37272298 -0.068049416 -0.14189151 0.75108814 0.55612415 -0.47610775 -0.4458354 0.064698376 0.0025087395 0.32803062 -0.8100575 -0.52399206 -0.039397582 -0.11126924 0.052831735 -0.3565661 0.29566106 -0.58167446 -0.44153324 0.3332036 0.27782202 0.6400703 0.14890864 0.43013364 0.035567723 0.13083114 -0.5123371 0.18111049 0.71892625 -0.02513993 -0.72062945 -0.1678741 -0.9687769 0.5284869 0.58104384 -0.5880296 0.36261743 0.31229797 0.006480116 -0.07676289 0.33472446 -0.26506627 0.21355824 -1.122027
: -0.5893466 0.62719303 0.14533648 0.4082514 0.39366773 -0.29095963 -0.5408414 -0.73633105 -0.42542344 -0.35920283 0.3642269 0.33033806 0.2330598 0.08968202 -0.47084224 -0.46487504 0.2502552 -0.7674343 0.5420899 0.4418281 0.05385588 -0.035754234 -0.43661 1.1479758 -0.039036557 0.40480104 -0.012243286 0.061527364 -1.1231694 -0.5190687 -0.24282725 0.20607197 0.040949874 -0.08510028 0.113471694 0.20687935 -0.3809291 -0.2813055 -0.093590185 -0.3032153 0.8454322 -0.7069504 -0.8920323 -0.060499087 0.00589028 -0.5456675 0.46113914 0.15751596 -0.7840031 -0.029963706 0.119724534 0.051308 0.27192888 -0.5458354 -0.25252458 0.0071019544 -0.55499595 -0.37764713 0.36298707 -0.34199953 0.5719076 -0.55343294 0.17515634 0.8145384 0.036406387 0.48982143 -0.5697574 -0.13167568 0.5289714 -0.31006122 0.28457752 -0.47613776 0.33773085 -0.35845983 -0.41553962 0.3269429 0.46912315 0.1456665 0.46841794 -0.023365058 0.23930596 -0.5224939 -0.49469748 0.050528057 0.8932119 -0.00079724443 0.02248627 0.10713005 -0.015677497 -0.50805426 -0.005393817 -0.6288031 0.089903094 0.0438599 -0.20153409 -0.5322512 0.23326266 -0.14610587 0.5211214 -0.6795543
M -0.21905383 0.64151317 -0.11562547 1.1620712 0.64801747 -0.6690421 0.16902073 -0.25815594 -0.23265769 -0.44049665 -0.12862962 0.4474373 0.19080192 -0.07307519 -0.92841 -0.09299773 -0.6894847 -1.1799309 0.6599253 0.37802687 -0.49719974 0.70288604 -0.20226131 2.3628225 0.17545156 0.060218044 -0.8762871 -0.12440304 -0.61501545 -0.075048424 -0.9382108 0.31390414 -0.192226 0.9470723 -0.060856193 0.50104505 0.47801852 0.29713103 0.5352415 -0.80037683 0.3014305 -0.21741027 -1.0009362 -0.5279593 -0.5075719 -0.4089703 0.4550487 0.139803 0.2876444 -0.3586017 0.39402995 0.1936439 -0.5112638 -0.82011014 -0.06191423 -0.8985021 -0.37079042 0.4360638 -0.37233427 0.9530078 0.2620521 -0.5536204 -0.37778524 0.054619387 -0.66644466 -0.14706723 -0.8712687 -0.05766732 0.33348778 -0.5723383 -0.13491659 -0.74710536 0.46588537 -0.5922431 -0.5455205 0.55044097 0.5642408 0.48165947 0.44703248 -0.04873278 -0.24177656 0.08556198 -0.39554563 0.11016826 0.61359066 0.49867034 -0.15802379 0.1365284 -0.034565073 -0.11517403 -0.550822 -1.146251 0.1887319 -0.27814552 -0.094199434 0.20293762 0.19770855 -0.6373527 0.1401721 -0.96580917
B -0.4254307 0.5598461 -0.10995455 0.598129 0.68479764 -0.644138 0.24535266 -0.3408536 -0.3255383 -0.25780845 0.33325005 0.8076935 0.10710782 -0.19537532 -0.2379483 0.031388074 -0.32653868 -0.48373306 0.42204967 0.32258877 -0.25212908 -0.22229604 -0.5596001 1.6778157 0.21656176 0.17330009 -0.24394505 -0.21851285 -0.8826679 0.20995189 -0.064958945 0.47952715 -0.12851483 0.34957403 -0.09525093 -0.2936367 0.14051233 -0.40873188 0.6719429 -0.50486517 0.86041194 -0.80252534 -1.2750244 -0.12567124 -0.5585761 -0.95087165 0.42116222 -0.12129511 0.11499396 -0.56548804 0.41421863 0.21781717 -0.042285923 -0.10939489 -0.29622373 -0.73829335 -0.2749331 -0.4257292 -0.1981472 0.7179647 0.5716222 -0.21380778 0.11477634 0.252729 -0.3744203 0.122723825 -0.9892827 0.37787634 0.38866684 -0.15226112 0.20963886 -0.5858824 0.63301855 -0.33672872 -0.23612018 1.147076 0.72329664 0.091371395 0.2609937 0.07044047 -0.4271494 0.24286935 -0.4780638 -0.30144992 0.886546 0.05447091 -0.2242843 0.34635055 -0.5498153 0.113135286 0.17917372 -0.8182916 0.7916409 -0.076155886 -0.43401086 0.653111 -0.009259613 -0.9226603 0.7421102 -1.3441819
G -0.3372818 0.26864177 0.35624084 0.46392748 1.0249361 -0.6412221 0.15435357 -0.28713745 -0.17145258 -0.08428926 -0.08143379 0.45285565 0.018621352 -0.051758915 -0.10004445 -0.28306592 -0.48659894 -0.20890895 0.3993537 -0.09278002 -0.085414685 0.15767278 -0.2665195 1.3685504 0.19637886 0.57261735 -0.6824947 -0.6086345 -0.5949325 0.1746962 -0.18236454 0.33795327 0.13060457 0.6272895 -0.02307074 -0.121920735 -0.06141907 -0.22934768 0.9498387 -0.18707912 0.07360493 -0.88966435 -1.152391 -0.07591994 -0.5864598 -0.854998 0.37125933 0.12217906 0.27111915 0.08657773 0.8254093 -0.21534383 -0.14022076 -0.0321832 -0.3731913 -0.88682836 -0.5744692 -0.0057090195 -0.66704416 1.2522364 1.0709807 -0.098201655 -0.22782417 0.4161321 -0.087908514 0.31400394 -1.0996625 0.015945379 0.2770914 -0.50129217 -0.053966977 -0.73626095 0.5576643 -0.55094695 -3.7944494e-05 0.54245377 0.90377563 0.5918834 0.12675358 0.20807217 -0.19650483 0.4736451 -0.12990037 -0.1345034 0.44021633 0.17608537 -0.13282119 0.13683799 -0.33001402 -0.23603998 -0.18696994 -1.255097 0.41593707 -0.13393338 -0.077869 0.58905154 0.1366005 -0.71451527 0.47888985 -0.8292389
A -0.1094382 0.6069361 0.077027455 0.81913894 0.5746935 -0.623595 0.3177622 -0.10354044 -0.41760242 0.14344884 -0.15901555 0.62699705 -0.06763619 -0.13449527 -0.09528454 0.027123258 -0.25078055 -0.6656907 0.18765475 0.20285523 -0.11668803 0.2876497 -0.52460843 1.6468168 0.36674199 0.22323234 -1.0763807 -0.67535573 -0.21155855 -0.4240926 -0.41494915 0.39905176 0.017013945 0.65534914 -0.2632049 -0.3239987 0.08620878 -0.34640658 0.42511812 -0.34192958 0.21648076 -0.70369905 -0.62795526 0.08722496 -0.36457807 -0.7126719 0.14886892 0.13233548 0.017675677 -0.19229344 0.5264867 -0.07437842 -0.40959373 -0.28592914 -0.42675388 -0.7482797 -0.41461754 -0.03714792 -0.061370503 0.9292485 0.6843238 0.29622668 0.19924559 0.031034563 -0.7902716 0.11770618 -1.0553112 -0.0013833755 0.71128553 -0.2550135 -0.008617591 -0.87044716 0.1954921 -0.3758439 -0.72677696 0.5812958 0.77375126 0.45581502 0.6316525 0.15458885 -0.5304031 0.19184962 -0.050456785 0.06545904 0.39215085 0.43731987 -0.3773719 0.34460565 0.23826706 -0.5419537 -0.25181872 -1.3185217 0.26584923 -0.39995027 0.012275176 -0.04010139 0.41531515 -0.9416423 0.46958876 -1.1719154
R -0.25375673 0.77503276 -0.14041553 1.14549 0.80404335 -0.5677707 0.057383884 -0.11162587 -0.16483541 -0.3266383 -0.033853546 0.5784783 -0.01065587 -0.11129161 -0.5518438 -0.007856445 -0.536448 -0.7358423 0.2620701 0.17423335 -0.30760428 0.31617934 -0.3309808 1.7075174 0.16918176 0.12203398 -0.8073338 -0.40165514 -0.3601713 -0.017551888 -0.5061956 0.36818022 -0.043870084 0.6111253 -0.1978013 -0.24730292 0.38871226 0.14728399 0.71129686 -0.15022616 0.3134953 -0.53649396 -0.8877401 -0.34343132 -0.23078795 -0.6245672 0.15021317 0.022018988 0.45751867 -0.2062843 0.25536743 -0.07479071 -0.42964908 -0.18870817 -0.4487578 -0.40361208 -0.27305526 -0.10049621 -0.21023737 0.6229198 0.44105148 0.22761261 0.09655956 0.020248411 -0.41523764 0.2587793 -0.5657155 0.21194924 0.37794572 -0.286921 -0.11544141 -0.652627 0.26351038 -0.43825367 -0.46694982 0.41801646 0.6160932 0.7179627 0.43563375 -0.33557236 -0.29114738 0.2622538 0.13553771 -0.081206314 0.482488 0.4585166 -0.24071819 0.29298225 -0.09396779 -0.38555503 -0.27146372 -1.126533 0.40153605 -0.2167442 -0.3110287 0.20274137 0.008857656 -0.8209699 0.43051514 -1.0953424
F -0.07052245 0.38017446 0.24886799 0.35959587 0.5706768 -0.52490926 0.10137557 -0.10933979 -0.37258562 0.10313656 -0.07602062 0.6064953 0.027761556 -0.03531976 -0.03314906 -0.082026176 -0.38284078 -0.6077809 0.51937646 0.08589533 -0.18730365 0.10674928 -0.5078809 1.2528386 0.52180314 0.2918862 -0.87521756 -0.37912172 -0.41284207 -0.21263044 -0.55148584 0.3441678 -0.07127816 0.19637965 0.20044348 -0.10974975 0.22241636 -0.27673277 0.1983356 -0.67784125 0.2897089 -0.5850528 -0.71039087 0.18470371 -0.19640349 -0.7363649 0.43260062 0.38562948 -0.2878283 -0.49094522 0.19161516 -0.02418546 -0.3935031 -0.45744565 -0.33630407 -0.8529802 -0.5460902 -0.0973679 -0.0074675935 0.8522692 0.61329746 -0.25159398 -0.05842198 0.08337536 -0.5513447 0.27246258 -1.2019717 0.14047337 0.44283766 -0.27700377 -0.14701568 -0.82550925 0.3812625 -0.52886707 -0.34774664 0.43157598 0.73298895 0.63245934 0.2950549 0.17993651 -0.17118958 0.21349387 -0.22122557 0.30615255 0.8881835 0.32421583 -0.53860587 0.17254998 -0.15746255 -0.2539086 0.34979 -1.171842 0.1826143 0.010492399 -0.15180446 -0.4159337 0.43524155 -0.53652734 0.84047425 -1.25237
D -0.50413084 0.10183438 0.453651 -0.22440402 0.5905161 -0.89402556 -0.53408504 0.2665476 -0.13722831 0.25099143 -0.41146985 0.010712108 -0.11962693 -0.79835314 0.48328176 -0.92494977 -0.65268487 -0.7965028 0.100288585 0.45046833 0.11510503 0.8264083 0.6606489 0.8211191 -0.3860319 0.22882456 -0.8758984 -0.42169413 0.2760638 0.052069537 -0.2461734 0.9220821 0.024486724 -0.038242765 -1.1804847 -0.8222839 -0.21027453 0.05331332 0.6133995 0.79858977 0.19720908 -1.5898929 -1.3116767 -1.5169408 -0.085304946 -0.7401849 -0.23305511 -0.16693674 -0.05973069 1.0904737 0.6557749 -0.72062355 0.25002253 -0.7552862 -0.4109963 -0.6438927 -0.020730047 0.30128634 -0.97776544 1.0939721 0.04000958 0.09333866 -0.7767641 -0.11082972 0.0071526216 0.36044666 -0.257599 -0.001333299 0.23507255 -0.06684724 0.06228616 -0.8117454 0.72990865 -0.07023465 -0.49403694 0.28922707 1.0914454 0.57707435 -0.43233266 0.11165409 0.21510614 0.33493876 0.61679745 0.41839436 0.40830842 -0.061014395 0.176538 -0.62534356 0.6572503 -0.37775332 -0.88120556 -1.0254098 0.39530772 -1.0270065 -0.44323683 0.6180641 0.6423951 -0.23605658 0.87568325 -0.063731864
T -0.27016017 0.5464147 -0.055394795 0.78864735 0.87417644 -0.66618484 0.11917402 -0.11318232 -0.2273298 -0.13072005 0.16038297 0.6905058 0.2359354 -0.17716895 -0.023018492 -0.07518606 -0.4202819 -0.5824891 0.2360431 0.19198671 -0.2141959 0.17777656 -0.40026814 1.7487822 0.25761646 0.37497485 -0.70349824 -0.413304 -0.6428076 -0.100383095 -0.3138327 0.5210169 -0.12743457 0.5578796 -0.084991194 -0.3437037 0.42925084 -0.13179125 0.8076596 -0.43024924 0.5876204 -0.8106394 -1.0506313 -0.3314857 -0.3809153 -1.0254818 0.32303202 0.045819674 0.13414955 -0.3108195 0.4934341 0.004374446 -0.518878 -0.31838018 -0.6009331 -0.7592983 -0.35973477 -0.3158183 -0.4271489 0.8973029 0.94705665 0.029696235 0.124541685 0.1853671 -0.3359201 0.30565852 -1.146303 0.099755324 0.33346564 -0.4571106 -0.26084143 -0.8757468 0.4824381 -0.53922087 -0.28530392 0.47641057 0.6330451 0.787585 0.46165913 -0.17709713 -0.2723108 0.35167268 -0.24226066 0.1474834 0.9097529 0.52445436 -0.49367595 0.35400838 -0.5226061 -0.36314616 -0.074387364 -1.1051002 0.49376592 0.023870094 -0.2996963 -0.025578799 0.06659821 -0.9712347 0.6961759 -1.3462636
O -0.23170796 0.5441053 0.21326236 0.7253025 0.8508361 -0.6627695 -0.02645716 -0.22675127 -0.26672295 -0.30111954 -0.09295821 0.7482298 0.040971253 0.057378087 -0.43851662 -0.28433228 -0.7336722 -0.7175251 0.6089029 0.0336379 -0.30422738 0.36120838 -0.6300476 1.7428906 0.4149432 0.30877742 -0.8144528 -0.48681694 -0.55079037 0.048885174 -0.48840237 0.3536099 -0.07493209 0.44809452 -0.18630368 -0.35508206 0.24189338 -0.17338268 0.67249614 -0.25032687 0.40174353 -0.9116867 -1.2402215 -0.25625768 -0.3184396 -0.7816351 0.45623913 0.21021773 0.060896274 -0.095370434 0.41672522 -0.2902957 -0.4026763 -0.24943605 -0.53761506 -0.85608983 -0.4481769 -0.019597584 -0.3920273 1.0787141 0.8122043 -0.077946454 -0.14057094 0.049140494 -0.28022438 0.3917678 -1.0414692 -0.15288335 0.28821015 -0.12603842 -0.034011636 -0.6081817 0.36829168 -0.58899826 -0.5029736 0.29906657 0.9501814 0.7871323 0.25022236 -0.20484994 -0.24892744 0.21709724 0.13925253 0.04726542 0.7540009 0.42272964 -0.21477589 0.27124637 -0.1498965 -0.44072634 -0.18306412 -1.2649171 0.24396916 -0.04244149 -0.29050523 0.08628741 0.25640386 -0.5780614 0.5939722 -1.0855019
J 0.2912246 0.27218258 0.32002866 1.3829784 0.6773947 -0.4294361 0.4605137 0.0871116 -0.3267022 -0.06414468 -0.076056026 0.32270068 0.03260304 -0.20225736 -0.04939485 -0.22324303 -0.6160126 -0.7222993 0.5330929 -0.11346825 -0.3968549 0.025061268 -0.1483047 1.3330194 0.4541914 0.13849084 -1.0613449 -0.60573155 0.16610888 -0.2723535 -0.63999873 0.09137243 0.030649185 0.60615623 0.3111831 0.04525589 0.26920527 -0.010685544 0.29233006 -0.5271045 -0.43844998 -0.17781492 -0.39050046 0.23811898 -0.3920979 -0.3756691 0.051734477 0.26196533 0.44640657 -0.33527353 0.27100465 -0.36840516 -0.58099794 -0.3764614 0.025120605 -0.83793825 -0.7072644 0.25850928 -0.3973154 1.0793326 0.6356974 -0.25177494 -0.116655685 -0.13935888 -0.25788525 0.3026925 -1.0634637 0.3386191 0.21933347 -0.41307703 -0.5826013 -0.725379 0.24261427 -0.7930893 -0.37138706 0.18462212 0.6624545 0.5155277 0.15138875 0.39905366 -0.36502787 0.35129413 -0.14086406 -0.0327734 0.40883493 0.30726123 -0.35556522 -0.10516534 -0.08443793 0.12278641 0.0063815177 -1.2475247 0.041341748 -0.024653126 -0.10882447 -0.23388456 0.4579801 -1.0282536 0.30617613 -0.87313807
& -0.24893302 0.07033577 0.11350304 0.10299887 0.5280225 -0.1980392 -0.16568097 -0.16623342 0.02543557 -0.15540217 0.11358307 0.3489759 0.25890744 0.22533971 -0.31919488 -0.31608623 -0.35671642 -0.3550601 0.4507375 0.31023186 -0.29551283 0.23682922 -0.729628 1.0969766 0.17822713 0.08566888 -0.10802038 -0.2666164 -0.45003217 -0.11436839 0.2038946 0.20745637 -0.43338007 -0.047293723 0.25924596 0.064207956 0.038138956 -0.5920344 0.01963123 -0.24785767 0.3382057 -0.43087173 -0.44900054 0.07251709 -0.16253969 -0.4155389 0.4233423 0.1519702 -0.37004632 -0.02590747 0.32149798 -0.28815505 -0.32579505 -0.18509534 -0.55584383 -0.4942628 -0.12185501 0.05478214 -0.07822536 0.33493206 0.5798046 -0.32324103 0.10176571 0.36121202 0.12089515 0.38783628 -0.793352 -0.25108474 -0.2337595 0.0638036 0.031721696 -0.37626806 0.39078814 -0.42171296 -0.035998 0.08717679 0.51987684 0.31034306 -0.087682754 0.043244366 0.26185095 -0.045346834 -0.25185025 0.1078487 0.97925985 0.1495736 -0.13473447 0.18349569 -0.612223 -0.20467289 0.27808306 -0.37142983 0.32236436 0.42424878 -0.23071976 -0.33485925 0.10669702 -0.25261998 0.30249852 -0.8466398
; -0.2605695 -0.07223373 -0.02328536 0.5562311 0.8818208 -0.44009334 -0.35238534 0.16651835 0.19022934 -0.014219634 -0.2980992 0.4700316 0.25781462 0.53360695 -0.84468627 -0.37348136 -0.6065179 -0.5405945 0.6617418 0.45435777 -0.59349275 0.3902656 -0.84549654 1.5724375 0.32878304 -0.09874173 -0.21308002 -0.449037 -0.46341065 -0.03517966 0.30420917 0.35171935 -0.60786885 0.007340247 -0.09152041 -0.17006539 0.18599766 -0.64626163 0.54746616 -0.40276304 0.41853243 -0.5749614 -0.78086716 -0.3295639 -0.3892266 -0.5602059 0.40136173 0.18259522 -0.41287562 0.20025164 0.78250784 -0.20997033 -0.56880313 -0.42478538 -0.6427944 -0.63581103 -0.07804153 0.20159934 -0.40424377 0.7428487 0.7050032 -0.27524856 -0.31015325 0.05486374 0.033244714 0.22038394 -0.9912404 -0.58317894 -0.18980129 0.038824238 -0.1382146 -0.4496437 0.35726374 -0.70058995 -0.15999517 0.19592048 0.6525577 0.64123476 -0.15925688 0.36649033 0.13731466 0.08058344 -0.59234816 0.3621564 1.2313031 0.18629466 -0.37240702 0.06336609 -0.84627676 -0.08147702 0.4193562 -0.31604552 0.40104777 0.6429735 -0.3002734 -0.30662027 0.11077385 -0.2982335 0.20152776 -1.2965195
# -0.2385585 -0.08819151 0.023142144 0.08243179 0.8291982 -0.19362682 -0.28459045 0.061476957 0.17658977 -0.14702527 -0.079447955 0.30057237 0.40187413 0.43013066 -0.57940185 -0.43110475 -0.44445905 -0.39360437 0.511077 0.37325853 -0.49376136 0.2954413 -0.7236054 1.248318 0.14196564 -0.05631444 -0.013557572 -0.26917478 -0.5696825 0.041851554 0.40342963 0.2901777 -0.54645324 -0.06294525 0.27240425 0.097985335 0.06899898 -0.7422134 0.20436227 -0.3813105 0.37318322 -0.4567838 -0.68089265 -0.11081513 -0.2258848 -0.46010342 0.49291262 0.12755868 -0.34125885 0.078320265 0.39141265 -0.29658815 -0.3367082 -0.3181416 -0.5996334 -0.35615999 -0.013775544 0.17082725 -0.24473555 0.44216046 0.64403373 -0.3895983 -0.11369999 0.2741093 0.1562375 0.3609086 -0.8171422 -0.3822367 -0.34970972 0.04955938 -0.026254982 -0.38277116 0.52206486 -0.6188993 -0.04881543 0.14683601 0.61612666 0.4373057 -0.23809268 0.17107303 0.27946502 0.09186263 -0.48860538 0.19282372 1.3179389 0.18232091 -0.1750631 0.08525257 -0.83907354 -0.124611355 0.37272388 -0.18948093 0.39915174 0.6671392 -0.35410315 -0.35719475 0.013267235 -0.23838818 0.29130954 -1.2398652
1 -0.26760262 -0.13724424 -0.017084548 0.25837526 1.0019612 -0.27068084 -0.38992494 0.1644152 0.25414342 -0.095382996 -0.23181684 0.3515547 0.4148694 0.57467115 -0.807491 -0.45361745 -0.5572071 -0.4543511 0.54725325 0.40532702 -0.5836707 0.39883664 -0.8278869 1.5034568 0.20774214 -0.118621744 -0.047068056 -0.36119023 -0.60888046 0.029909952 0.5911637 0.3563041 -0.6219042 0.01124124 0.15448318 0.04539484 0.1089831 -0.8463005 0.42537937 -0.42499796 0.43916047 -0.55168617 -0.7711239 -0.19708318 -0.3070246 -0.57210976 0.50924045 0.116960175 -0.35473114 0.17526576 0.63955575 -0.2967626 -0.48128757 -0.32203436 -0.72905546 -0.40848482 0.013133274 0.2253063 -0.29579076 0.59269136 0.78690475 -0.34912816 -0.18439741 0.21862587 0.18588413 0.34978983 -0.97224784 -0.5009078 -0.38380298 0.097881705 -0.09845072 -0.38255462 0.50233823 -0.7260906 -0.08198653 0.14563057 0.6404667 0.5112832 -0.21306466 0.27227885 0.25433856 0.13578703 -0.5831876 0.21780793 1.3853458 0.2977827 -0.19858673 0.092880465 -0.9655257 -0.15322648 0.40908343 -0.20498584 0.42474756 0.8116264 -0.37838686 -0.36095607 -0.03023327 -0.298197 0.2301467 -1.44783
7 -0.28385594 -0.13964926 -0.016138617 0.42885283 1.034384 -0.38091412 -0.4557955 0.18073839 0.261665 -0.04728134 -0.32226056 0.39622888 0.3456644 0.6148707 -1.026508 -0.48238486 -0.6606915 -0.5771954 0.6698868 0.5068458 -0.6796992 0.42645913 -0.93525094 1.6793219 0.2587077 -0.15384817 -0.113562405 -0.45834914 -0.54992723 0.01860659 0.551308 0.3939438 -0.7118522 -0.059599433 0.04512726 -0.074849494 0.12985668 -0.843165 0.53313816 -0.4440208 0.48948044 -0.6161534 -0.82681096 -0.30610183 -0.36423296 -0.6050188 0.48496833 0.19308269 -0.46779707 0.2305955 0.79707277 -0.27307677 -0.5778474 -0.40659836 -0.7548201 -0.5687961 0.0007975102 0.25300407 -0.39467242 0.72546744 0.8181746 -0.3426517 -0.32492062 0.1614125 0.14496985 0.3214338 -1.0473545 -0.6329724 -0.32805 0.05640299 -0.15348448 -0.44231915 0.4781874 -0.8138696 -0.07335828 0.1518221 0.6942422 0.63017184 -0.26391163 0.43493626 0.2631597 0.090140656 -0.65006536 0.34951258 1.4359481 0.22986318 -0.3080772 0.014245727 -1.0131292 -0.10146015 0.53670895 -0.23419462 0.45140532 0.8319902 -0.32401162 -0.4001866 0.04133902 -0.23113956 0.24560188 -1.5366307
4 -0.31106165 -0.11199641 -0.024828 0.5384596 0.9902783 -0.44852337 -0.46266866 0.20391421 0.2530077 -0.009738092 -0.37878767 0.45995313 0.25340325 0.6218739 -1.083904 -0.4386008 -0.6880394 -0.61353487 0.7316997 0.5333975 -0.6777779 0.44461516 -0.9722115 1.7206279 0.34650654 -0.13798253 -0.20400201 -0.50893676 -0.49392405 -0.02376291 0.46016178 0.38929066 -0.7063432 -0.07918326 -0.08643271 -0.18304822 0.15981194 -0.75131005 0.6246117 -0.39957827 0.49191543 -0.6331691 -0.83011836 -0.38535598 -0.40923947 -0.6304035 0.41871342 0.24076138 -0.5195863 0.2838471 0.91340095 -0.21748254 -0.63363826 -0.4374933 -0.7615229 -0.735948 -0.029797588 0.24110477 -0.4728877 0.83873504 0.82741004 -0.3041053 -0.39691725 0.10024656 0.08641249 0.2488656 -1.0964991 -0.69347453 -0.2452525 0.01953426 -0.16418977 -0.4697217 0.40210092 -0.82398486 -0.081324294 0.16952188 0.7118899 0.70155936 -0.256731 0.50152385 0.21764587 0.07197815 -0.65163237 0.42660314 1.3734052 0.18710673 -0.37843677 -0.0012398439 -0.9651281 -0.09612456 0.5535919 -0.27938458 0.43296987 0.77991426 -0.27945206 -0.39746192 0.11531786 -0.2220582 0.21735276 -1.4654734
L -0.22112462 0.5210028 -0.13279827 0.94410235 0.6679538 -0.67473745 0.08275787 -0.02824471 -0.17731287 -0.10708212 -0.033289183 0.7209498 0.040671162 0.044379737 -0.42846698 -0.010336996 -0.41031328 -0.5393578 0.40863445 0.28462353 -0.34460893 0.19469005 -0.58126366 1.7265947 0.39412326 0.11974719 -0.6375631 -0.5088369 -0.47290286 -0.10262154 -0.32587942 0.37450954 -0.15697259 0.44725135 -0.3959407 -0.49893472 0.29683477 -0.07523152 0.8816282 -0.26337355 0.4656464 -0.706002 -1.0084122 -0.4377628 -0.48282588 -0.72437894 0.16680042 0.09557808 -0.0050426153 -0.08425883 0.672743 0.029634876 -0.48497733 -0.366805 -0.4757369 -0.89169985 -0.30456054 -0.1269205 -0.53544 0.98483366 0.7588585 0.10373454 -0.12535457 -0.059611358 -0.42544636 0.012081479 -0.9346605 -0.24798694 0.4459148 -0.25534698 -0.04230744 -0.63744175 0.22637959 -0.4446248 -0.37705788 0.53909236 0.67070854 0.60551006 0.36881265 0.022889143 -0.4022202 0.12944777 -0.2765667 0.10489021 0.5511163 0.23279828 -0.42204046 0.26081723 -0.18840471 -0.27371696 -0.1986867 -0.86751217 0.37011024 -0.17637941 -0.17151168 0.1341531 0.15435304 -0.7428044 0.34028435 -0.85755765
H -0.19212537 0.5702508 -0.1671573 0.7673382 0.5421734 -0.5418724 0.27279562 -0.17169495 -0.16685499 -0.21914707 0.18482932 0.70520306 0.08223271 -0.066422336 -0.13605212 0.17756034 -0.3005975 -0.32927403 0.27968928 0.17846234 -0.22703189 0.0628629 -0.54374146 1.6009185 0.37672573 0.17855643 -0.47471035 -0.40447953 -0.45793557 -0.031377405 -0.35302046 0.3176753 -0.17262521 0.48913744 -0.2359989 -0.3178475 0.3362331 0.05196576 0.73287797 -0.22595552 0.48197258 -0.53203034 -0.84818935 -0.2959949 -0.46743047 -0.7236599 0.21031313 -0.016566582 0.15223002 -0.31823912 0.53285986 0.17851071 -0.4669406 -0.15640046 -0.43948808 -0.9375515 -0.28597575 -0.20288609 -0.40663937 0.8110386 0.63813025 0.012368522 0.082609974 0.029104881 -0.42981818 -0.026082715 -0.8936051 -0.0341653 0.30018157 -0.29759496 -0.059388604 -0.61930037 0.29821205 -0.26805 -0.21485543 0.588957 0.57206726 0.4407793 0.39389452 -0.14099035 -0.3803274 0.19080932 -0.21084164 -0.054698315 0.4485604 0.22887005 -0.34717846 0.46551147 -0.2827959 -0.1990912 -0.18981619 -0.86349934 0.43455383 -0.18637879 -0.16693966 0.2711589 0.001393668 -0.84487796 0.34392887 -0.69540745
E -0.25644052 0.53328013 -0.1457872 0.888672 0.60340834 -0.58821905 -0.033561654 -0.17489274 -0.12796178 -0.30370715 -0.012293066 0.5955817 -0.027120667 0.109572 -0.636321 0.010840151 -0.5088938 -0.60574526 0.5126798 0.26307824 -0.35280368 0.234813 -0.7061597 1.6356758 0.36729252 0.051451158 -0.52352804 -0.50633 -0.4458529 -0.06916989 -0.33779237 0.31724554 -0.23022905 0.26396084 -0.41486162 -0.44663727 0.21905003 0.07376403 0.9006804 -0.13086215 0.49399903 -0.6806495 -1.0414226 -0.5366957 -0.32867095 -0.564232 0.14488117 0.103967436 -0.08849761 -0.07996668 0.677383 0.05282728 -0.5274414 -0.34987417 -0.44643927 -0.9053424 -0.28913093 -0.0656138 -0.44546664 0.84516174 0.63913983 0.026392257 -0.2593544 -0.083253294 -0.39626193 0.034282003 -0.79286855 -0.38255817 0.37300834 -0.21520884 -0.097844094 -0.517688 0.1535274 -0.43756595 -0.26703128 0.45695287 0.6478598 0.6404723 0.28792644 -0.019212447 -0.25219715 -0.04828781 -0.20839085 0.11546897 0.5179238 0.21092944 -0.2940717 0.20149873 -0.16589923 -0.28043687 -0.12044048 -0.8100285 0.2822941 -0.024906129 -0.17882612 0.046766873 0.083631776 -0.5801589 0.2451502 -0.85842806
N -0.16765009 0.26058263 -0.008123002 0.5053398 0.46459153 -0.44294888 -0.03781623 -0.013229558 -0.092983246 -0.0142793255 -0.03088641 0.45221585 0.04946386 0.026198002 -0.3459934 -0.1322123 -0.36442885 -0.4717853 0.3132295 0.23039418 -0.19830264 0.1617244 -0.37639293 1.0969285 0.23812443 0.061020564 -0.4503483 -0.34500268 -0.26275787 -0.11697336 -0.1597467 0.2678412 -0.16419728 0.1865968 -0.20035437 -0.28524554 0.17966905 -0.14275664 0.52002066 -0.14837064 0.32735214 -0.479394 -0.6313709 -0.2831469 -0.31306952 -0.49162927 0.12004416 0.10772699 -0.12783924 0.016204216 0.50106853 -0.04858131 -0.3638235 -0.32120526 -0.38079703 -0.70471364 -0.20177911 -0.036718708 -0.4014248 0.78432614 0.5419225 -0.027693532 -0.17270501 -0.010423393 -0.17437275 0.09611142 -0.6754577 -0.18533306 0.21477686 -0.15264033 -0.07314204 -0.4507931 0.22484401 -0.40769333 -0.19865727 0.31610703 0.503934 0.4112051 0.13374892 0.09176192 -0.14040728 0.082139276 -0.20250235 0.10712622 0.47460365 0.13515164 -0.267572 0.06013102 -0.19434148 -0.14023012 -0.08284655 -0.59007275 0.27062112 -0.08832848 -0.16179386 0.019029241 0.1787398 -0.4975107 0.32322893 -0.7364506
K -0.11294583 0.27167383 0.057049222 0.47680306 0.38320446 -0.30249408 0.12940958 -0.060844477 -0.17085576 -0.14955106 0.006011283 0.3105246 -0.05582796 0.00040865882 -0.29573804 -0.057591885 -0.30571863 -0.35974443 0.27557033 0.07794273 -0.19422412 0.11076246 -0.2876164 0.81790805 0.17690535 0.07400717 -0.36288056 -0.2742747 -0.23904766 0.040726285 -0.17401655 0.17154574 -0.040389482 0.15040135 -0.10294163 -0.2195692 0.051845115 -0.044356965 0.36828887 -0.08962071 0.1733292 -0.42735684 -0.6118364 -0.17201148 -0.19211167 -0.36650646 0.14775242 0.08816718 0.04663259 -0.07717037 0.21687573 -0.06467296 -0.16285357 -0.11741623 -0.22252116 -0.6025811 -0.21191157 -0.007938295 -0.3062248 0.6451893 0.3134158 -0.027044278 -0.09557242 0.014802147 -0.24401404 0.022820536 -0.5034881 -0.0085261315 0.24610294 -0.20787287 -0.09531215 -0.40796345 0.20315325 -0.42135417 -0.11437844 0.29811856 0.61614907 0.33340016 -0.040164936 0.2278699 -0.19937688 0.045384604 -0.106642105 0.13080724 0.4699116 -0.029758949 -0.19343913 0.06819018 -0.06483928 0.010419686 0.052741162 -0.53991455 0.22390932 -0.051297057 -0.113801464 0.116695225 0.19933169 -0.3497094 0.2769028 -0.601474
V -0.037858173 0.31468323 0.020322107 0.47634012 0.56269145 -0.32016644 0.008891082 0.03107761 -0.12987077 -0.13566709 0.007544508 0.4823146 0.1822375 0.11507203 -0.10989588 -0.04921557 -0.3258388 -0.30845383 0.23603353 -0.0775821 -0.14658259 0.053982947 -0.21544676 0.91851974 0.3140271 0.14454533 -0.40605143 -0.18713285 -0.4727738 0.039402474 -0.24506776 0.26573494 0.011083614 0.31209758 -0.060116816 -0.27363372 0.28047118 -0.035296034 0.441981 -0.24825387 0.31379575 -0.46921584 -0.78096026 -0.1944576 -0.16228186 -0.57727414 0.25627017 0.049647924 0.14434437 -0.1783227 0.15241426 -0.0111428015 -0.29210714 -0.23852338 -0.3479562 -0.378245 -0.2653281 -0.13825814 -0.25330186 0.5494524 0.4621859 -0.06431627 0.052027665 -0.15132229 -0.16759168 0.1889214 -0.6507874 0.0742216 0.1308405 -0.11368575 -0.14213486 -0.37768817 0.22251312 -0.37549916 -0.33989137 0.21620885 0.5043463 0.4805396 0.19139464 -0.1969594 -0.27565685 0.20542699 -0.09646525 0.009625982 0.57065064 0.2949434 -0.21717143 0.2948271 -0.22359505 -0.1605536 -0.04595113 -0.6128207 0.17677736 0.051356293 -0.324873 -0.007311419 0.061696574 -0.58202153 0.32611626 -0.6848013
Y -0.20051976 0.24274002 0.0437431 0.38529846 0.45677707 -0.45928386 -0.08418939 0.028115673 -0.0052106823 0.09847939 -0.14025134 0.34974027 0.048061453 0.011163879 -0.3350117 -0.2153214 -0.28351516 -0.44974524 0.20432658 0.23741013 -0.22032186 0.26251617 -0.17655677 1.0071148 0.062629245 0.1572295 -0.3739787 -0.21583065 -0.18012394 -0.07553594 -0.02575958 0.22973332 -0.19691516 0.23849882 -0.1623515 -0.16791043 0.2184721 -0.17069627 0.45517766 -0.11008297 0.28492516 -0.47254562 -0.47262055 -0.32769254 -0.34828258 -0.5015647 0.1640495 0.124672286 -0.07684374 0.16623601 0.5251817 -0.051809236 -0.2728783 -0.20843354 -0.40183678 -0.6198624 -0.102271594 0.015837131 -0.44254935 0.7154682 0.5188176 -0.010601733 -0.12389435 0.19952014 -0.08286486 0.09137774 -0.60159975 -0.2106348 0.14061114 -0.2535588 -0.10386613 -0.45604742 0.2688069 -0.4198897 -0.136386 0.15364143 0.49681422 0.40235442 0.06169934 0.22533178 -0.020951018 0.17989184 -0.18551062 0.28148535 0.45961016 0.09719767 -0.27407417 0.002707237 -0.21560088 -0.1375638 -0.08485621 -0.5110705 0.24196836 -0.05281522 0.0714672 0.06726767 0.19390602 -0.29628542 0.37999344 -0.6708301
% -0.13555638 0.15975669 0.09654089 0.35462347 0.33936808 -0.33052248 0.0143162925 -0.1384685 -0.11027808 -0.006006624 -0.12986802 0.3356053 -0.019175956 0.073300086 -0.2992853 -0.06585688 -0.24991697 -0.30894583 0.3174837 0.12606578 -0.12612438 0.16806929 -0.35451972 0.8808841 0.2024945 0.17062837 -0.39272016 -0.320593 -0.15124322 -0.06788595 -0.22350144 0.124646656 -0.12927061 0.20016985 -0.109835505 -0.119698435 0.038414836 -0.13216381 0.34736165 -0.19821215 0.1169555 -0.3224288 -0.42314783 -0.0404153 -0.30510047 -0.3489084 0.18601106 0.17959541 -0.11768789 0.013847849 0.4453448 -0.025669694 -0.22247611 -0.14879006 -0.18142124 -0.5485077 -0.23223105 0.04320012 -0.22095019 0.6172061 0.44615936 -0.065716684 -0.16116256 0.09991722 -0.19162308 0.057767104 -0.5692172 -0.22966994 0.19468531 -0.18891737 -0.013619731 -0.36011627 0.14362541 -0.3259006 -0.14168344 0.21260044 0.41430026 0.37473297 0.1339297 0.1976759 -0.09302378 0.079954095 -0.13268226 0.11975124 0.27387372 0.078940906 -0.23083417 0.07560479 -0.16992041 -0.08832943 0.04599573 -0.55367106 0.1641406 -0.016942037 0.063951716 0.046425957 0.17161566 -0.23650786 0.15117632 -0.5120712
- -0.017384 -0.059851784 -0.020724848 0.23883937 0.027871469 -0.036114063 0.060814023 -0.091384485 0.0074666915 -0.10209094 -0.011266705 -0.035620417 -0.013233889 -0.08055371 -0.22860295 -0.08469044 -0.03855093 -0.06898192 0.08805365 0.118165605 -0.17755216 0.03079295 -0.075774536 0.2358394 -0.11816093 0.023104548 0.10301035 -0.04400066 0.14119883 0.1021456 0.019236349 -0.060493764 -0.13383836 -0.03137976 0.018306222 -0.008059466 -0.014620471 -0.020280585 0.03913212 -0.025934866 -0.049362555 0.0006387172 -0.010359918 -0.035992835 -0.16587459 -0.016610062 0.033051018 0.014237064 0.0561324 0.07420875 -0.005753066 -0.07932219 0.0048087793 0.11709352 0.07009612 -0.12935176 0.034657784 -0.028732687 -0.1904053 0.13378064 0.07237371 -0.059696954 -0.102602765 0.17087413 0.086319506 -0.04129181 0.0043315985 -0.11678393 -0.02874166 -0.26678103 -0.09634033 -0.10309934 0.07956713 -0.23966397 0.14254238 -0.0908732 0.17242888 0.2164486 -0.24962473 0.34693575 0.06217319 -0.040067982 -0.032454308 0.22074246 0.22425905 -0.27217564 -0.21985646 -0.097349316 -0.2766764 0.3227261 0.24394058 0.019099552 0.1151973 0.1434391 0.14294171 0.0880404 0.054138124 0.17268685 0.017834492 -0.004898771
U -0.13123706 0.2653341 0.036174715 0.37166524 0.2809818 -0.3002547 -0.04839638 -0.138768 -0.1190802 -0.07378522 -0.01687448 0.37570235 -0.027496992 0.07263693 -0.38536704 -0.02938751 -0.30791628 -0.45841065 0.31987965 0.15618122 -0.11855024 0.1635948 -0.39821666 0.9106818 0.26647872 0.07649364 -0.3863142 -0.24385719 -0.20964214 -0.12662154 -0.2149056 0.20388861 -0.15163018 0.095769085 -0.16546938 -0.22158751 0.09633249 -0.053014107 0.2835646 -0.14819466 0.3219071 -0.38203302 -0.4898235 -0.16266437 -0.17511688 -0.3981072 0.12314781 0.14726533 -0.18745007 -0.06586505 0.33001903 0.06555177 -0.30362293 -0.21621338 -0.32447845 -0.6692157 -0.16372894 -0.015671952 -0.15485734 0.5675193 0.3399925 -0.09735951 -0.07852927 -0.015650874 -0.2707779 0.048485138 -0.55719155 -0.14733495 0.23399864 -0.16266312 -0.08851627 -0.3749944 0.12840131 -0.33485165 -0.19512093 0.18299603 0.45699662 0.35491344 0.10901102 0.1338307 -0.1255399 -0.047663387 -0.06933035 0.1363956 0.39231518 0.08683358 -0.20300938 0.16063379 -0.085894965 -0.115363434 0.06758991 -0.52810186 0.15333073 -0.03819485 -0.06744985 -0.05451514 0.19075 -0.28806624 0.21035753 -0.5206697
™ -0.08949037 0.20714493 0.061137613 0.35457575 0.19111368 -0.22562161 -0.036976457 -0.10773029 -0.049640432 -0.055324215 -0.015509243 0.2746072 0.025077526 -0.014338834 -0.18188089 -0.063432135 -0.18590792 -0.33506733 0.16747777 0.08967901 -0.1066001 0.1056081 -0.21506299 0.6381069 0.092040405 0.08962929 -0.22704084 -0.115248255 -0.098497115 -0.126463 -0.10739713 0.084563784 -0.1140712 0.19261298 -0.08312115 -0.14637527 0.10239148 -0.09727583 0.17353038 -0.07177868 0.1905622 -0.25908005 -0.23487692 -0.073257744 -0.14331113 -0.23861027 0.05410437 0.014308773 0.01774042 -0.0020085487 0.24673006 -0.01615056 -0.19979651 -0.057775177 -0.18916346 -0.26474404 -0.054990456 -0.036095284 -0.060794894 0.22858666 0.28426948 0.05302747 0.109223574 0.09036782 -0.1340633 0.1517261 -0.30437377 -0.07738568 0.11656755 -0.06264707 -0.07989819 -0.20690396 0.06660567 -0.18000717 -0.24773197 0.08692345 0.2087165 0.19282226 0.19678538 -0.013182821 -0.105939664 0.0657875 -0.02016558 0.011927334 0.20588538 0.19372484 -0.0960976 0.12211045 -0.05766964 -0.16350774 -0.07299251 -0.38458136 0.09234402 -0.008072644 -0.008771631 -0.01812433 0.072859816 -0.29309916 0.11280002 -0.44804522
* -0.016382288 0.0591122 0.00848711 0.14014769 0.11942822 -0.12098954 -0.011290185 -0.013406054 -0.050435044 -0.025059992 0.003509734 0.12059297 0.0038772675 0.0047535533 -0.09266046 -0.020436922 -0.11076961 -0.15776752 0.10845353 0.044235002 -0.069730885 0.03435367 -0.13582751 0.3433441 0.1129879 0.0056188675 -0.11043917 -0.11097512 -0.070226476 -0.040493764 -0.027343232 0.1057539 -0.06784988 0.018148245 -0.09422627 -0.12149848 0.03553187 -0.012883874 0.17058109 -0.052718423 0.15881565 -0.20087516 -0.24292375 -0.13609216 -0.07178901 -0.1997983 0.028971152 0.015574482 -0.07722314 -0.023816593 0.1639926 0.04547815 -0.13662083 -0.092007875 -0.12991765 -0.3311506 -0.0640834 -0.0235238 -0.13723056 0.28151202 0.1742511 -0.057122488 -0.072057694 -0.033943392 -0.09963482 -0.0012765785 -0.26469144 -0.06413057 0.080598 -0.1058986 -0.105122566 -0.18129896 0.08434549 -0.16504733 -0.043972395 0.091469154 0.2151567 0.13757232 -0.008368667 0.13125387 -0.055936188 0.0038163916 -0.08423121 0.09895983 0.21804726 0.0124458065 -0.110517584 0.035064895 -0.06105581 0.0061870646 0.039128885 -0.19448498 0.05153023 0.008974347 -0.04418965 -0.0432893 0.082053855 -0.15382142 0.121560335 -0.23537932
Q -0.018481193 0.09130495 0.012681285 0.17119901 0.13107671 -0.117745206 -0.014363263 -0.005817154 -0.013538796 -0.02057698 -0.04915165 0.12170691 -0.028703619 0.06997251 -0.194508 0.017529473 -0.08605408 -0.124952905 0.10060357 0.023415362 -0.088178344 0.015976142 -0.14102831 0.31689516 0.088639736 0.032842338 -0.08244814 -0.10356863 -0.04137008 -0.012985994 0.0020130405 0.046465136 -0.087302275 0.012517778 -0.06944919 -0.12023436 0.036114577 0.013925896 0.21057945 -0.019976977 0.12619631 -0.15402687 -0.19263348 -0.12078608 -0.09211842 -0.17415647 0.033455323 0.05702345 -0.050972175 0.0045913416 0.19902654 0.08833773 -0.13663872 -0.016512843 -0.11953011 -0.31108454 -0.053484887 -0.02004913 -0.13628218 0.25716186 0.18066071 -0.0033924154 -0.063461624 0.026052278 -0.09601163 -0.016338898 -0.22454996 -0.11356204 0.072792545 -0.13835198 -0.12442437 -0.15349837 0.04341933 -0.19803181 -0.0039533633 0.062104512 0.21563286 0.16382365 -0.0042178514 0.19442058 -0.052532803 0.027741719 -0.10744676 0.12995681 0.1707838 -0.013581269 -0.13568527 0.03416621 -0.08639171 0.026298007 0.10799289 -0.15518564 0.053641208 0.06901162 0.06402751 -0.02116101 0.04588453 -0.095181 0.094865315 -0.28705436
! -0.016589405 0.054364294 -0.015606636 0.15055588 0.0629199 -0.0681368 -0.032062754 -0.010435529 -0.0075732977 -0.059547897 -0.0062409625 0.0758249 -0.032454137 0.04896593 -0.17525671 -0.0022122955 -0.08465182 -0.12822425 0.08978065 0.054588024 -0.08206871 0.039509438 -0.14931281 0.24289723 0.06971183 -0.013925642 -0.029348034 -0.07215444 -0.024997238 -0.024579003 0.026297102 0.047778513 -0.08418249 -0.035778098 -0.08668782 -0.12236701 0.019577684 0.010864753 0.11579734 0.009085621 0.1250346 -0.12646957 -0.14023265 -0.12824488 -0.014336531 -0.111911766 0.00986453 0.01974732 -0.07490664 0.014364159 0.09350699 0.040513907 -0.10866127 -0.023679359 -0.11425484 -0.22903372 -0.0041393605 -0.015128635 -0.08551296 0.15265353 0.09414577 -0.011568554 -0.04276648 -0.017970316 -0.057137057 -0.021171195 -0.13516796 -0.09584643 0.043721333 -0.065618 -0.101097174 -0.09518471 0.016467314 -0.14312127 0.007985248 -0.003017381 0.14403084 0.12834343 -0.04519079 0.12193848 -0.018853286 -0.04771344 -0.03903046 0.123997465 0.16170654 -0.029479396 -0.08313918 0.02744684 -0.055297732 0.018144695 0.08627662 -0.058782518 0.021334702 0.07149301 0.003501005 -0.058551397 0.046961974 -0.021141246 0.044227526 -0.1405524
Z -0.00053498644 -0.00029503345 -0.02770935 0.07422501 -0.0049414802 -0.016905745 -0.031664036 -0.022201376 0.012282881 -0.03769471 -0.013377409 0.021542376 -0.03315632 0.025953148 -0.12728766 0.01297456 -0.05650959 -0.04919525 0.03585247 0.0382637 -0.027121682 0.017026195 -0.10047279 0.09509774 0.031401873 -0.034164723 0.012477465 -0.06286387 0.041712124 -0.01362796 0.022526491 0.0156133445 -0.060814783 -0.058679283 -0.10014728 -0.0965777 -0.012234715 0.02067023 0.08636922 0.045525968 0.062674455 -0.05030573 -0.05084902 -0.09173338 -0.016500495 -0.03233667 -0.032113284 -0.0030327854 -0.056730106 0.041082934 0.08887534 0.033753563 -0.074612774 0.009695939 -0.058682665 -0.14600599 0.014806262 -0.011457256 -0.058354102 0.09970416 0.041284524 0.003597021 -0.061442807 -0.0422839 -0.02081479 -0.033544417 -0.035415784 -0.09951349 0.012403432 -0.04247138 -0.06141801 -0.022007758 -0.024474688 -0.06860436 0.023996131 -0.019493172 0.061644405 0.06846045 -0.044245344 0.09310212 -0.008020027 -0.061064873 -0.00093910424 0.06401277 0.035277925 -0.040178716 -0.04106743 -0.0054926574 -0.027333966 0.042239584 0.048036054 0.0058924006 0.009396876 0.039228406 0.009884552 -0.009133111 0.015728295 0.008397748 -0.022558285 -0.028180044
. 0.0026675696 0.046832185 -0.02114197 0.08436027 0.02504393 -0.02420859 -0.014424169 -0.020505974 -0.0037455258 -0.033269495 -0.018446963 0.02336048 -0.028839927 0.021437442 -0.1178006 0.023579337 -0.023726376 -0.07206429 0.014780274 0.0285385 -0.04363102 0.013794444 -0.08241105 0.13239667 0.018790726 -0.026493931 -0.0040217508 -0.04943337 0.031048194 -0.02557983 0.033057097 0.021398604 -0.052537948 -0.01898288 -0.05501209 -0.057027105 -0.00093942194 0.016991295 0.06298828 0.030045364 0.077539355 -0.05722889 -0.057529747 -0.069036536 -0.0018796767 -0.06083395 -0.0057323608 -0.0066147815 -0.02437966 0.012922776 0.05331223 0.051560268 -0.05912871 0.022405058 -0.06454923 -0.11028687 0.014118769 -0.021167498 -0.023430495 0.061830558 0.04521715 0.026086349 -0.011415011 0.0052584 -0.051831067 -0.019232698 -0.043326687 -0.06251936 0.037582632 -0.065198965 -0.067901015 -0.05774877 -0.0006524386 -0.083946384 -0.0111652315 0.0016630722 0.091024026 0.06708509 -0.01510787 0.10215012 -0.014547388 -0.028299114 -0.01077778 0.06894296 0.07371803 -0.016602028 -0.04981969 0.0147193605 -0.01463181 0.016103044 0.05338792 -0.037333842 0.011409308 0.03287138 0.030841995 -0.028377082 0.0129724 -0.024556711 0.026030418 -0.114170365
’ -0.0018339085 0.044843547 -0.020880045 0.07838866 0.048929427 -0.035843536 -0.018213294 -0.009135536 -0.0034640674 -0.03697649 -0.013349874 0.031462613 -0.016253255 0.021275124 -0.08975441 0.011026807 -0.036200073 -0.06914564 0.031079238 0.018063908 -0.03594635 0.018031398 -0.07133234 0.13479154 0.029716037 -0.020406224 -0.012934031 -0.045308348 -0.0064797862 -0.011593182 0.020561215 0.030763207 -0.038644172 -0.017387317 -0.04861276 -0.055979837 0.011190111 0.010618788 0.07860079 0.0085472185 0.08044185 -0.078430064 -0.09051975 -0.08483479 -0.0014010756 -0.07392911 0.003932185 0.0019857462 -0.02053818 -0.0018871941 0.05855958 0.04617482 -0.064904906 0.0016524513 -0.06487606 -0.12059075 -0.0045650234 -0.013381014 -0.032746717 0.08339 0.045594577 -0.003161939 -0.02564242 -0.02091334 -0.05580098 -0.014332589 -0.07582796 -0.04163697 0.029338608 -0.061352964 -0.07966114 -0.0688405 0.014096125 -0.09069719 -0.0039386987 0.011938496 0.09517303 0.084557 -0.015947495 0.08844257 -0.016116172 -0.020035606 -0.0266195 0.07204958 0.09911869 -0.010375154 -0.057478096 0.021268558 -0.023522351 0.019502606 0.05352294 -0.050988033 0.02378136 0.041096892 -0.005998208 -0.027193759 0.009751009 -0.047066074 0.039760627 -0.1271695
© 0.021340905 0.0149860475 -0.014176761 0.063801035 0.004683164 -0.0014056752 -0.022756113 -0.012137588 -0.021321159 -0.03365099 -0.024805265 -0.00269008 -0.035749257 0.015655177 -0.09037953 0.019007005 -0.015402557 -0.061247308 0.013065554 0.006488099 -0.009390482 0.00505977 -0.053488247 0.10135392 0.02909661 -0.011574541 -0.004699916 -0.038851496 0.03861952 -0.025728788 0.009214017 0.026701733 -0.015410313 -0.03125005 -0.05543133 -0.03727778 -0.030090408 0.03610325 0.030128669 0.021045988 0.053625148 -0.03775313 -0.044282015 -0.043019626 0.0023475604 -0.046304155 -0.005047576 -0.001210279 -0.038053937 -0.0016578342 0.021086838 0.045013428 -0.029368483 0.018977303 -0.03472752 -0.09356085 -0.012730177 -0.010472663 -0.009857203 0.04861122 0.013350061 -0.0117370635 -0.03798989 -0.014071099 -0.041858904 -0.027845362 -0.031775095 -0.035679415 0.024428682 -0.06356348 -0.05639789 -0.03433055 0.006347227 -0.053658698 -0.0034538987 -0.009149805 0.060445227 0.027853733 -0.021197978 0.09057995 -0.008509496 -0.022950098 0.003661153 0.03567351 0.03328593 -0.025294937 -0.029604765 0.012063424 -0.0002350213 0.032539602 0.048672978 -0.036472034 -0.010796172 0.01320956 0.021279387 -0.02462576 0.015252311 0.0041636727 0.017446812 -0.043776337
Ú 0.010214829 0.026289003 -0.01168581 0.044073682 0.009101155 0.0029593697 -0.012543826 -0.015855754 -0.0034347589 -0.03352556 -0.016166713 0.0073681455 -0.019549139 0.01885862 -0.07971554 0.02269785 -0.0073902537 -0.036661576 -0.007518625 6.1144136e-05 -0.016285786 0.015516407 -0.046003204 0.066732064 0.010876528 -0.020541918 0.003178063 -0.02258135 0.01591826 -0.0059809713 0.019045847 0.0074182204 -0.019938143 -0.007585923 -0.040881503 -0.032082368 -0.0061917845 0.020013249 0.038363576 0.02846784 0.047885843 -0.035975575 -0.03721296 -0.04764798 0.004144189 -0.029327426 0.00048219398 -0.0054840804 -0.009885952 0.008270098 0.012289232 0.040995162 -0.02694026 0.027658539 -0.03496617 -0.06465461 0.007931073 -0.007448956 -0.0077564684 0.032725666 0.0043489956 0.007315341 -0.006836304 -0.00893545 -0.040652968 -0.022888448 -0.015643215 -0.034682345 0.02055769 -0.052345067 -0.044748858 -0.030002851 0.0030362392 -0.04342677 -0.010666199 -0.014778962 0.06368889 0.033226248 -0.020513235 0.057441663 -0.013039488 -0.017865933 0.00938188 0.03564307 0.038187638 -0.01368682 -0.02103823 0.024724146 0.005621969 0.01876792 0.034876693 -0.019962981 -0.0032197232 0.0182669 0.026336867 -0.009830126 0.0014543569 -0.0028312656 0.0097216945 -0.051124748
X -0.0063468413 0.022688253 -0.011105245 0.049791828 0.008172483 -0.016871095 -0.00180986 -0.0013015717 0.0053599505 -0.010403899 -0.009138292 0.02038007 -0.016829692 0.011785766 -0.050993063 0.010892552 -0.01968786 -0.033774696 0.006826903 0.013225782 -0.02244132 0.0042685033 -0.031924576 0.06357738 0.020729449 -0.010100751 -0.010596957 -0.016234564 0.001620086 -0.012520177 0.003748232 0.016049713 -0.022943757 -0.0052686925 -0.033695128 -0.02131894 0.008837478 0.008697372 0.032846782 0.0020037023 0.03745922 -0.02461691 -0.031688567 -0.030599171 -0.0041170884 -0.02760102 -0.005453722 -0.0003444456 -0.011428343 -0.0023208824 0.031634685 0.023786932 -0.027302675 -0.003259288 -0.03318021 -0.056720708 -0.0028572283 -0.0020397455 -0.019633293 0.03702724 0.010107806 0.0079414 -0.0047677658 -0.00661758 -0.024595886 -0.018711325 -0.027878946 -0.02704389 0.021519685 -0.021352552 -0.029085346 -0.029327236 -0.0010248957 -0.024844406 -0.0056137387 0.0123888515 0.03488323 0.024742994 -0.002634373 0.036849786 -0.010999951 -0.0095516825 -0.017748106 0.0279607 0.02741471 -0.004519357 -0.028975746 0.013894608 -0.004071523 0.0066077714 0.02003396 -0.013294359 0.0040160986 0.010649589 0.00273929 -0.007412884 0.010459075 -0.0103740115 0.008419481 -0.035328016
